W1 Weights (784 x 200):
3 -14 -3 15 13 -5 6 -8 -11 1 -18 7 -10 -1 -17 -14 0 6 -8 -4 -9 -12 -13 9 2 -10 2 -17 7 -5 -11 -18 2 -2 9 -13 13 -4 -9 -18 9 -7 1 19 4 -3 18 -16 15 -10 -7 -14 -9 0 16 13 2 -10 16 -19 5 -15 -16 -13 -4 5 -14 -11 13 -3 -16 -5 2 5 -6 -13 14 -16 -17 10 -13 -12 16 -2 8 4 -17 -9 14 19 -8 0 16 -12 -1 -8 6 6 -6 -1 15 -10 14 -2 7 -19 -3 2 17 -8 -8 16 1 -20 -14 -19 5 -11 -16 -1 -20 -11 11 17 -3 -9 -19 15 9 -13 -13 -4 -3 13 6 -15 6 -17 -1 4 -12 11 -8 9 3 -1 10 -12 8 15 0 9 16 -17 -2 -15 -14 -9 -19 15 -1 -12 -16 8 -19 10 13 0 14 -16 -16 14 7 -4 3 -9 7 -15 -1 -4 12 11 17 8 15 -13 14 -19 -2 15 9 17 15 13 -2 8 3 -9 -12 -11 
-4 -16 -17 -17 -7 -2 -14 -20 4 -2 -12 -12 -11 17 17 16 -16 3 10 3 -10 -1 -8 -15 -16 10 5 -1 14 6 9 -18 2 4 17 7 15 -16 8 -9 2 8 -1 3 6 -12 0 2 11 -10 -15 -19 1 -10 18 5 -20 -4 -16 6 -18 5 8 -4 -18 -2 -16 17 2 4 -20 16 -8 -1 -1 10 8 11 -7 -9 -19 -10 -7 -6 0 -17 19 1 -1 16 19 -7 -7 8 10 -5 -14 6 -16 0 -10 -16 -4 2 -4 7 -15 16 -1 -2 -13 -8 8 -8 -1 -11 -4 -10 2 7 -14 1 13 -8 -19 -5 -1 19 -19 4 -1 -9 0 7 5 8 -13 10 4 -2 -20 4 2 9 16 -19 10 -16 -8 -8 12 -10 5 5 2 -1 -20 -18 -2 13 -2 10 -16 10 -11 1 -1 -4 -8 15 14 -16 -1 -11 13 -4 -10 -5 0 2 -1 -16 13 -15 1 -13 4 -7 -19 14 -14 -1 4 -18 -18 6 4 1 -18 8 
-12 9 12 8 18 -2 16 -12 13 -12 3 -7 -7 -12 -10 14 -13 6 -12 -11 0 -14 8 17 -11 10 3 13 -17 -3 -7 -8 -14 -15 12 16 -5 8 17 -11 16 0 -6 -19 0 4 8 7 -10 8 16 2 14 -3 -1 -17 19 -18 8 -17 0 -19 -13 -2 19 11 -5 -6 -1 -8 -5 -13 4 9 -11 -16 -15 9 3 -5 -3 0 18 -9 9 -11 -13 8 -8 15 3 4 9 10 -18 0 1 -11 6 12 1 -18 -20 17 3 -19 -19 9 10 5 16 -13 17 14 -10 6 -16 -3 -6 -12 -15 18 12 6 0 6 -14 14 16 12 -2 -11 6 -10 -13 -10 -9 -20 11 13 -3 7 12 -14 -6 15 12 -10 -8 19 -10 -11 9 14 15 -19 0 13 7 -12 -2 -14 -10 -16 -4 -3 -14 0 -11 17 -15 -1 -3 18 5 3 13 -2 13 17 -11 -17 -13 18 17 14 11 -11 0 -1 -2 18 5 8 14 13 17 -19 -7 18 
10 -1 -3 19 -11 -17 2 14 -7 -13 11 2 -18 10 -8 11 -3 15 -19 17 -6 -9 7 11 11 1 -3 0 -6 10 -2 -15 -19 16 16 -18 11 -1 16 -16 -2 0 -2 1 -10 2 -8 -1 -3 -15 -4 4 -4 -17 -13 19 -3 4 -1 11 -13 10 16 -20 -2 5 -17 -11 -16 11 -15 -6 -9 -5 15 -6 9 -12 13 18 -15 -18 2 2 17 10 -7 -6 -14 13 -14 -7 3 14 -6 13 -1 -3 -18 -5 -12 19 10 -8 -6 -3 6 15 -3 -9 13 3 -7 -12 -15 -9 10 -2 -3 16 -17 -5 -10 -2 -10 4 -9 1 13 -15 9 13 -16 -9 -15 -10 8 3 -15 -14 15 19 9 -20 -13 6 -17 17 16 1 5 -20 16 15 -10 18 -9 2 -8 16 -1 -19 10 4 -8 7 14 -20 -17 12 18 10 3 7 10 10 -7 14 -1 -18 -13 -16 -18 15 12 -16 14 -17 -2 -14 -20 18 19 2 2 -17 -19 -12 -17 -16 
12 -18 14 -5 1 -3 -15 7 -9 -4 9 -2 1 3 -7 -7 7 19 -12 -14 17 -20 -16 8 -6 -2 11 -4 -2 15 -8 -9 9 19 6 -10 -4 4 9 -1 -20 -2 9 -7 -19 14 -2 9 6 7 7 3 7 11 -8 -18 -19 15 -10 -1 10 -6 10 -9 -7 -3 -6 1 -19 -17 -20 13 2 1 -13 -5 -4 5 -16 -18 -8 11 -3 12 -6 1 6 -5 -3 8 15 19 -18 -3 -17 -4 14 -3 9 7 -8 2 1 6 -17 0 -18 -9 -15 -14 -15 -10 10 3 14 16 16 0 -8 -15 -12 19 -15 -10 -4 -20 -2 -17 -3 -12 2 1 10 15 -12 5 -5 -10 17 -7 -12 -18 3 10 -3 -3 7 -14 9 11 -9 9 10 -12 19 18 -12 -10 13 -3 -10 -4 19 12 -9 -13 -3 -1 -3 -14 12 -3 -19 -5 -12 -2 4 15 -4 -15 6 8 14 -12 8 13 18 17 15 12 -6 -15 -20 -15 17 -17 -8 -13 2 1 
-7 -6 19 -6 1 19 5 17 14 -19 -18 -8 1 16 -8 -10 2 -18 19 -3 14 -7 -5 6 -9 -16 10 3 -9 -8 17 -3 -1 8 11 -20 7 -4 10 1 -10 12 5 11 9 17 -19 -17 11 12 0 6 18 7 -16 -11 12 14 4 15 19 1 -8 -2 -11 16 -10 16 -16 -20 -11 -6 5 14 -14 -14 3 19 -11 -5 12 1 13 10 -11 9 11 13 4 -5 8 -5 17 13 13 18 9 15 15 13 8 16 -20 -7 3 -14 -9 18 17 0 -15 1 -19 10 -17 -10 0 14 15 -16 -18 4 -1 19 -11 -16 9 18 11 -4 3 -1 -7 3 4 16 1 15 6 -9 -13 12 12 -11 2 8 -9 -18 -6 -13 18 -4 3 -3 -13 12 -7 17 2 -15 -7 17 -4 -2 1 13 -14 14 0 13 -15 8 5 10 9 19 -2 -20 -18 4 19 -20 -19 2 -10 -20 -14 3 9 0 8 -17 -2 17 -7 11 10 0 5 -10 
-7 11 18 10 1 7 9 11 0 3 -5 -1 4 -12 14 6 -11 12 -11 10 -7 10 13 3 7 19 -6 -11 -1 11 -1 4 2 -10 -14 15 9 15 6 -19 -9 14 -7 7 -18 -13 -7 -17 19 2 14 -16 -16 -1 -1 3 -2 13 12 9 5 -16 -7 19 -6 -1 15 15 -13 -7 9 -10 -13 -18 17 -18 -11 -10 -15 -20 4 11 17 9 -17 -4 -8 1 -18 -15 -17 -1 -19 -12 -2 -13 0 -15 -18 7 -1 11 9 6 13 6 8 14 16 6 7 -8 -3 4 -19 0 -20 -14 14 14 -17 17 -7 -16 17 12 -9 -3 9 -15 16 -12 9 5 15 2 -9 -5 -11 19 -19 16 -8 -9 0 -15 3 -8 -9 -11 -13 -14 18 -8 -10 16 -16 -7 -7 6 -1 -10 14 -12 15 1 2 19 17 3 18 10 -1 -18 13 11 -12 -3 -16 -9 6 -17 -2 5 -5 0 1 -8 6 14 18 -15 16 12 -15 12 -14 -1 11 -17 
-17 1 5 2 -4 -1 -6 4 16 -10 7 -6 -7 17 19 0 -10 -8 12 16 19 10 13 15 -5 18 7 1 -3 -10 -4 0 4 -19 -17 -20 -8 -11 -4 -20 -1 -17 -5 4 13 -14 -16 -17 -9 9 11 -10 -1 4 -15 6 2 5 19 11 7 -13 -16 -9 -19 19 -9 -7 -12 7 -6 -1 3 1 -17 -12 7 19 -17 18 8 14 -20 -20 -2 -14 -2 12 3 -2 -5 -10 5 -1 2 6 -2 5 12 -2 -7 -14 17 8 7 12 16 -14 12 19 17 0 13 17 -8 -17 15 11 7 -2 -11 14 1 6 -6 -17 -15 4 8 17 -17 13 15 -20 1 -6 5 -3 0 -3 -12 -11 9 13 19 14 16 14 5 -5 -15 6 -10 6 -8 -4 9 -11 12 -11 -14 15 15 13 8 -4 -13 -7 6 0 2 6 9 -17 0 8 17 -4 -5 2 4 0 -20 6 18 -15 14 -1 -6 6 8 -7 2 3 -14 -18 12 -6 -13 -10 
14 9 16 -5 4 -4 -16 2 5 -9 16 -19 3 17 7 1 -18 1 -20 -12 19 0 1 -7 -16 8 -5 8 -18 2 10 16 -17 6 -9 0 15 -13 14 -8 -10 10 -7 13 -1 -20 -6 -7 -7 -6 2 -16 15 -17 -2 11 11 13 -9 5 -12 -19 -7 -17 -1 -3 -5 -6 4 -11 6 7 12 11 0 -9 3 7 -3 16 13 19 -19 0 14 -9 -9 -2 16 -6 -17 -16 -13 -3 -20 7 14 -5 13 -10 -3 -8 9 -11 -17 -10 -8 7 9 9 -5 2 0 -12 -17 -5 -1 -14 5 -4 -7 0 -8 0 17 -16 -13 3 0 -19 6 17 -15 -13 18 -12 -11 -10 7 18 -20 -17 1 0 -17 -4 7 3 2 -8 11 15 13 -17 -12 2 -12 -5 18 0 -12 -4 -11 -7 3 -13 -6 13 -3 -19 3 -11 16 -16 2 -20 -8 -11 -5 7 -6 -14 -6 19 -19 2 -7 -19 18 -9 -7 18 -1 2 -16 15 1 -10 0 11 
-17 -17 -20 -20 -20 2 12 -8 4 -13 19 18 -15 -6 17 18 16 -10 -20 6 -6 -7 -3 5 8 1 0 -11 3 -20 12 6 -16 13 -2 16 -13 -10 -12 11 -11 -12 1 -14 -6 -2 -15 -10 1 -15 9 7 -10 -14 -8 18 -1 5 -20 -18 -3 12 8 1 -3 -13 -11 -3 -11 -2 -12 -1 -2 10 5 12 -20 2 14 -7 7 3 -20 10 1 -15 8 -20 10 0 14 -13 -15 3 1 -6 2 10 11 3 -20 -20 14 -2 2 -8 -10 2 14 -15 8 -6 0 8 -16 -18 5 4 -18 -13 -15 17 -5 -18 -8 8 -4 6 -10 -20 -11 -9 12 16 9 -6 -12 12 8 -18 17 -12 -4 -3 17 0 -1 -6 -15 -6 2 -18 -17 9 16 -5 -3 -16 13 -1 -16 14 10 16 10 -8 -18 18 -16 3 -19 -19 11 -11 -10 0 10 2 15 7 16 -11 1 19 18 -3 -14 -5 1 11 14 -2 5 -3 -14 -4 9 -19 -6 13 
-4 -13 6 19 -3 16 0 19 -10 -13 6 -14 -12 -13 17 -14 -4 15 -7 17 6 19 -13 -8 -4 -6 0 17 -5 14 10 11 -18 -12 10 -9 -15 -18 -10 -13 -19 16 -6 -11 15 -17 -5 -9 11 0 -20 -3 0 -12 1 16 -6 -19 14 9 8 -4 -8 2 5 -18 13 2 17 -17 9 10 11 15 -20 6 19 -13 9 2 8 9 19 -12 9 -7 16 -17 -14 10 4 14 19 16 -4 4 11 -11 18 0 -16 -1 -10 15 -5 -10 1 -14 -10 -18 8 18 4 -1 18 -7 4 14 -11 11 -3 5 -3 -4 2 14 12 -15 15 10 5 12 -11 7 7 -4 18 -19 2 -20 -17 -18 18 7 -6 16 13 18 10 14 9 -13 -1 -13 -5 -19 13 -13 18 0 9 -5 -8 11 -17 12 -13 13 13 2 13 8 -4 11 -4 10 -1 -19 9 -19 15 -10 -11 -6 -11 -4 -12 -18 4 -14 -5 -7 -6 7 -16 -3 -9 -16 -10 -16 
-2 -17 13 14 6 -19 5 -15 14 -14 -14 9 -4 -13 15 6 4 -17 0 -20 -18 15 -7 -12 -5 -10 5 6 -14 7 3 4 10 -12 -10 -12 -19 15 -7 15 -19 -9 4 -10 -9 -9 8 15 -13 -12 15 -19 16 -20 -11 -9 -18 14 9 -20 1 -16 4 -17 -8 15 -9 -7 2 -4 -20 -4 -1 -4 -2 10 8 -14 -3 15 -6 -16 16 -10 -15 -15 -7 19 11 15 -20 -16 19 -4 -13 -16 -17 -10 -11 6 6 -10 14 -15 -2 -8 8 -14 -2 -15 13 4 -10 1 7 -13 -2 -20 18 -11 7 18 -7 -1 -13 -8 -5 -10 2 4 8 -20 6 2 -14 -15 6 6 -17 -16 11 17 1 13 -10 -12 12 9 -20 11 10 8 1 16 -13 8 -12 2 11 3 18 -1 3 5 14 1 2 -8 -13 -3 -11 11 -6 10 4 -3 18 -3 -14 18 -20 8 6 1 4 5 -18 5 19 13 -12 18 -16 3 -5 10 -15 9 -17 -16 
-17 -8 15 -7 -32 0 10 -20 9 8 10 12 -4 -3 -18 -7 15 -16 -2 22 9 -2 4 14 -19 19 -4 18 0 -1 -17 6 3 -3 19 5 -10 -2 -5 11 -11 -12 -8 5 -3 0 -1 -17 -1 9 17 -32 -13 -7 0 -20 -16 -9 19 4 11 14 -17 -14 4 -18 12 7 -1 -16 -5 5 -19 11 -17 -10 -8 -6 -21 -3 0 -17 -2 -18 -3 -7 15 -7 -3 14 18 -22 0 -34 -14 -16 14 17 3 -7 12 -18 14 5 5 5 16 3 -8 -18 -20 6 -15 -24 9 -6 4 -4 8 -19 -10 -2 -19 2 -1 -8 -2 -14 18 -18 -10 2 -19 19 -12 1 -5 16 -30 -14 18 16 13 15 -13 -7 -18 4 10 2 -3 12 -27 -30 -14 -9 -1 4 -11 -11 -9 -1 4 2 -10 12 -17 6 8 19 12 3 16 -3 -7 15 3 0 -1 -15 -5 17 -6 6 -20 8 12 -9 0 -18 0 -14 -22 16 9 4 8 4 -10 -12 
-1 14 -2 -8 -45 12 -13 6 19 -1 13 15 -12 -6 -10 15 -8 15 -1 24 9 11 8 -18 8 -3 6 -12 14 8 -11 -2 2 -24 9 7 -9 4 -18 -17 -20 11 4 -14 -14 16 -4 -4 1 7 18 -49 -1 6 -45 19 -16 3 -13 18 -8 -12 -12 7 16 10 -6 19 -4 -1 -23 -8 -16 6 0 -18 -1 9 -32 6 -42 -10 9 7 -18 6 -2 18 -11 -2 8 -1 6 -18 -20 -6 -4 -8 -6 5 -1 -4 22 -5 15 -4 -3 -20 -17 7 6 -16 -17 -35 3 17 13 -17 13 -17 0 -12 -4 -14 9 5 1 19 3 8 1 -18 -24 -5 -3 10 2 6 -19 -3 -7 -3 1 -12 4 15 -9 -6 19 6 -7 -1 -17 -22 -3 -5 -17 9 -5 2 -33 16 -4 -7 -8 15 -18 6 0 14 -17 19 -17 -3 14 -1 -6 21 9 -7 -29 -18 -27 -20 4 -1 -5 2 4 7 -16 -19 -34 1 -14 8 -13 -10 -6 -1 
16 -11 -15 11 5 -20 -18 11 12 12 17 -17 6 1 -20 -4 -13 -8 13 10 -20 17 4 -12 -10 11 8 -3 13 14 17 1 -17 14 -16 2 14 -13 -6 -1 18 -16 2 6 -3 2 7 4 14 0 -5 6 -10 -20 14 0 3 2 10 -12 -4 -1 10 -8 -7 5 14 -12 11 -20 7 2 -16 -11 19 2 -1 6 -14 -3 -13 -12 16 -11 -14 10 9 9 -15 -9 17 -4 10 -2 5 -16 -16 -1 -16 6 -8 3 -14 -4 12 -13 10 -13 2 17 4 13 -9 -8 14 -3 15 -2 24 -20 7 7 -7 -3 17 19 -7 12 -10 -3 -2 2 -20 7 11 4 6 1 11 -8 -2 -12 17 1 0 11 15 -18 19 0 -13 6 9 -7 -17 16 -20 -11 7 -6 6 19 9 7 -2 0 -9 -16 13 15 -11 -11 -17 18 5 -5 2 -12 3 1 11 2 -13 0 15 -18 -1 11 -9 17 18 18 16 7 -3 -6 19 0 -10 12 
-13 -9 16 -18 -10 -6 -2 12 2 13 -7 -18 -13 -8 -6 15 -6 11 6 -2 0 4 -12 -12 -17 5 2 14 17 4 7 -15 16 -5 -13 -14 9 -3 10 -17 -18 -17 18 -10 -5 -8 -15 1 15 11 11 -5 -12 19 3 -17 -4 17 18 -14 2 5 -9 -10 -20 -10 -12 2 8 18 -3 10 -19 -5 -20 -12 0 17 1 -5 1 -7 3 9 -16 18 12 -7 16 10 -1 -10 -13 10 -8 -20 -20 0 -6 0 -2 11 -9 -1 19 -17 -1 -1 -19 12 6 -6 17 -11 -17 -18 -12 7 -5 16 -10 14 -14 -11 -4 -2 -11 -4 18 -5 9 -12 -13 -20 7 18 15 18 -3 8 10 15 -18 8 -15 17 2 -15 -3 9 -19 7 3 19 16 19 -11 18 -13 -13 -7 16 -5 -8 8 14 -10 -4 4 -1 16 -14 -5 19 6 -8 8 -12 -3 -15 17 -10 12 -8 -11 1 -17 -2 -9 -17 -3 -4 11 4 9 -8 -10 11 8 6 
-17 4 12 -10 -5 -1 -6 -16 -1 11 -11 -11 13 14 1 -18 -5 -3 -8 6 0 1 14 -9 -15 3 -5 -13 -13 -17 13 -18 0 -3 -16 7 16 -2 11 -12 -11 13 -3 -18 7 10 16 14 -13 -20 -8 -1 1 -14 3 -2 2 18 5 9 -18 -10 3 -6 7 7 -19 -4 -15 5 4 -14 -2 -19 -20 -15 11 8 19 11 8 -9 -10 -11 -3 13 -1 11 12 16 -8 6 -14 15 -20 5 -6 13 -19 -1 -2 -3 -3 16 -2 -3 13 -18 -15 4 13 5 7 15 6 -15 9 -15 8 -7 13 -19 19 19 16 11 -3 -9 4 -10 2 15 8 -20 11 -14 -11 -3 -20 -5 -19 13 12 9 9 -1 6 -10 -4 -6 3 -10 -5 -6 -19 -16 -15 -2 -5 1 9 9 -4 -3 9 -20 -5 19 -3 -4 -14 -2 -19 18 19 2 -11 5 4 6 12 -13 16 -13 1 17 -9 -2 -4 -2 -20 17 -12 -4 -14 9 -4 1 8 5 
9 6 16 11 -3 15 -15 6 -7 10 -8 -15 9 -12 -8 -17 18 -4 1 -14 6 1 -17 14 10 -11 -4 18 2 16 4 -8 3 0 15 -20 -13 12 -2 0 2 3 5 -16 3 10 -13 1 18 8 7 4 -18 2 -9 12 11 7 2 -14 3 -14 -10 18 -2 17 10 -2 9 -11 18 -16 12 -4 -12 -13 18 -5 9 8 -17 -4 -16 17 11 -5 9 -6 14 -8 0 -10 -10 10 -12 1 7 11 19 -11 -20 9 -7 4 17 -7 11 7 8 -8 -5 3 1 -8 1 -8 -1 -18 6 -6 -14 19 -4 -11 9 4 10 -11 -5 1 -10 -13 -18 3 3 12 8 -13 -9 -4 -9 -1 11 12 11 -16 16 -10 -13 3 -4 -15 2 12 -6 -17 -11 16 -16 -4 -3 -6 -4 -8 9 19 16 -3 18 -13 5 -18 6 -3 14 -3 1 11 8 0 -14 16 6 0 9 -20 -5 18 17 0 -6 -14 6 10 -10 -4 2 -14 5 -8 
-6 -9 -6 12 0 -19 -10 13 4 10 -6 10 6 12 -18 -13 12 -3 -15 1 9 0 0 -4 -18 10 12 4 9 -11 9 15 0 -17 7 -20 -16 9 14 8 -1 -20 -10 18 12 -8 -15 -4 2 -9 18 -9 3 -10 7 -3 12 -9 14 1 1 3 -4 13 -2 16 6 3 5 -8 -17 17 -8 -14 15 16 -2 -20 -8 12 -17 -18 -16 -2 -8 3 8 -15 7 2 -2 -12 17 7 13 -5 3 -1 10 -12 11 6 -15 15 12 12 11 -18 5 16 15 8 18 19 19 -17 -6 7 -20 -19 -19 -10 -19 18 17 15 -7 0 -14 16 1 18 2 -2 5 -6 -17 -11 -4 8 -15 -9 -12 15 -18 19 10 -3 6 10 -10 7 13 -8 -3 10 -13 11 -17 -7 7 -4 -17 -11 6 9 -5 9 18 11 -3 15 -17 -2 10 17 -3 -7 -6 16 15 5 -5 8 9 13 -1 16 -4 -6 -19 15 10 17 16 -4 -2 -9 -14 -12 
-18 -5 -17 17 13 5 15 -9 18 -19 -13 6 -2 2 -6 -13 -13 13 -17 3 -13 17 -2 9 6 -6 -14 -16 5 -16 -8 0 -1 -13 -3 -15 4 -16 -4 -5 -14 -5 -19 4 9 -5 12 17 -19 7 0 -20 -4 11 10 -18 -15 8 -14 3 12 -10 -17 -9 -11 -8 -4 6 -3 4 -19 3 11 14 19 1 -19 11 -10 -18 -9 2 15 7 -7 5 10 -9 -15 8 6 17 11 9 -20 12 13 -11 -2 -10 13 -9 5 -3 17 -3 10 19 -12 -20 13 -9 -6 8 19 0 -15 1 3 -10 -19 -11 19 12 10 -20 -3 3 -11 7 6 14 19 -17 -17 8 0 13 7 1 5 1 12 12 -19 3 -8 -13 -16 15 -11 -14 -16 -11 10 14 -19 -13 -11 -10 15 15 16 6 11 -20 -6 -9 5 -18 4 -17 -5 -3 15 -4 12 -13 -5 17 14 5 -17 18 6 13 4 7 -19 13 9 8 1 -3 -6 -8 -11 8 -5 15 
2 12 10 17 -19 5 -14 13 12 1 10 -2 18 5 -4 4 -1 12 -17 -8 -3 12 12 18 -18 -14 -18 -9 6 -10 18 -11 -18 8 18 15 -15 -16 8 9 -2 -1 -13 -4 -16 -5 13 -5 -13 16 -1 5 1 -9 -5 -5 -11 -10 6 16 -8 -3 17 -14 17 15 -19 -17 12 9 12 -10 -20 -20 -2 17 -5 -9 -16 -5 -20 4 -20 -7 7 -13 8 17 -3 -6 13 1 3 10 7 1 -3 8 -4 -19 -10 -12 -17 -10 -20 2 19 -4 5 -16 3 -3 0 -5 10 -13 2 -2 -16 12 5 17 -7 -12 -1 -19 1 9 9 17 10 19 -14 6 -18 18 -12 -19 -14 5 17 9 -17 -3 -16 5 5 7 -16 9 -9 9 -1 4 9 10 5 -9 -9 -13 -12 -18 18 -14 8 -20 -15 8 14 -9 -15 11 -19 -20 -11 -15 6 6 4 2 -5 15 -9 6 0 -20 -11 17 -17 0 16 -8 -6 15 -10 -18 7 -5 2 -7 
-1 0 17 0 0 -14 -3 18 4 14 0 11 9 11 -2 -19 4 -1 11 7 19 7 11 -6 -6 -18 -12 14 -11 3 19 8 -17 16 -20 -5 14 -10 -6 -2 -16 14 -10 13 -2 0 7 14 19 -2 -7 18 17 -15 -16 -16 19 -7 18 -12 8 17 9 11 6 9 18 0 19 -8 19 -17 19 -11 9 -3 9 -4 -17 0 6 -4 -2 3 -7 -5 7 -8 0 -3 -7 -12 -13 -18 11 13 3 9 -15 3 -18 -16 -2 13 -15 19 -18 6 -13 -15 -14 13 1 -3 -11 15 12 8 19 -8 18 -8 0 -15 -6 -9 10 10 12 15 -7 6 12 3 -1 17 -5 1 4 2 -2 2 -12 12 19 -11 -1 11 9 -2 15 7 3 -5 4 9 -2 -6 -1 -17 -18 4 9 14 -12 -11 3 3 2 19 17 13 2 -15 5 -7 -14 -16 17 16 -6 12 3 17 -20 -20 7 -10 -14 -14 -7 -12 11 -17 14 11 -16 -2 -14 -2 
-3 15 -9 19 13 8 -7 19 4 -18 15 19 14 -9 8 14 -9 -13 17 -11 -6 -10 -2 17 -15 -16 0 -11 2 -2 0 -20 -7 11 11 -14 -8 16 -14 16 18 13 7 5 -16 -4 -9 -13 3 -12 -11 9 -1 -1 -2 -4 3 18 -2 -14 -4 18 18 2 1 1 8 13 -2 6 10 -12 0 -3 13 -4 5 -15 -4 -11 -7 5 10 4 -16 -11 13 7 -13 -9 5 -4 -11 3 18 10 17 -2 -4 -5 -15 18 3 5 -13 -11 -19 13 -6 -3 14 -1 14 4 16 18 5 9 -2 5 12 -17 -19 -19 -1 11 3 -4 -11 11 3 -6 9 18 11 17 19 13 10 -7 -18 -4 5 9 12 -7 7 -2 14 17 -17 6 13 16 -1 -8 7 -18 0 8 14 15 -17 -5 5 14 -8 5 -1 14 10 -6 -10 -5 -17 15 0 2 -7 -6 0 -4 12 -7 -8 -9 -3 11 -6 9 -1 -20 -4 -6 -5 -19 -19 0 6 -8 
-14 -3 6 -11 4 1 -16 -15 16 -3 -9 -4 5 -16 1 9 -13 10 0 1 -9 11 -7 7 -14 1 8 -13 13 -13 -9 19 4 10 -12 -20 -9 -16 17 -13 -7 -11 -5 18 -15 8 7 -8 -2 19 6 9 11 11 -12 9 -16 17 8 17 -16 19 9 0 9 9 0 13 14 -2 12 -13 -1 -20 -14 -4 8 5 0 19 -3 -14 0 -12 10 9 9 14 -2 -3 12 -6 -12 1 14 18 -10 -14 3 16 -4 -5 -16 7 -13 -18 15 16 -1 -4 7 16 -6 -13 -16 -16 16 13 19 -14 -18 3 0 -9 16 -14 -19 18 -15 4 15 1 11 11 -19 19 13 16 7 -8 -16 -6 -19 -1 1 -15 -5 -10 11 -14 -4 5 9 17 16 -3 -17 9 -4 -12 -15 -17 2 17 6 -5 8 -9 -17 -5 3 -12 9 -4 -1 -18 2 14 -8 -15 -19 9 2 2 6 -9 -20 1 -20 -12 2 -14 -17 16 15 9 -17 3 -20 -14 
18 -5 -14 -1 12 5 1 -14 0 14 -17 1 -5 5 -17 13 16 15 -6 9 -17 8 15 18 -4 10 7 -1 -15 7 6 -17 -17 12 -6 7 -2 15 13 10 9 16 -17 -16 1 18 9 -10 14 -16 19 9 4 14 8 -19 -4 -5 0 1 15 18 -4 10 11 10 -3 -19 -3 -10 3 19 18 6 15 -9 4 5 1 -10 9 0 -20 -15 -14 0 -14 -6 15 7 7 2 -3 -17 -8 -12 5 9 -19 -17 11 4 -18 9 -10 9 -19 7 -6 2 17 15 15 17 -19 13 -3 -13 -12 -15 6 15 7 -16 11 12 -16 -4 1 18 -9 -15 2 -15 14 5 15 7 -8 -11 -18 -11 -15 17 19 -14 10 -12 -15 10 -15 4 6 5 0 -3 -3 4 5 10 2 9 15 17 14 2 2 1 -11 6 11 -9 7 8 -20 6 6 3 7 11 -7 12 -13 11 -11 7 -20 6 -8 6 -3 6 -13 -16 3 -19 6 17 -5 8 
3 18 11 -9 6 4 9 -8 -13 -4 15 -8 -19 15 -16 -10 2 -16 17 14 2 -14 -7 9 -10 16 3 9 6 18 -3 -11 16 -12 0 -6 12 -10 -2 11 -2 -15 -16 -1 -20 -20 2 3 16 -1 -11 -9 -3 2 -20 -1 -9 -5 -12 17 -7 5 18 -19 6 -9 -5 -10 -7 13 -18 11 19 18 -17 19 10 5 2 6 16 4 17 -7 -14 10 4 -11 -15 13 18 -9 -10 17 -8 8 -12 8 19 1 -7 13 -16 -16 11 19 -16 -7 4 -2 19 -8 -18 9 -3 -19 -1 -18 -18 -4 15 -19 7 17 10 12 6 18 -8 5 -9 5 -10 -13 10 -19 -13 6 -14 3 16 -15 16 19 6 -15 12 17 -13 14 -14 14 7 13 12 -3 -3 -10 -13 9 15 -10 -13 -15 -2 9 18 -3 -5 -16 12 -9 -19 0 -18 0 6 6 -3 5 1 -5 0 -12 -11 -16 -2 -2 -6 5 -12 -19 16 -13 18 -14 16 8 -5 -17 
4 -13 -14 -3 8 -11 17 -6 7 -13 11 -12 2 -9 -11 3 -13 7 -18 -7 -16 -18 -6 -20 -19 -16 18 17 12 -7 12 -4 1 18 14 -19 19 11 -13 7 10 18 7 -7 -18 8 8 -11 -5 10 -5 -8 4 9 -16 5 6 -17 -6 -2 -12 -14 15 1 17 1 2 8 -16 1 -5 15 0 15 -20 2 3 8 3 11 -9 18 -17 7 0 19 -7 -14 -18 7 4 -9 6 -9 4 3 4 -13 -17 9 8 -9 -4 -20 -14 -4 2 1 16 18 -16 19 16 19 7 -4 19 12 -6 -19 -9 19 -16 17 -18 9 -8 7 8 -4 -12 -12 7 4 -11 5 12 3 -14 0 -7 -9 0 -10 -10 19 -2 -11 11 13 -17 14 4 19 4 -2 0 16 17 -12 -16 -15 -11 3 9 -2 -20 1 13 19 14 -13 -18 -14 -11 -16 -15 -1 -6 8 -16 -11 2 0 -20 -14 19 1 15 16 9 11 -18 10 -13 3 -20 -13 17 14 
18 11 13 -20 17 -18 -15 -18 -7 -9 2 -2 0 16 18 0 -17 17 -19 10 6 3 -7 0 -15 0 -17 -14 0 -20 12 -2 3 5 -1 0 -1 -4 -6 12 7 16 -10 -13 5 -19 -1 0 10 -7 -10 -4 8 -5 16 13 16 12 11 -12 4 3 -2 -12 -12 9 8 -1 -15 15 -16 12 3 -6 11 -12 -13 -17 8 18 -4 10 -6 16 -14 -17 1 14 15 -7 -18 -1 16 0 7 17 -18 -12 -4 -13 -17 0 -20 -2 7 11 7 14 14 -5 4 -18 18 19 10 -16 14 -8 18 9 -3 12 -20 -7 -16 0 -18 -14 0 -9 -6 -5 3 -14 13 -18 17 0 17 4 8 1 -2 6 -8 -11 2 -14 -7 -8 7 10 -16 0 15 -12 -20 10 -13 0 -19 -7 7 4 -1 0 7 -12 13 -4 4 -7 9 -17 11 14 -16 -7 12 -11 5 0 11 1 -20 -2 1 12 -12 8 -16 -11 -19 11 6 -8 -17 -15 1 16 
-7 -15 -11 14 -20 12 8 -16 -15 1 -7 2 13 16 -17 5 -5 -3 -3 3 -15 1 5 19 -16 -17 -9 -13 -12 4 16 -7 10 17 -13 10 10 16 7 7 -11 12 -18 14 9 17 -1 -16 -6 8 7 -8 -19 -8 -9 -15 -5 -6 -16 -5 19 -20 8 9 18 8 -9 0 4 18 -13 5 11 -11 -1 -8 -13 10 -4 1 -2 -17 5 -1 -12 16 4 -5 -17 0 3 -18 1 -17 3 -1 11 6 19 -13 5 18 12 -12 -12 -17 0 -13 13 8 0 -17 3 -14 2 11 14 18 19 17 -1 2 19 12 -3 -6 -9 -11 -19 -18 -4 -2 12 -19 -2 12 -16 10 19 10 -2 -8 5 13 -10 -12 5 -16 18 -4 -18 -11 10 13 -19 -13 -20 -16 -4 13 18 13 -9 11 6 1 3 2 -9 -5 -16 1 7 10 -6 17 10 11 13 8 19 15 18 9 1 19 17 -7 16 -15 -14 14 10 -3 5 -4 10 -11 19 13 
-4 -17 -14 -17 13 -8 12 3 -16 5 -16 -17 -7 14 5 6 5 -6 19 1 -1 -15 -4 -10 -6 -19 -2 -16 -18 -11 9 -2 -7 15 -7 18 -13 -15 -6 -17 3 -10 -13 8 -16 4 -6 9 18 -15 -9 -3 -18 7 -1 -4 0 18 -8 3 19 -19 -19 -8 8 -5 -17 15 -8 -11 19 7 -1 18 -5 -5 2 1 -16 -8 6 -13 9 8 6 -19 16 -13 11 -20 10 10 13 3 15 1 10 10 -11 15 19 -12 2 -10 18 10 5 0 -9 1 12 18 1 -7 -2 -13 -14 -13 -6 17 -13 16 0 -19 -8 -5 -6 -18 -15 3 9 16 3 -8 18 1 -18 -5 13 -15 8 -3 -17 -11 11 -6 -3 17 1 3 7 0 0 -13 -7 12 -6 0 6 -9 -17 -4 -13 7 0 -15 -20 -6 -8 14 -1 -20 -9 -5 -10 14 1 -1 4 14 -18 -9 -6 2 -10 0 -14 4 -20 5 15 15 13 14 2 -7 11 -5 7 -17 
-11 18 -17 0 -7 -15 -13 6 4 11 0 7 -18 15 -19 -8 -13 -20 8 -13 5 3 -18 -2 -11 -3 3 -20 12 -18 15 13 -20 18 -15 -14 16 -8 12 0 -17 -7 -13 17 -20 -19 -19 -13 -19 9 -14 6 -16 -20 16 -7 -11 -1 -15 13 1 -20 6 1 11 4 -1 7 16 -8 -13 12 -3 -13 9 -11 -12 11 -4 -11 0 -6 7 -3 -6 3 10 4 -18 8 -3 3 8 16 16 -9 0 -4 18 -4 0 18 -12 17 -15 10 18 -7 1 -14 -6 13 0 -19 -10 6 4 13 -10 -2 1 0 -19 -19 -12 9 -7 8 -15 -9 16 -3 -11 17 -14 -14 7 -16 -9 -20 -10 5 13 10 -2 -16 -11 14 9 -9 -8 -10 11 -15 -17 19 15 -4 -1 12 0 -4 -18 1 -7 -12 8 12 -7 11 12 -5 -3 5 18 7 1 -13 -6 -10 -2 6 -8 -18 4 -4 13 -9 4 -7 15 -16 9 17 6 14 -14 -14 6 -9 
9 -2 6 18 -17 -4 6 -3 3 -20 7 14 -2 12 16 -18 -12 9 -15 12 -18 -19 9 3 18 -13 -3 16 -15 15 -13 14 -7 6 13 -11 -18 -1 6 -2 -9 -15 -8 9 9 -20 4 17 9 9 2 4 10 -9 19 1 -10 -11 -3 -5 -16 -3 -11 -10 15 -18 -1 9 -7 17 -13 4 14 -9 -14 4 -9 10 -7 13 -9 15 -3 14 18 -4 -5 -12 5 4 3 2 -19 5 12 16 7 -9 -2 13 -20 5 -3 6 9 -5 -10 -20 -15 -4 13 -3 -17 -18 -9 -18 -1 -2 -18 16 -18 -2 -2 -16 -17 -10 12 2 -7 -18 -5 -15 8 5 4 -3 -20 6 -11 -14 -18 15 -5 -14 17 -2 -20 -4 16 -18 -15 10 0 -5 6 3 -2 -9 -14 3 -7 1 1 -19 18 -15 -10 19 11 -8 17 14 -13 -8 -20 -16 2 -20 -7 -10 14 -10 -20 -5 5 7 10 -17 18 16 -1 -9 -10 -20 -15 -12 -15 -13 19 16 
-1 16 2 -2 -12 -6 3 2 -14 8 12 -19 18 13 -4 -5 0 18 -9 -2 15 10 1 17 10 6 17 7 6 17 -5 -15 13 18 -4 14 -8 19 -4 -1 -1 -11 -8 -11 -18 0 4 -6 -2 15 4 -15 -3 -15 -18 -13 4 12 6 -10 9 -18 -13 -6 -20 3 -12 -16 -6 -3 -5 13 -2 7 -18 -8 -13 -1 6 6 -6 -18 11 4 -13 6 3 3 -2 -10 13 19 -8 13 -7 -16 -4 -6 -12 11 11 -4 -4 -11 -17 -9 -7 -17 10 19 1 16 13 -16 0 -20 10 -16 -4 -20 -6 -19 19 -2 14 -15 2 -9 -1 2 14 -18 18 -10 -17 14 -7 -4 17 -17 -13 -2 -20 -20 2 -8 12 -15 -4 -12 -15 2 -18 17 -20 16 -18 -6 19 -7 17 5 -13 7 8 -10 1 -19 -2 -10 -15 5 0 17 -3 -18 -11 -11 -20 5 -10 17 -12 -8 6 -19 -20 0 -5 -20 13 -16 -3 -20 12 -15 -18 -15 -13 0 
-4 -16 17 16 -19 -6 11 -10 4 3 8 6 1 9 18 20 10 18 0 -15 10 -15 -10 -12 -14 -18 -15 -20 19 -8 1 -13 -12 -10 16 -11 5 7 -8 -19 -17 12 7 -4 1 -2 -5 -9 -5 15 -3 18 -19 7 18 19 1 -17 19 -8 -12 -8 0 -4 -5 -4 -2 -20 15 2 -19 18 -6 0 -6 16 17 2 -13 -8 -3 -4 -18 -10 15 -20 -19 -12 16 13 1 -16 -15 -19 -8 0 -3 2 -8 -16 -16 -15 -17 -1 5 -11 -13 2 11 -6 7 -19 3 1 -17 -2 2 -15 7 -10 18 -12 -6 15 -19 -2 -12 -10 -19 0 -6 17 6 -11 -4 -17 -1 -5 -2 -18 10 -15 15 -15 6 19 3 -20 -16 -18 -10 -18 -11 -4 17 -17 7 -15 -7 8 -2 8 5 16 9 14 19 -12 -11 -3 -17 11 -6 18 16 11 9 -7 13 11 -6 16 7 -3 -16 -3 0 11 -6 14 -1 12 -6 17 8 -17 3 0 -16 4 
9 -15 -6 -17 -94 -16 17 7 -9 0 -8 49 -10 -20 -22 145 -2 0 -15 136 -16 -4 -3 -2 -15 16 -6 10 -14 0 -6 16 -1 0 12 -12 7 2 15 13 17 -22 -4 -12 10 45 3 -10 1 1 12 7 19 -20 -12 -258 9 -6 6 16 18 -19 12 -3 -2 1 5 14 68 -6 10 -17 -17 -18 -10 15 41 3 16 2 -17 -27 -3 18 3 -3 14 -10 15 5 -21 -24 0 15 -17 16 -36 2 12 -5 5 -4 -2 10 -10 19 -1 -5 15 -3 -17 -20 11 -8 12 -4 12 9 -1 3 -8 2 0 12 -9 53 1 1 10 -2 6 -5 5 17 -21 -19 -12 -24 -5 -18 13 -7 17 6 10 11 13 -3 -8 -13 -20 4 -126 -10 -10 4 7 4 33 -12 -17 6 -3 11 -4 0 5 2 6 -20 9 55 -11 7 17 9 -9 68 -12 3 10 -14 -20 -17 -20 -88 10 11 -17 6 31 -20 -16 1 5 2 13 -10 -13 -2 
-17 12 6 -8 -215 0 -14 3 -26 -18 -17 96 -14 18 10 293 -5 -4 -11 233 -21 -18 -9 -14 3 14 1 -7 -20 12 12 -23 0 -9 -19 8 15 -10 -14 7 0 -21 -4 6 8 95 -15 -12 -2 -11 -14 -6 -5 -15 -4 -457 12 -41 -17 6 9 8 1 -19 -11 -14 9 10 165 12 1 16 0 17 -1 -7 126 0 -9 -24 1 -68 8 -20 -1 -24 11 -12 -19 -18 9 -72 6 -1 6 11 -49 -10 -5 18 15 12 9 -9 10 23 8 -2 -1 15 7 -16 -11 -20 -11 11 -13 15 12 -20 14 8 18 0 -8 110 -14 6 6 3 -4 -8 -9 -13 8 -13 -15 -36 3 4 3 -14 12 15 1 16 -19 14 11 -6 -19 -2 -243 4 14 18 -31 -45 31 -11 -17 -15 15 8 -17 11 17 -14 -13 -8 18 115 6 2 -11 -24 -6 141 13 -18 10 2 -4 4 -37 -165 8 -22 -9 -22 105 12 -16 5 6 -7 -4 -5 3 2 
4 -13 12 -13 -131 -14 -9 -6 -4 10 -20 44 -6 4 -17 601 18 8 -7 101 -560 7 17 -12 -8 -2 -20 7 -8 0 -38 -59 15 -25 -35 4 -9 -15 -3 -21 -16 1 3 -39 -44 304 -7 23 -16 -25 17 -22 6 9 4 -55 -33 6 -3 -5 -10 0 -19 16 12 6 -58 -232 316 84 1 175 -2 -14 -16 1 103 -8 -8 -9 -61 -243 -14 18 -25 8 8 -26 -18 -11 -15 -21 15 -2 -1 -7 -26 7 -20 159 -9 -28 12 6 5 14 -6 -1 -83 1 -6 -12 -14 -20 -12 -15 -15 11 -15 -18 -26 -11 -7 -12 13 182 -20 15 68 -13 -4 -8 -33 -8 -8 -7 12 17 7 11 3 -14 -23 6 17 -13 -24 -20 10 14 6 6 -391 2 -5 8 -45 -32 10 -25 -76 18 -20 10 -19 -1 -17 10 -16 -25 6 151 -28 3 -24 8 16 271 15 -3 -9 -13 -14 -18 -26 -64 21 -183 17 -18 59 -10 13 3 -19 30 -18 -10 19 -16 
-16 -15 -4 -16 -126 -3 -9 21 -22 5 -11 56 -7 7 12 1309 29 12 -15 310 -579 5 17 -24 -13 -1 -17 4 -40 -14 -9 -496 7 1 -41 -13 -4 -14 11 -10 -8 8 -20 -36 -58 506 -13 4 3 -29 -10 -14 -10 -12 3 -598 -12 -22 -9 -7 25 5 2 -22 7 -16 -59 -241 491 130 -17 129 -9 -1 -4 -9 -198 -11 4 -6 -38 -308 9 6 24 -20 7 -21 -34 -19 -1 -469 14 -22 -20 -21 -89 22 -1 235 -12 -19 36 2 -11 29 -64 -34 -90 12 7 -26 7 -24 -29 9 -24 23 1 -32 10 26 39 -13 -17 221 -6 -8 82 0 -16 3 -157 26 -4 -6 22 20 3 -19 4 -7 -30 -8 3 -14 -106 23 -14 -17 10 7 -752 -11 -16 24 -59 -14 35 -41 -68 -11 5 -6 -13 -4 9 -2 17 -14 14 235 19 1 438 -27 1 674 12 5 10 13 -7 -1 376 -623 17 -166 -5 -24 109 14 -13 17 1 19 -4 22 30 -17 
-2 7 -17 -28 -147 -138 -2 1 -40 -5 -12 49 8 5 -10 1693 33 25 21 602 -259 -22 202 -4 14 -8 -29 32 -40 -7 16 -108 30 -26 -58 7 6 -27 2 -14 9 -26 -19 17 -40 609 -7 29 -3 14 -5 -7 29 24 4 -1446 -22 -12 3 15 28 -122 -19 -41 57 -22 -2 -21 489 119 1 30 -2 24 6 -28 -301 16 -25 -13 -46 -191 16 10 -5 -2 -12 -23 4 -24 -5 -809 -16 7 -2 -11 -29 19 -24 227 -21 -21 223 -3 -17 -3 -510 8 -41 2 8 -1 8 -12 -58 24 12 8 0 -7 -10 26 226 -23 11 233 -10 9 26 3 -19 -12 -63 14 -22 37 0 -12 -21 11 -5 -19 -12 25 3 -1 -224 161 -29 6 9 -5 -948 -26 -6 19 -49 9 5 1 -24 -4 -22 -12 -5 -4 15 -13 18 6 7 182 17 -2 827 -26 -29 911 -7 7 7 -14 -23 9 475 -1301 19 -176 -14 -97 299 22 0 6 -27 -2 22 18 2 4 
-8 -28 -89 -36 -244 -16 -10 19 -62 -4 11 62 26 5 -146 1655 0 22 -16 897 -249 -18 37 -10 -35 12 -42 23 -67 19 16 -22 -8 -50 -72 5 -1 -45 -9 -18 0 -46 -64 -4 -47 726 0 107 -18 15 -1 -7 -4 -9 -20 -436 -5 -20 -32 5 26 -252 -21 -2 107 -14 -11 -47 608 85 -15 109 -8 -66 -20 -34 394 -21 -18 -145 -360 -279 -2 -19 -2 -14 -31 -43 -10 -93 -93 -405 14 -44 -22 -3 -115 23 -16 218 -15 -47 145 -24 -29 27 -59 -41 -36 -20 -27 -32 -223 -29 -125 15 -36 -12 -71 0 -46 4 212 -328 19 295 -39 -12 26 22 -22 -37 -169 21 -12 59 -3 19 -40 -35 -32 -25 -39 9 1 8 -233 285 -44 -16 26 -37 -1245 -32 -11 15 -54 -32 21 -31 -51 12 -19 -22 -27 -15 5 -40 29 -23 8 233 -19 -36 218 -22 -30 927 5 -35 -8 -33 -32 -41 -345 -856 25 -146 -8 -77 412 -12 -29 -5 -58 2 -10 2 1 -15 
-64 -66 -75 -39 -330 -7 0 39 -38 -42 6 114 -5 17 -107 1296 22 17 3 823 -79 -34 70 -40 -95 -3 -46 -27 -40 -32 -3 -14 -1 -56 -43 19 -19 -53 -59 -37 -7 -45 -113 11 -16 571 -5 106 -33 -12 -12 -68 13 15 -38 -126 -5 12 -51 -31 -13 -26 -49 -45 30 10 -20 -95 338 137 -72 208 -24 -47 -32 -33 538 -46 -25 -133 -114 -94 0 10 -19 -47 -35 -37 -25 -37 -42 -93 -9 -52 -20 -29 -238 17 -23 167 -36 -65 13 -38 -36 83 -45 -34 -60 -42 -20 -36 -440 -67 -164 -12 -48 -39 -247 -5 -87 5 153 -32 18 207 -41 10 -14 -8 -32 -31 -54 3 -47 81 -51 -11 -63 -39 -6 -16 -55 5 -32 11 -176 185 -138 -20 -16 -45 -1095 -50 -24 6 -29 -25 -16 -12 -44 3 -38 -441 -18 -10 -17 -32 -2 -56 -18 359 -27 -65 -81 -53 -3 651 -21 -15 -37 -46 -54 -44 -238 -495 16 -129 7 -338 310 -21 -37 -30 -13 11 -25 12 -16 2 
-110 -56 -55 -7 -275 -11 -28 19 -72 -26 -6 165 -6 -4 -47 1516 -6 10 -10 912 -81 -47 90 -81 -50 4 -14 2 -206 -2 1 -42 -4 -32 -4 -11 0 -3 -61 -44 -3 -45 -59 25 -67 675 -8 109 -35 16 11 -66 2 13 -64 -105 -5 -11 -85 -6 -22 -27 -39 -31 5 -11 -15 -52 381 169 -80 307 -25 -31 7 -24 677 -58 -43 -90 -102 -155 15 -2 -41 -10 -22 -49 -62 -26 -10 -120 -13 -36 -42 -21 -275 6 -12 99 -85 -104 52 -14 -40 103 -54 -5 -42 -7 -74 -57 -245 -63 -96 -15 -45 -42 -155 -43 -72 -10 210 -40 6 233 -124 -12 -6 24 -42 -33 -95 -8 -31 79 -37 -38 -65 -25 16 -59 -55 -19 6 -6 -377 89 -112 -7 -12 -36 -1304 -62 -40 16 -14 -15 31 -41 -49 -31 -47 -608 7 0 -5 -23 0 -42 -7 445 -13 -237 -32 -70 24 727 -29 -30 -87 -16 -77 -13 -282 -602 18 -107 5 -273 306 -8 -55 -28 -3 -6 -13 -18 -22 -10 
-22 -32 -53 -22 -64 -69 -19 -21 -47 -13 -17 67 -15 17 -23 1509 47 6 -187 812 -121 -43 176 -207 -132 1 -148 -23 -42 -33 56 -10 5 -29 60 -11 13 -15 -80 -47 102 -53 -164 90 -66 575 6 140 7 69 -2 -55 18 -1 -44 -246 28 5 -65 -59 4 0 -29 4 113 64 -71 -16 304 138 -37 203 15 -16 -18 -34 670 -51 2 -37 -159 -475 24 4 40 -75 17 -57 -50 -2 -15 -38 -7 -20 -29 -74 -332 -11 -21 62 1 -181 123 -4 1 90 -61 -19 -129 -6 -62 -104 -52 -50 -201 6 -78 -30 -13 -241 -277 -19 397 -16 -19 160 -67 -36 -1 52 -62 -32 -118 21 -46 125 22 1 -72 -39 18 -60 -48 -85 54 -2 -87 151 10 20 -17 4 -1030 -18 -31 -13 -53 -10 -4 -15 -50 -27 -35 -241 -18 -14 -18 -27 63 -40 -5 236 -8 -286 -16 -48 15 565 -14 -52 -323 -50 -101 -44 -75 -305 9 -265 10 -51 382 -12 -62 13 3 -2 -10 -19 -1 -28 
-30 -300 -26 18 -24 -211 36 111 14 11 -21 41 -1 0 -5 1721 170 -5 -228 1392 -62 -25 159 -116 -408 13 -83 10 -23 -72 80 10 12 -4 24 10 40 12 -24 -8 118 -64 -97 44 -19 787 -4 70 41 81 16 -25 6 18 -26 -495 12 -5 -12 -37 -21 -7 -21 24 208 73 -97 -5 674 151 -8 124 19 14 17 9 857 4 -20 -93 -372 -723 10 -25 78 -42 52 -31 -8 0 -75 -46 -13 -1 5 -43 -348 -4 1 156 30 -445 394 -18 32 85 -15 -38 -209 32 -57 -73 -423 7 -440 -19 -167 -8 -32 93 -358 5 746 -5 -9 192 -22 -44 8 141 -27 2 -169 20 -6 138 -117 16 5 -7 -13 2 -15 -74 62 5 -61 411 -11 15 -1 7 -1341 -10 -5 -17 -184 -60 -47 4 -29 -19 20 -106 10 13 23 9 86 -18 9 179 -13 12 -47 -29 7 813 -18 -11 -452 -21 -67 -14 -268 -498 30 -365 25 2 658 20 2 -12 -6 52 14 -14 10 -13 
-99 -346 -39 -9 -2 -65 -5 113 0 10 -5 16 -14 8 -27 1364 108 -10 -85 1078 -21 -4 169 5 -142 -20 -200 -27 -16 -36 91 -11 -12 -22 -246 -1 22 66 -5 -13 4 -20 -2 14 -13 627 -15 91 -9 11 23 -8 -1 2 -35 -143 -2 -12 -22 3 5 -24 14 17 215 -18 -42 3 504 68 9 118 31 -3 -6 18 611 -19 -49 -126 -146 -561 -13 -26 2 1 8 -7 16 -31 -79 -15 -41 -33 -280 -35 -371 -15 -55 143 -13 -221 378 1 -8 21 -5 6 -77 57 -25 -1 -321 -16 -322 -7 -35 6 -344 5 -112 5 492 -5 -19 96 -8 -4 -16 165 -23 4 -262 5 -32 62 -209 -3 -5 -11 -13 -26 2 1 21 16 10 395 -29 13 11 -26 -1276 -21 -27 -15 -391 -20 1 -11 -8 1 -13 19 -15 8 23 -22 -81 -185 5 239 15 -3 -41 -57 -6 759 -18 -3 22 -8 -11 1 -129 -375 2 -258 16 -1 337 -43 -21 55 -23 -13 -5 14 -20 -11 
-206 -41 -55 -49 -23 -8 -20 40 -18 -3 4 -7 -7 -24 -60 1191 138 18 -32 841 -24 -4 146 -23 -65 -66 -261 -50 -15 -46 53 2 15 -19 -574 14 9 -7 22 -9 -14 -40 -35 -8 -9 604 17 157 -44 -17 -14 -3 -16 -5 -27 -28 18 19 -3 -14 13 -64 -18 0 309 8 1 0 393 86 -19 231 -19 9 15 -3 427 -84 -46 -245 -33 -293 11 8 14 -62 -48 -14 2 -12 -85 -5 -62 -44 -86 -12 -338 -16 -92 57 -39 -134 324 -15 -63 -42 -33 1 -80 -32 -11 -7 -120 -35 -196 -14 -63 -52 -846 -68 -36 3 292 -42 -13 152 -59 -10 5 213 -21 -10 -288 20 -28 54 -156 10 -33 -57 -18 -31 -55 5 4 1 -26 343 -136 -14 -12 -74 -886 -24 -47 7 -186 -24 16 -37 10 -4 4 0 -23 0 11 11 -14 -327 14 264 -11 8 -45 -22 -11 632 -13 -21 -2 -57 -20 -54 -48 -127 -13 -164 2 -8 172 -259 -3 -11 16 -11 2 -6 17 -3 
-43 -19 21 -21 -40 7 -7 61 -4 -5 14 -17 -3 17 1 472 1 -7 -32 269 -47 -12 124 13 -44 0 19 2 19 1 -10 17 -18 -14 -13 5 10 -39 -12 -12 -2 21 -9 15 18 222 -5 42 -3 -2 0 0 -4 -23 20 -28 11 43 -14 1 -10 -6 -36 -3 135 -15 15 4 82 25 -8 37 21 -102 -2 8 111 -31 -4 -35 -44 -20 20 -1 18 -15 -16 -25 -1 -11 17 6 -45 21 -143 -18 -34 5 -2 -2 13 5 30 10 13 6 -42 22 -9 -51 2 17 -12 -42 -23 14 -15 8 -8 -36 -41 -75 92 -2 13 25 -49 11 18 20 -12 8 -34 17 -45 12 16 13 5 8 -8 -9 -72 -14 17 -12 -15 41 -24 19 5 -53 -516 -7 18 1 -55 -20 -9 -13 5 -14 12 7 -10 5 -14 -2 -8 -2 16 56 -16 -41 -4 -12 -15 84 9 7 -28 -15 -8 -37 -7 -37 14 1 18 -44 41 -48 -48 -9 15 12 18 -20 -13 -16 
-2 -30 -11 -8 8 15 6 31 -14 -14 -3 -1 0 6 -144 318 13 -6 -15 276 -22 -20 75 -17 -15 10 13 -20 -130 10 14 11 10 -17 -11 9 17 -19 -9 -27 -19 -19 -8 2 -1 120 -8 12 -14 0 2 -5 6 11 5 3 7 20 3 -8 -1 -3 -20 -2 127 -19 19 0 56 26 -3 54 -3 -57 11 -18 58 -13 -8 -106 -16 -101 18 -19 14 -10 4 -18 -24 1 -25 -2 -21 5 4 16 -27 12 -9 7 -18 -26 38 5 -15 33 0 -48 -13 -39 -14 1 -15 -21 -7 -24 -7 -13 -50 -2 -3 -14 37 3 0 23 -12 4 21 72 2 -7 -30 4 -21 7 17 19 -5 -24 15 1 -89 18 17 -18 9 87 -26 -14 -20 -47 -172 -23 -39 -11 2 3 -3 -24 -41 0 -5 -25 -25 4 1 -20 -2 -23 11 27 9 -26 -9 -6 -13 53 -12 -26 -18 -18 -4 -29 -23 -55 -5 -32 -19 8 26 -20 -12 -11 -13 -6 14 8 -20 -11 
5 0 -14 -17 -25 10 -104 43 -71 -29 -33 24 -19 8 -252 577 -10 -20 -81 354 0 -27 164 -22 -3 -26 -12 -5 -279 25 -2 1 -11 3 -9 -8 -5 -6 -5 -7 12 -12 -1 14 6 304 19 -41 -30 4 -56 -20 -19 2 -20 -45 -18 6 -5 -14 -19 -63 -33 -13 261 -20 -2 -24 109 112 -29 124 5 11 -5 3 226 -50 5 -69 -16 -181 -1 -1 11 -3 1 3 -17 -1 -11 -41 6 -8 -14 -11 -166 3 -9 17 -22 -15 102 -32 -43 44 10 -62 -15 -29 -20 -4 -7 -6 -5 -49 -18 -14 -262 -15 -39 6 103 -30 -11 69 -26 -11 27 70 -18 -24 -20 14 -22 -17 -19 24 -29 -10 -9 -21 -43 21 18 3 -30 55 -1 18 -1 -7 -250 3 -20 12 -6 -82 -30 -2 -23 4 6 -16 17 19 -7 -14 8 -20 -7 37 -32 -7 13 -43 -16 173 -11 -29 1 -14 -16 -46 -18 -96 4 -108 -20 -29 88 -14 -25 -1 10 -12 -10 -19 -27 12 
-13 -14 2 -23 0 -6 -36 44 -52 -7 -20 45 14 11 14 248 13 10 5 152 -29 -58 24 10 0 -7 16 14 -9 56 1 -6 -2 -15 -56 -12 8 11 -16 -28 -10 -14 -2 14 -23 213 8 3 -73 0 -34 1 4 -11 -15 -48 19 -11 0 -1 -13 -26 -108 2 90 -3 2 -22 77 37 1 35 5 26 -14 6 90 7 -11 -70 -63 -48 6 5 8 11 -9 -4 -23 17 10 -29 -18 -3 1 -5 -19 17 -17 -7 -3 -1 54 -20 -2 39 18 -16 -17 13 14 -30 -38 -1 -15 -6 -8 -8 -174 -19 -89 -13 51 -12 -2 34 -7 -32 -54 7 -17 8 -13 -11 11 -1 -16 -2 -11 10 -13 -19 -82 -3 -1 -8 -47 15 -7 -9 15 -6 -119 9 -14 5 -39 -19 14 -2 8 12 -11 5 14 17 -10 15 -10 -10 3 25 -80 57 6 5 17 84 -6 -107 11 16 -20 -82 -7 -43 -22 -12 -18 -28 52 5 -59 4 -7 17 1 -8 12 10 
-2 -11 4 7 1 -5 -4 12 -15 2 16 18 -7 19 7 14 5 -13 14 23 -10 -22 -3 -7 8 -3 -18 -19 9 25 3 -13 11 0 -2 -4 14 14 -15 -25 -4 13 5 10 4 27 7 -11 -17 -6 6 2 -1 -22 15 -44 -11 10 -12 11 -9 4 -12 15 -8 -4 -9 18 7 -8 11 -1 -19 -4 -18 5 12 9 6 0 -24 -6 -7 -6 -14 -20 1 -5 10 1 18 -19 -16 8 9 -11 17 -20 -20 -11 -19 11 8 -19 19 3 4 -2 -19 -16 -10 14 -3 3 -12 4 3 4 -4 -14 -29 10 -12 -17 -2 14 -16 -11 -4 -16 -5 1 7 7 2 6 -12 12 -25 -18 16 -5 0 -12 10 12 8 1 -2 1 -8 -20 -30 -8 -18 2 -29 -3 9 2 -1 -15 -17 -13 4 -3 14 4 -11 11 6 -10 4 3 -9 9 -17 20 15 -29 -14 -13 8 -18 -14 13 8 -11 -14 -22 20 5 -21 9 4 14 -14 -2 0 -5 
-19 16 -9 19 -15 -5 8 -12 -20 -5 -7 -14 -6 14 -12 17 5 -20 17 14 -14 11 -4 -4 0 -19 -9 -2 -9 1 5 -16 -2 9 -17 3 -16 4 4 16 19 17 15 -6 3 -15 19 -12 16 17 19 -18 0 -12 -10 12 -19 3 -9 -8 15 17 -4 -7 6 -9 8 3 17 -8 -1 7 -18 -14 13 5 -10 12 14 -14 1 5 -20 -18 13 -10 15 14 4 18 -14 -1 15 -6 12 -6 6 0 17 -7 5 -12 -20 -1 -5 13 -16 -3 -2 10 3 19 -4 3 13 -12 5 0 -16 -11 -1 -18 9 -14 -11 -8 0 7 5 -11 -20 -10 -10 13 9 -3 -2 5 -12 16 -4 -11 8 12 4 -7 -19 -11 6 17 -1 -16 12 19 -17 -19 -8 4 8 17 5 0 19 15 -15 0 -8 4 -15 18 -8 1 -13 12 -15 11 -14 22 13 12 16 -8 9 8 -9 4 1 -5 -20 -11 -16 6 1 -17 -7 7 3 -2 -17 1 
-4 -4 -18 4 -20 -20 -13 -14 19 -20 10 7 -16 -9 -12 -12 16 9 3 16 11 8 -6 -7 3 8 12 19 -14 16 0 2 -16 -6 18 -16 -6 18 -17 -7 18 5 13 -17 17 -19 -17 5 10 6 -7 1 -14 8 6 2 -12 -9 1 -6 -13 -19 8 -17 -5 -1 -13 10 -3 -10 15 -13 8 8 -18 5 1 -15 -18 -8 4 -5 5 2 15 -16 -16 -17 -5 5 -11 -6 6 10 -3 14 -11 4 -4 -2 7 -17 5 -5 4 0 12 -15 5 6 -3 -19 13 15 4 9 19 8 4 -6 -14 6 0 4 -4 17 -2 5 -7 6 15 12 10 0 19 -6 12 3 -1 -2 -11 9 -9 -17 -4 15 4 -5 -4 -20 1 2 6 -19 18 -18 10 -11 -1 -17 15 -6 16 -3 7 15 11 -1 -1 -17 9 0 4 -19 -5 12 8 11 -13 16 12 0 -10 -2 -7 -11 -7 -17 -2 4 -14 -7 19 14 3 -2 2 -14 9 13 
-11 -9 -7 5 -16 1 -3 12 -8 -4 1 -16 8 11 -5 -19 -20 0 -16 -2 -16 -17 4 15 9 -13 -7 -9 -7 15 16 -5 -14 -18 12 -18 3 -18 6 15 -10 -13 12 19 19 19 12 19 -1 9 -10 3 4 14 -1 -7 13 4 -3 18 -9 -7 -15 -11 -5 18 -9 18 12 18 6 -18 -15 -2 13 -16 -3 6 16 8 -5 -14 -9 11 12 2 -16 5 19 1 -5 -10 7 1 -8 -18 -9 3 13 -17 1 -1 17 -1 9 11 3 18 -11 -1 6 -4 -3 9 -13 -11 -8 -17 6 -17 -3 -18 -15 -16 -5 -3 18 -2 -19 11 1 -6 -18 -10 13 3 13 -11 1 -18 0 -13 -10 18 17 -3 19 -19 -7 6 -16 10 0 -19 14 7 -1 12 -15 -8 -4 -2 6 -10 0 0 14 -6 1 -13 -12 -19 -5 -1 11 -16 8 11 17 -19 -11 -19 3 1 -18 -3 -12 -7 -18 -15 5 -2 3 -8 0 15 4 -6 -11 17 
2 -10 18 9 9 10 5 -11 1 2 -17 2 -5 6 -17 -11 16 -9 3 18 -4 -20 -12 11 -16 0 6 0 7 8 -3 -19 18 -4 10 -1 18 -13 0 -9 9 3 13 16 -18 16 -15 10 -13 0 8 -5 1 8 18 -3 -12 -4 18 15 16 -5 8 14 3 -2 -15 1 -3 6 12 18 -19 5 14 -17 1 12 13 0 -16 -7 7 -3 13 -3 15 14 6 13 1 2 -20 -10 -11 4 0 -6 -15 18 -20 18 16 -18 -5 3 17 17 -5 3 -11 -1 8 9 17 2 -14 12 -4 12 -3 9 -5 -3 19 4 -19 0 10 19 -2 11 17 -14 5 -16 9 2 13 -16 17 -17 -4 6 12 -7 -12 10 17 -4 3 -6 -15 10 11 17 -14 5 -3 16 4 7 -1 -7 5 -16 -3 -13 -1 -9 -9 -4 -14 -1 14 18 4 14 8 1 -18 -17 7 -20 13 -1 17 11 16 -14 8 0 5 19 5 -10 -16 -18 -3 -5 
-15 1 3 -9 12 -10 -19 -3 -16 2 18 -13 5 6 -13 -9 17 -16 14 5 -18 -6 17 7 -6 2 9 -10 -4 19 5 2 0 -20 5 -8 -10 -1 1 -5 -19 0 -6 -2 18 -7 9 15 -11 -4 -8 -9 10 -11 18 -16 11 -1 -6 19 -2 11 1 10 4 19 -17 14 -2 4 -19 -9 16 -13 9 14 0 -9 1 9 7 13 -20 -3 14 10 2 5 -10 8 5 0 -8 18 -9 16 9 -14 2 19 2 -4 -10 -1 3 -20 -15 -16 -17 -1 13 10 -16 6 -13 19 -12 1 -4 -2 -18 13 11 -6 4 -18 -18 -7 -12 4 -15 10 -20 -5 -19 -4 -13 -13 0 -10 -2 -15 12 2 3 12 -7 12 -7 10 -18 -13 -5 13 -7 19 7 -5 -15 15 12 -10 6 4 -3 -1 -20 -3 6 -8 7 16 -10 0 -1 13 -8 4 -3 -3 -6 -8 -3 2 17 10 1 5 18 -2 0 2 0 18 -14 18 -2 -13 -5 16 
-9 14 13 1 -14 -16 -13 -10 8 -4 0 15 8 17 -3 6 -1 10 -9 -11 -11 3 11 9 2 18 -1 -20 17 6 8 -12 -7 1 2 -1 -3 9 10 -14 -15 -18 -19 6 11 -2 -8 -10 -12 -5 -8 -11 18 -17 11 0 13 -10 -8 10 17 13 11 -10 -14 -7 1 4 14 -17 10 11 -15 3 -3 16 13 1 19 13 8 -9 -17 7 -6 14 19 -12 16 -16 10 5 17 1 7 -17 6 -11 7 -8 -8 -11 16 -10 4 -15 -14 -11 7 17 -17 -13 -12 18 14 -5 4 14 3 0 18 -15 -14 7 -1 13 10 17 14 -10 -10 -13 -9 -14 -11 16 -9 -5 17 10 -7 -20 18 -7 18 4 8 -6 -10 -17 15 -12 -11 13 7 8 6 -2 -3 -7 0 7 0 11 5 1 -1 9 16 -3 -1 -19 -11 -11 -13 -20 14 15 -6 -16 19 -11 -15 -20 -18 12 0 1 -18 17 14 2 -3 -14 -14 -18 -1 -3 11 -5 
14 -17 -11 -16 -16 -4 -16 10 -17 -10 15 14 0 12 14 -6 -4 -14 7 -9 -16 -7 13 1 -9 11 -5 10 -11 -13 18 -17 -18 19 19 -14 -13 15 17 -10 -14 4 -15 -2 -12 11 12 4 18 -8 15 -18 5 1 -5 9 -8 10 -1 1 9 -11 -3 3 -12 -12 10 -5 -16 -1 6 -18 -17 3 0 -17 -14 -16 7 -16 -4 -5 18 14 8 -7 3 -20 16 14 -6 -3 -16 3 -19 -8 11 3 0 7 -18 18 9 17 1 -11 -20 7 -6 -1 4 2 14 2 -4 2 8 11 -5 -4 6 1 5 2 -16 6 14 15 -11 -14 -5 -17 -16 -16 -20 -3 -14 12 17 -8 -8 1 14 18 15 -17 -7 -5 14 8 11 -8 -19 -3 14 -15 15 1 12 17 -1 -13 -20 4 -16 13 -19 -10 5 18 2 9 -9 -4 8 -13 -9 -19 2 -14 1 -14 -10 2 -5 17 7 -10 -10 -9 19 9 -1 12 -15 3 5 -13 13 -18 
17 -13 12 -11 3 -8 -4 15 -7 10 13 14 16 15 -4 -4 4 15 -6 17 -14 -7 -4 -3 -15 1 12 2 8 -3 -3 6 4 -19 7 -20 -7 -17 7 6 13 0 -8 2 -13 10 5 12 -5 19 -2 1 -15 14 11 -10 -13 3 5 16 -19 -18 -6 5 -14 -19 5 -4 16 -16 14 2 -4 -14 -16 4 8 9 -12 -19 1 6 -6 6 -7 -15 8 -12 9 -15 -11 2 -13 -4 19 -18 -11 -3 -10 -14 1 -16 1 18 -18 6 2 8 -15 10 1 -2 -12 16 -16 1 13 5 14 2 10 -16 16 10 0 16 4 9 -7 15 7 14 17 -13 12 15 11 -14 2 9 8 16 -13 17 12 -16 -10 -3 1 -15 12 -17 -14 8 5 1 4 -10 -10 17 -15 18 4 16 17 -4 10 1 -5 -15 -10 -17 -19 -11 12 5 -15 -14 -18 -2 -20 6 2 -11 -5 -14 2 19 -11 4 9 -6 2 -7 -17 -8 1 13 13 16 
6 -17 -20 3 -16 12 -20 -17 7 -19 0 7 9 -18 8 23 -18 -10 16 -1 15 -3 0 -11 10 1 1 -9 -14 -6 -12 17 -12 -20 0 -6 12 1 -4 0 -4 16 -13 17 11 21 6 5 18 2 8 13 11 -14 -17 1 6 -4 4 6 11 12 3 -20 17 15 -14 -3 -12 -6 17 -4 -17 16 -14 14 9 12 -9 3 -6 24 -4 -15 -14 -9 -2 5 8 -18 -9 -9 7 6 -9 -9 -6 -10 8 2 4 -4 14 7 -6 17 -7 10 -4 4 -7 15 4 2 12 2 5 -10 -13 -7 -16 -9 1 11 17 0 15 -17 10 6 -2 -6 13 -14 14 18 -14 19 9 15 4 15 2 -20 -3 -6 2 14 -4 9 -20 0 1 -4 -16 2 19 19 5 6 -6 -17 13 19 -8 -1 18 -10 -2 8 17 -18 -5 -1 14 4 13 1 -2 -11 18 -2 2 10 15 -5 -16 2 -11 10 -5 3 5 15 -5 10 -6 -7 -20 4 
13 17 -2 -12 -4 -59 12 -17 8 -18 -16 0 1 6 -19 83 16 -13 12 71 8 13 36 -7 8 16 15 15 -12 17 -1 14 7 17 -18 16 -8 7 19 13 11 15 -15 -8 -7 -9 -7 -9 -14 -15 -4 15 19 9 -18 6 5 20 -6 7 8 13 1 -5 59 -3 -16 16 -14 32 2 8 10 9 13 -15 55 -15 -4 -15 -18 -41 13 -18 -5 15 1 11 7 17 -10 -30 11 12 4 -4 -22 0 -16 -19 -6 -112 10 -14 -4 -6 -8 -18 0 1 -9 2 -14 16 -3 -6 13 19 -14 -6 7 -2 3 -10 -16 18 -1 19 14 5 18 5 -6 0 12 11 14 18 17 -15 -8 -11 0 -1 -12 18 5 60 9 5 -20 -12 -20 1 0 19 -7 -19 10 2 5 10 -12 -21 -18 -18 4 8 12 1 15 -13 5 -12 -4 3 -13 -16 -9 7 6 -10 17 1 4 -52 -6 -13 -8 -17 3 11 5 11 3 1 6 -13 -10 -10 
10 17 -5 -5 -14 3 12 -14 4 -17 7 -15 -6 5 6 17 9 -20 10 -16 17 -16 4 3 15 -12 -16 -7 -5 -14 4 17 -16 11 -21 -18 -6 16 -20 11 19 7 15 -15 -15 5 17 14 -6 -1 7 -9 3 -8 6 -11 -8 11 4 7 9 -20 0 13 11 1 16 17 -2 8 8 -11 -4 3 -5 1 19 -16 -13 -10 3 14 -7 -14 18 12 -4 -10 -5 12 18 -16 4 -5 18 -5 8 6 -16 -14 -6 12 -4 2 -13 3 15 -21 -1 -18 -14 -18 17 0 -20 7 -8 -12 18 7 -24 8 3 5 -17 1 13 3 19 9 10 -14 2 18 8 9 -7 4 5 12 -2 12 6 -5 -16 6 -17 -12 14 13 7 7 -3 -10 -15 -4 8 10 19 3 -6 1 9 -19 -3 -10 3 4 6 -12 -4 -15 12 -18 -8 14 0 -9 -16 -7 -20 11 14 1 -18 19 9 6 9 8 -9 -19 -10 11 -18 1 13 -3 -14 -1 
2 7 -4 -12 -222 3 -5 29 8 -6 -12 81 -6 21 21 902 20 16 2 191 -35 -1 2 -5 -24 -9 -23 -9 -7 27 2 16 1 -10 -24 19 -9 -9 5 18 3 -6 -2 -1 -12 272 0 28 10 20 -13 -24 -2 -10 -13 -423 -5 -30 -22 -4 -11 -7 -3 0 29 2 4 12 140 13 13 -6 14 20 -3 -22 -402 -2 12 3 11 -90 9 -8 10 8 7 8 8 8 -3 -620 22 6 22 20 -60 25 13 58 -9 -1 22 20 -15 61 0 13 -96 -4 -10 -14 5 -3 -9 -2 -4 9 -2 17 15 -4 14 -17 10 92 2 16 -1 -8 -2 -7 -3 -8 -16 3 19 5 -304 13 25 4 9 11 -2 22 14 6 2 9 0 -10 -494 1 16 -5 -109 -18 39 -9 -16 -13 -6 0 13 8 19 -6 -8 -21 -8 77 3 11 639 -24 18 507 20 22 21 17 16 -4 -22 -869 0 -56 22 7 88 -10 9 -5 13 11 20 7 21 23 
-3 -13 -28 -4 -1171 4 38 46 221 -18 -3 170 10 4 8 1539 34 -5 -6 817 -55 8 20 -1 -49 26 13 36 -14 16 26 -19 20 -31 11 8 -4 -8 24 11 25 -17 -1 23 -18 590 8 334 -22 -26 10 -11 30 19 -25 -606 10 -6 -16 -122 6 -30 -43 20 2 -8 -53 -31 699 -125 20 129 13 -2 17 -23 -611 -9 14 -69 -48 -129 0 -2 -8 24 26 4 -17 22 2 -1261 -14 -13 15 16 -72 24 9 427 -8 14 70 -14 -156 213 -54 2 -400 -12 -7 -35 16 -21 1 16 -1 10 -20 -25 17 17 378 -34 26 351 -5 25 3 9 18 -15 14 28 0 25 7 427 -189 -23 32 9 -24 12 -5 26 -3 24 -7 18 8 14 -1297 -27 -11 1 -601 4 69 8 -2 13 -15 3 -20 19 7 -7 12 -6 16 195 -59 -19 350 -38 3 829 19 11 -8 20 0 3 -167 -1453 497 326 10 -1117 487 15 2 -19 14 32 24 25 -9 -1 
-101 -4 -76 -29 -754 1 1 104 78 -34 -2 153 17 21 -32 2632 19 26 -40 743 -514 -26 9 -35 -54 26 -74 31 -93 0 -34 -179 -22 -35 -18 10 -7 -46 4 -76 -10 -21 -18 -30 -79 1000 -32 379 -41 -84 25 -76 -11 -17 -31 -500 -22 -6 -78 -257 17 -50 -44 5 13 -37 -126 -120 787 69 -35 281 -70 -52 12 -43 490 -51 -14 -95 -146 -861 11 -6 -7 -18 -22 -59 -96 -24 -15 -441 -13 -38 -10 -29 -95 17 -424 461 -8 -37 69 -34 -281 85 -102 -61 -796 14 -66 -24 86 -4 13 -11 -32 7 50 -41 -6 24 176 -65 23 573 -34 13 99 -29 -28 -43 -69 23 -43 -9 17 168 -49 -95 25 -13 -70 -8 -15 -19 -57 -31 -34 -10 24 -28 -2126 -37 -45 25 -987 45 33 -27 -120 9 108 -24 -14 -30 -10 -52 17 -21 -24 450 -165 26 -12 -39 -26 1265 23 -41 13 -18 -23 -31 -335 -779 187 -226 6 -412 404 -16 -37 14 18 30 12 -10 10 -12 
250 7 -169 -24 -491 -8 -306 158 -53 -43 13 -219 4 20 -17 2773 28 27 7 -1019 -698 -7 -128 -37 268 -62 -23 15 -152 -35 -61 -527 -62 -22 -129 30 12 -30 309 -83 11 -12 15 -12 -64 1014 -11 116 16 -55 35 -2 22 -4 -21 -1230 13 14 -88 -47 23 -5 -178 14 -46 2 -181 -235 209 22 13 218 2 -164 21 -16 426 -9 18 -169 -67 -613 34 83 -7 -107 -71 -34 8 -365 -33 -719 -5 -8 2 -30 -10 -2 -316 150 -13 -452 -678 3 -68 -292 -145 -472 -768 93 -28 43 134 33 314 19 -7 15 157 16 -30 7 48 5 -15 657 -5 -6 103 -600 -20 -40 -148 14 -23 26 6 34 -36 -96 27 -2 -36 -147 -3 -108 -48 -764 -89 28 31 2 -3034 7 -41 -8 -1102 41 -5 26 -65 -21 2128 -3 -46 -5 -4 -5 4 -6 -188 343 -12 169 640 -29 416 1500 47 8 69 24 -12 -10 531 -1406 74 -406 1 -46 -3 29 -3 -23 -2 20 36 3 -60 14 
-136 -54 -659 -125 -1452 -284 -284 169 420 -114 -25 174 8 20 -33 5196 12 18 3 427 -429 -34 554 -189 -42 -173 -75 9 -142 -13 -264 -574 31 -136 -228 15 -14 -78 304 -392 55 -76 26 29 -83 1730 -8 -104 -3 -46 30 -30 28 13 -76 -2467 -51 -10 -161 -166 21 -524 -432 -155 -233 49 -237 -90 1647 645 -45 74 -105 -230 -24 -72 1738 -278 -42 -229 -365 -205 23 241 22 -187 -288 -103 -356 -426 -106 -1227 -115 -72 -62 -201 63 16 -66 879 -63 -625 128 -10 -100 69 -649 -504 -528 126 -61 -145 43 -21 684 -125 -68 -135 1588 -5 -129 11 348 -338 7 1127 -114 -172 164 -294 -76 -107 -53 65 -137 125 -8 16 -125 -205 2 -109 -136 -270 45 -53 -245 -397 -75 10 61 -48 -5116 -14 -82 77 -1041 163 -10 52 -225 10 178 -31 -182 -45 20 -9 68 -67 -15 1062 -114 83 736 -59 310 2471 173 -34 121 -51 -307 -121 83 -2450 167 -390 -131 -274 830 -16 -71 2 -57 63 53 40 -173 1 
-222 -229 -744 -162 -1624 10 -622 169 955 -121 -11 443 19 -56 -167 6572 -89 26 -59 1842 -470 -81 106 -129 -111 -229 -113 -47 -199 199 -235 -515 88 -244 -173 38 -39 -14 155 -310 27 -461 -377 33 -127 2599 28 -578 -13 25 50 -135 26 18 -212 -1440 -40 214 -208 -98 62 -405 -588 -142 -464 44 -191 -98 1920 968 -71 -46 -290 -266 -33 -132 2157 -706 -179 -492 -522 727 85 235 53 -14 -610 -130 -398 -765 -151 -2181 -307 -158 -151 -604 -118 53 -132 942 -129 -420 317 -426 -286 395 -926 -1000 -938 -106 -264 -168 -180 -84 822 -229 -86 -49 1614 -17 -202 49 349 -374 -46 1602 -140 -138 151 -249 -123 -110 382 -12 -97 175 164 115 -161 -160 18 -299 -156 17 29 -24 -417 -782 -69 20 68 -113 -6596 -77 -151 95 -1056 185 -18 -13 -380 -13 -1118 -523 -235 -106 -112 90 64 -208 40 1307 -90 1714 15 -247 305 3525 128 -290 73 -213 -288 -160 -627 -3459 213 -203 -332 -678 1939 -108 -190 -36 -66 55 26 37 -220 -14 
314 -384 -1154 -146 -2062 633 -802 415 1091 -160 -3 721 40 -9 -335 6941 -526 66 -110 2746 -369 -194 -483 -285 263 -45 -382 -120 -494 290 -35 -266 55 -298 -443 49 -35 -99 46 -376 7 -778 -611 -292 -278 2965 -33 -594 -329 107 55 -291 37 36 -391 -821 -45 262 -376 -222 79 -676 -318 -135 -1233 -1 -204 -500 1576 988 -200 368 -382 -216 -16 -155 3763 -396 -314 -1206 -410 1374 -28 86 71 1 -603 -231 -317 -935 -182 -1965 -74 -194 -177 -418 -645 55 -216 552 -271 -478 -420 -627 -342 419 -1678 -1538 -2199 20 -571 -257 -976 -405 712 167 -218 173 -4 -137 -425 67 -367 -229 -121 1879 -102 -32 -129 -644 -171 -214 335 -116 -104 279 377 -28 -275 -256 23 -442 -356 -24 46 8 -807 -874 -260 26 65 534 -7265 -379 -269 -60 -1968 -119 -109 -225 -456 142 -716 -771 18 -62 -120 141 47 -656 53 2037 -44 1489 -234 -127 702 4415 112 -471 -210 -563 -1160 -185 -645 -3737 87 880 30 -1779 2740 -22 -354 -65 -56 -179 -16 3 -195 -12 
290 -320 -946 -260 -2880 628 -463 310 -351 -189 -250 374 106 -12 -252 9764 -894 96 -292 3839 -398 -244 -848 -324 -46 21 -490 -41 -578 91 133 -325 576 -244 297 70 70 -96 -128 -394 -204 -798 -535 -494 -390 3908 36 -153 -423 180 66 -290 60 36 -489 -1528 -126 496 -381 -169 76 -699 -342 -116 -1323 -9 -54 -764 1907 605 -182 -76 -454 -27 161 -129 6790 -191 -238 -1016 -423 -1753 350 67 22 47 -392 -299 -196 -647 -127 -2506 156 -805 -177 -160 -651 159 -262 340 -756 -688 -265 -324 -231 128 -838 -1210 -2399 -423 -562 -793 -188 -370 -573 48 -198 -63 1787 -524 -554 108 -51 -191 -44 1782 -251 -38 -247 -246 -142 -415 -563 -280 -179 488 338 -285 -418 -302 72 -422 -298 15 -58 44 -613 -185 -116 44 80 450 -6726 -311 -491 -211 -1465 -434 87 -1198 -425 241 -291 -1178 163 -89 -217 33 49 -337 60 1315 -158 -664 47 878 392 5677 86 -647 -528 -487 -1369 -467 -479 -3819 -287 962 504 -2250 3987 -55 -290 109 -26 -567 -128 -1 -334 -71 
-587 -553 -1627 -527 -2996 -26 -609 580 -418 -390 -492 489 91 -41 -284 11845 -685 92 -704 6609 -414 -361 -1027 -519 -792 -125 -596 -22 -478 -218 269 -297 526 -261 827 140 -58 -364 -215 -554 -274 -434 -546 -340 -747 5090 41 59 419 263 -1 -242 81 -2 -601 -3496 -225 379 -520 -187 59 -544 -533 75 -833 117 282 -794 3132 357 -259 228 -195 66 25 -224 9327 -310 -236 -1089 -567 -2871 265 18 75 -347 -176 -306 -298 -824 -286 -2258 185 -1188 -266 -167 -1074 32 -363 -247 -723 -530 692 -421 -282 484 -1156 -1370 -2102 -232 -335 -1325 262 -727 -1569 23 -769 -262 1987 -497 -847 83 1148 -388 -56 1439 -678 -102 -369 -1 -186 -330 -1149 -447 -244 452 426 -349 -592 -629 83 -283 -454 82 -94 -55 -801 747 -154 18 134 320 -6684 -206 -872 -396 -1543 -407 491 -1712 -632 221 -868 -2525 -288 -188 -245 -131 143 -410 61 108 -355 -1271 -319 999 303 7363 152 -722 -1211 -204 -1637 -537 -528 -3342 -408 887 884 -2397 4367 -182 -263 200 -22 -766 -217 3 -570 -33 
372 -535 -1326 -444 -2292 -233 -899 118 1287 -264 -93 -191 61 48 -173 6106 -1151 47 -689 3882 -222 -253 -1504 -360 -946 155 -348 -72 -213 -244 602 -288 63 16 944 136 -187 -410 -261 -275 -78 -274 -643 30 -315 2680 47 -142 342 337 -12 -145 40 -23 -696 -2702 -34 62 -370 -299 44 -280 -551 69 -619 233 177 -273 1808 354 -274 -63 -88 -99 -15 -174 5556 -395 -265 -631 -820 -645 157 115 266 -833 -95 -289 -473 -317 -137 -1775 155 -528 -356 -145 -1160 30 -172 -248 -377 -806 364 -208 -275 637 -548 689 -871 39 -311 -716 145 -181 -1218 8 -727 238 1109 153 -766 99 382 -328 -25 -689 -237 -63 -382 -170 -95 -14 -321 -322 -136 -42 325 -331 -263 -397 40 -213 -326 81 -55 -21 -1153 -338 -25 22 272 599 -5843 -77 -463 -231 191 -566 676 -616 -746 117 -954 -1837 -212 3 -181 -144 186 -644 68 -2374 -212 -1030 41 2066 513 3751 295 -318 -1311 -185 -1452 -220 -372 -2136 -596 993 949 -1845 1447 -264 -112 278 -26 -266 -142 13 -72 19 
81 -566 -1253 -274 -510 217 -549 475 -111 -456 -138 -7 50 -174 -301 6793 -631 45 -250 3921 -151 -691 -341 -455 -305 -136 -455 -100 -391 -66 253 -581 -212 -128 1314 -89 37 -436 -135 -327 -174 -305 -757 12 -185 3529 -15 139 -226 -265 132 -166 18 -29 -536 -731 -381 47 -297 -386 45 -413 -370 250 969 -91 -50 -207 1482 28 -196 809 -32 -431 -66 -197 4012 -258 -442 -527 -811 -673 285 -18 87 -830 -128 -507 -410 -124 -258 -237 -240 1346 -710 -423 -1206 -37 -272 -242 -635 -561 252 -263 -593 550 -746 -1228 -1414 -733 -460 -450 989 -201 -613 10 -418 237 2207 -361 -348 133 -45 -303 -110 -858 -485 -145 -314 735 -566 -190 -725 -45 -282 429 -6 -266 -335 -279 45 -206 -495 -202 -43 -103 -687 1021 -118 27 109 -379 -6932 -201 -536 -66 -226 -494 210 -447 -218 -120 -1270 -896 -282 10 -186 -311 -151 -1047 46 -733 -138 -1247 159 879 145 3424 26 -146 -686 -270 -814 -246 -464 -467 -382 423 174 -835 -89 -122 -216 274 -65 -103 -182 -19 -57 -92 
304 -269 -1247 -269 -123 301 -585 612 -1209 -469 20 92 1 -639 -526 7777 64 44 29 6466 -245 -583 -278 -330 -349 -76 -482 -76 -836 15 490 -336 13 -274 -193 -69 155 -625 -151 -349 -325 -341 -963 -60 -196 4049 3 134 -386 -95 270 -676 2 -79 -508 -1536 -210 162 -547 -277 38 -823 -521 332 1719 -299 -20 -307 2085 49 -953 1018 -43 -304 -47 -333 3477 -304 -420 -61 -798 -2059 276 -122 8 -728 -331 -342 -360 172 -337 323 -453 -103 -381 -522 -1893 -2 -438 -199 -602 -796 336 -298 -432 313 -674 -1232 -2641 -566 -657 -434 -240 -291 -929 41 -308 -65 679 -1071 -265 142 1703 -305 -386 -51 -364 -200 -273 768 -430 -296 -808 58 -486 255 -121 -115 -371 -290 7 -306 -413 -60 1 -131 -1029 1628 -60 13 25 -392 -3963 -306 -468 -123 -545 -644 256 -412 -254 14 -746 -936 -253 -4 -125 -328 -325 -850 37 278 -134 -1447 106 98 93 4037 16 -251 -715 -325 -821 -243 -525 735 -258 157 -19 -707 1009 -84 -501 283 0 -162 -220 -68 27 -276 
649 -367 -360 -277 -627 -129 -532 386 -455 -310 -144 -54 0 -302 -810 5072 666 24 549 6687 -374 -306 700 -374 -409 -245 -422 -20 -823 9 500 -342 -18 -354 -1372 -15 2 -329 79 -379 5 -394 -505 -210 -549 3044 140 -41 -384 -4 -208 -996 -14 88 -400 -1027 -58 253 -621 -239 10 -667 -669 181 1917 21 12 -357 1163 733 -908 566 -299 -170 -11 -331 1967 183 -322 -711 -1141 -793 185 -105 8 -371 -307 -339 -362 56 -410 154 -67 -348 -245 -331 -1434 -162 -353 -236 -418 -832 771 -350 -291 206 -361 -908 -2692 -567 -406 -335 -1118 -573 -1573 100 -380 -72 -2029 -510 -557 -31 1925 -371 -189 118 -659 34 15 1032 -332 -398 -753 66 -332 297 -182 -84 -301 -440 15 -534 -482 -8 13 4 -1569 1944 -30 -13 -3 -437 -3439 -333 -315 -253 -2055 -479 210 -418 -323 -46 -939 -613 -231 2 3 -407 6 -329 23 807 -22 -1183 123 -621 59 2852 53 -320 -414 -349 -834 -398 -421 -333 -85 -508 30 -428 858 -101 -845 93 64 19 -35 1 10 -83 
1066 -312 -174 -165 -612 -18 -518 262 -397 -509 -118 39 14 -132 -733 5791 1142 10 -257 6667 -293 -230 1870 -198 -307 -201 -269 -33 -1020 -68 34 -203 -81 -185 -1626 15 -133 -371 -26 -246 -19 -351 -270 -411 -539 1671 271 -81 -247 8 -242 -640 -12 19 -272 -766 -2 114 -262 -225 18 -252 -290 -53 3014 -80 52 -235 357 538 -199 602 -201 -79 101 -206 671 2470 -212 -442 -1012 -1072 -181 25 -15 -702 -224 -264 -231 -228 -380 7 -24 -212 68 -195 -942 -69 -294 -220 -134 -840 1507 -201 -387 203 -268 -540 -2166 -499 -215 -233 -1819 -502 -875 -71 -291 -180 -1608 -356 -285 -28 1546 -246 382 148 -474 -54 111 1884 -207 -457 -518 79 -272 412 -176 -60 -171 -260 24 -831 -334 14 6 -8 -1458 2357 -40 17 -57 -297 -2955 -194 -245 -413 -1979 -254 -8 -276 -198 -166 -717 -367 -231 44 67 -332 9 -186 -5 968 -232 -926 244 -651 -286 1535 207 -189 -351 -264 -1136 -321 -281 -665 -65 -988 -3 -898 413 -57 -555 30 128 73 35 -9 -8 -35 
401 -194 -30 -51 -348 -23 -76 86 -289 -907 -19 -61 23 -84 -1179 5931 932 9 -131 5208 -133 -134 2007 -124 -236 -126 -167 -51 -1010 -80 -26 -101 -82 -126 -901 25 0 -116 -18 -110 9 -292 -338 -212 -220 1213 94 39 -111 3 -79 -381 -58 25 -194 -634 -5 23 -134 -172 11 -119 -135 -3 2892 -57 29 -307 188 152 -98 422 -124 8 137 -216 796 1554 -200 -319 -409 -1102 -75 -43 -4 -620 -101 -115 -135 -17 -260 22 0 -149 28 -91 -880 -4 -244 -42 -96 -354 1474 -112 -127 65 -154 -393 -1205 -422 -98 -102 -1312 -195 -401 -48 -122 -218 -986 -181 -158 18 876 -94 290 111 -120 -91 -38 1485 -156 -354 -179 -23 -145 208 -37 -9 -99 -98 -7 -577 -108 20 -34 -5 -789 1996 7 26 -80 -144 -3315 -139 -228 -258 -1356 -283 -210 -154 -92 7 -119 -160 -36 6 158 -276 5 -138 1 934 -209 -394 278 -455 -122 849 73 -73 -215 -359 -961 -523 -141 -895 -124 -641 -16 -1988 276 -23 -130 4 42 45 70 -44 -12 -30 
203 -126 274 -79 -128 -237 -31 12 -226 -864 -19 -19 3 -19 -518 3971 436 10 -106 3702 -86 -133 1258 -109 -237 18 -117 -26 -592 21 31 -59 -4 -110 -719 21 120 -75 12 -127 22 -165 -624 -65 -75 678 -16 68 -268 -3 -20 -162 -21 -34 -151 -537 -5 161 -131 -75 27 -104 -184 29 2380 -1 3 -848 160 -42 -79 189 -109 29 94 -201 658 -294 -142 -305 -111 -754 163 -8 -26 -412 -44 -127 -95 -19 -82 -132 17 -143 -130 -28 -792 -6 -118 -42 -72 -641 755 -71 -88 164 -66 -124 -827 -131 -69 -114 -353 -83 -135 -85 -89 -158 -297 -131 -193 32 166 -87 -13 -31 -65 -10 -108 714 -74 -89 -204 -56 -101 266 -9 -24 -83 -98 -14 -269 -125 -2 -17 -71 -283 1564 -10 15 -52 -115 -2189 -137 -201 -111 -790 -201 -209 -69 -125 64 -84 -92 11 2 182 -253 -7 -198 -12 445 -118 -103 189 -537 -61 328 18 -173 -196 -391 -198 -635 -111 -628 -359 -108 -21 -1139 34 -36 -99 4 0 50 21 -27 23 -35 
49 -51 229 -54 -132 -192 19 36 -209 -359 2 21 17 -24 -185 1689 147 3 -5 1875 -55 -46 431 -11 -129 -1 -72 -3 -458 32 12 -23 34 -79 -586 19 71 -42 -5 -73 21 -64 -627 -32 -50 385 -4 37 -47 9 -42 -119 3 -16 -34 -196 13 227 -121 -48 -3 -66 -119 24 1229 -2 25 -539 55 94 -36 28 -51 7 81 -103 399 -113 -65 -129 -63 -470 70 0 9 -40 -12 -94 -35 16 -23 -90 -4 -82 -62 -11 -350 -5 -70 -38 -66 -512 263 -38 -29 72 -16 -49 -237 -54 -20 -47 -132 -27 -26 -3 -27 -122 -187 -55 -119 -15 68 -24 0 -42 -37 -45 107 379 -69 -44 -29 5 -40 114 -9 -19 -73 -95 11 -110 -69 -4 16 -75 -166 1056 -4 9 -4 -66 -729 -91 -102 -95 -565 -12 -68 -11 -43 45 -53 -25 -11 -15 102 -115 -5 -81 12 -178 -66 -19 82 -305 -38 377 17 -108 -102 -114 -556 -241 -79 -352 -340 -483 -112 -498 -7 -36 -55 26 13 0 12 -26 15 -26 
108 -7 -5 -283 -19 -14 9 22 30 8 -14 2 20 10 -9 374 83 18 -11 -97 -61 20 -6 -11 10 17 -262 -4 -51 -11 -6 15 -4 -43 -48 7 2 -14 11 -7 0 1 -40 -11 -221 -26 -11 -78 -1 -19 -33 19 16 211 -16 -56 -16 2 -29 -15 15 -14 10 -16 141 15 25 -145 8 25 -1 162 14 18 27 -19 -2 -16 -9 -2 -16 -58 5 14 -19 6 -8 -404 16 59 -2 7 12 -57 -30 7 477 -3 -4 -40 23 -76 49 -1 17 22 12 29 -29 -306 -25 12 -27 -18 -21 21 -11 -192 -110 -42 -30 1 24 11 -8 -1 6 -262 35 23 -431 -16 -11 13 15 21 -47 0 -3 -34 11 -22 9 6 4 -271 -25 155 3 3 8 -20 523 -10 3 16 -151 123 9 15 -15 -2 -4 -29 12 -18 62 -27 -3 -6 16 17 18 -3 70 5 3 -41 -11 16 -22 14 4 -18 -17 -61 -25 -73 -41 -115 15 -273 5 -9 1 -425 -15 -304 -4 4 
-11 -21 11 -128 -8 0 17 10 1 -24 2 -16 7 -14 -4 193 44 0 -8 -89 -17 17 8 5 -19 -10 -104 20 -2 -9 -1 8 -18 -54 -19 -7 -7 -10 18 -31 6 1 6 -8 -93 34 -1 -24 -14 8 -30 -15 5 110 1 -16 10 0 -18 -11 3 -15 15 4 83 10 18 3 -4 19 -9 76 -13 9 22 9 14 -5 -38 -1 -16 -48 3 5 -20 -13 18 -158 -6 13 16 17 8 -25 -10 -10 178 -10 8 -5 21 -34 -20 -25 5 17 5 27 -36 -112 -16 -8 -44 -27 28 19 1 -71 -28 4 -2 -10 3 -7 5 -12 0 -112 1 -2 -180 -18 -11 15 -12 1 -8 9 0 16 8 -4 -13 7 -14 -83 -2 23 0 10 0 -16 226 -14 -2 4 -41 45 -14 -5 -16 10 1 -17 0 5 7 -19 -12 9 -20 24 -11 -11 0 -3 -13 8 16 -3 -6 -5 2 -10 -26 -33 17 -23 15 -59 9 -138 -4 3 -19 -191 17 -124 13 -7 
-10 12 -16 -4 13 -4 14 11 -15 0 -12 -2 10 3 3 62 8 -8 5 46 13 1 1 -19 13 -10 2 12 4 -5 16 10 -19 -3 -14 7 -11 10 -2 -34 -7 -1 0 -16 -15 31 -11 6 -11 6 -34 15 -12 -11 10 14 -2 -7 -2 -18 2 -6 13 -5 9 13 -18 -11 4 4 -7 18 -20 7 14 -14 15 14 -10 7 0 -5 -4 2 16 -14 -3 -15 1 9 -12 16 17 2 -8 18 9 -6 -13 -16 14 -7 14 3 -19 8 7 1 -13 -7 -14 16 -1 -6 3 1 2 12 6 16 -2 16 13 -13 3 -14 -15 -17 -3 -14 -14 -21 2 -18 8 -5 9 -11 13 -15 3 13 -18 -12 -10 -6 10 15 -16 -4 11 2 -84 -4 2 9 -20 13 2 6 14 10 6 -13 12 -12 -5 -7 -8 -19 -8 16 16 -14 -18 -15 2 15 11 5 -21 1 -20 -17 10 -8 7 -23 -15 -30 12 12 15 -7 -19 0 -6 -12 7 4 
-10 19 -11 -14 -13 -9 -16 1 15 8 -13 7 -10 -20 11 14 -4 -13 -20 1 -6 6 -7 -18 12 -14 3 -14 -5 -10 2 5 -19 11 4 -20 15 0 1 2 -12 8 -11 -9 0 12 -15 16 -20 17 -3 -14 4 3 -12 -4 9 3 -6 16 5 16 -6 7 7 10 7 2 -18 -19 -16 -9 9 -15 -6 -18 18 -9 18 10 -12 -12 16 4 3 16 -20 -16 0 -14 -19 -15 -18 -13 4 10 17 -16 -16 19 -15 -19 -18 6 -14 -12 8 -16 -1 -1 6 0 -1 2 16 -18 -1 17 18 11 15 11 16 18 18 -7 0 15 -3 4 15 2 5 9 -20 4 18 9 0 -3 -20 -13 9 -1 9 6 -7 -20 -5 -17 11 -10 15 0 -20 13 13 0 9 -10 17 -4 4 2 17 4 18 15 -15 -1 -15 17 6 14 -12 -5 -8 -7 -12 7 -3 19 10 -8 -1 10 17 -8 -17 6 -6 -20 14 10 -6 12 -13 -7 -1 -8 
12 4 -18 -2 -9 -10 5 3 4 5 -17 -19 5 13 -15 16 -5 -18 -11 -2 1 -5 -10 -13 -14 -3 19 -15 10 -1 -11 -6 15 -9 4 -14 2 -19 10 -14 7 13 19 -8 -2 -16 -12 5 -14 -11 16 -1 -3 -14 7 -5 3 6 0 -15 17 9 -1 13 -19 -17 11 3 -15 1 1 12 -14 0 16 4 4 16 -10 2 -14 -14 14 3 -16 1 18 8 19 -10 13 17 19 -15 2 -20 -12 -7 -5 -15 7 16 9 13 -12 5 -10 12 2 0 -13 0 -2 -19 15 2 2 5 -18 -7 15 8 -18 14 13 -4 7 13 10 -18 19 -11 11 0 -18 19 18 -8 4 -8 4 3 12 14 4 7 -11 18 -16 -9 -17 19 19 -14 5 4 2 -8 -2 -16 -13 -11 -7 18 1 -12 9 -1 -8 -7 11 9 16 -5 3 -8 14 12 -18 18 16 -14 17 7 -8 3 -8 6 7 2 11 14 3 -16 4 -16 -16 -6 4 -3 
7 -13 -14 -4 3 9 8 -3 -6 3 -4 -10 1 -15 9 5 8 13 -9 -12 -5 -18 -18 10 19 7 15 -17 -19 -9 -8 0 -2 -2 8 -19 -12 -3 -9 -6 12 7 -4 -7 12 -15 18 -7 19 -19 1 -14 16 -5 17 15 14 4 10 7 15 -17 -12 -7 1 16 -13 1 -15 -2 7 9 17 -17 -18 1 -19 12 6 12 6 -13 18 2 -5 7 -11 -11 -9 11 17 18 14 -15 -16 -12 13 -9 1 11 1 -11 0 -10 -16 -5 11 -15 19 -2 17 5 -3 8 19 12 -13 -12 -18 -1 -20 11 -11 6 16 -7 6 1 -4 -12 -16 17 -11 5 -13 -15 12 11 -17 11 -11 -20 -11 -2 0 -12 -9 8 -11 -15 19 -11 16 -12 7 4 2 -6 17 18 -6 -18 8 -5 7 7 0 -1 -2 3 -18 -1 -4 -17 18 16 -8 -19 -4 1 -14 -5 2 14 4 -11 -2 18 -5 -5 16 9 -3 -4 -16 16 -16 -3 -13 2 
-20 -18 14 -12 -15 12 -15 -11 5 -7 2 11 9 -16 -3 -15 -14 15 -17 -7 -18 19 -17 -8 -12 19 -20 -8 -4 -12 6 -11 -18 0 -3 -13 -16 -6 -3 9 8 19 -8 -11 16 9 -6 14 -4 -3 -13 -1 -12 -18 3 -4 14 3 8 -18 3 -13 -9 5 -1 1 13 4 7 -18 -15 -5 13 -2 -4 1 19 10 -5 -4 19 -5 7 -12 -11 -10 -4 -17 5 17 -14 -11 -16 -11 14 3 2 -1 19 -10 1 -15 -3 -5 -5 14 16 -6 -4 -16 2 -4 -9 -11 4 0 -9 12 -4 9 9 -6 18 13 -5 12 -11 18 -8 -12 -12 5 -15 -3 12 0 -9 9 7 8 5 -11 16 16 -9 -8 -12 -6 -16 4 -17 14 18 13 -1 -6 6 8 -8 10 17 -8 -13 -18 9 -20 -5 13 1 -18 -7 -14 -17 -11 14 -14 -7 -18 -7 -3 7 -4 -17 -3 -10 3 11 8 -9 15 -10 -20 19 -11 15 1 -11 -10 -14 10 
-16 -1 8 19 0 2 -15 13 -3 -1 -19 -16 7 -12 -5 13 1 17 -11 10 4 -9 5 4 1 -8 17 10 4 -17 -6 -2 2 13 -3 14 -4 3 -1 5 14 1 1 -5 -1 16 16 12 12 -11 -3 -5 -12 14 12 9 -15 9 -8 0 12 -3 18 -14 -7 -4 -21 -2 19 -1 -17 5 12 4 19 -16 1 7 16 -18 12 -18 -10 12 23 -18 2 2 11 6 -3 -5 -17 -5 1 -7 11 1 12 2 12 7 -12 -3 -8 21 1 3 6 -11 -3 -10 -13 8 -18 18 10 -2 16 -6 -18 -7 13 17 1 -9 -17 -8 4 5 7 -3 -8 5 14 0 4 -13 -19 -18 -12 -1 -16 -5 -11 19 -14 9 -13 -18 -17 -18 -21 13 19 9 -16 -18 12 1 9 -2 17 16 -16 3 -6 0 4 -12 -5 11 -1 -9 18 -2 -8 -13 -13 -10 18 -9 -8 18 16 -19 6 8 18 -9 -6 -1 9 -10 -5 5 6 2 -14 -21 
-3 -8 2 -11 3 1 7 12 -2 0 17 -12 17 -19 -15 59 16 5 -3 43 15 9 -3 -4 11 1 -18 -11 -18 -11 -11 12 -7 11 13 18 -14 -8 -3 3 -20 -7 3 9 -14 24 -5 -16 -13 12 18 -17 -6 -16 0 -15 5 4 -5 1 5 -4 -14 19 8 -19 9 -5 -5 -13 11 -5 -7 -4 -16 0 47 -10 -4 -13 -17 -4 -9 -2 -8 4 -4 9 -20 5 -17 7 -18 -10 -2 -16 -27 -12 -1 -1 -13 -12 16 1 -18 3 14 -9 -40 -8 -1 9 0 2 -12 5 -21 -2 -13 -18 14 -8 22 16 3 19 -19 7 -20 5 18 -13 -1 -11 1 9 -20 -11 -17 6 -6 3 -4 7 -20 -2 -8 -17 16 1 -18 2 -52 -7 0 -20 -13 -5 -1 -6 0 -6 -6 -32 8 17 4 -1 18 8 -13 -6 -15 4 -20 -16 -17 -1 18 11 -3 -21 -17 -18 -5 1 -17 9 15 2 -1 -11 12 -7 -19 -7 -18 6 14 -20 
52 -16 -6 1 -2 -12 9 1 -9 7 -12 13 0 -3 15 39 17 14 -3 30 -13 -4 18 12 9 14 -14 13 1 21 13 7 11 14 -12 -8 -18 4 5 -4 20 3 -13 -9 8 22 17 4 -3 -9 17 0 5 -2 -10 -21 -9 -12 12 1 -15 -9 20 14 3 -19 16 16 1 -2 -9 -1 20 -14 -2 -4 135 -9 11 21 -1 -166 -5 13 22 -4 15 21 -8 -7 -6 -8 -7 -15 18 -11 20 4 -14 -2 20 -12 18 11 22 23 -16 4 -156 16 -6 -3 -10 -2 20 22 4 4 21 13 13 24 30 -14 -12 5 -15 -14 -14 -1 -6 -17 -5 17 4 -15 9 2 6 14 -10 19 -18 -7 -13 21 -9 8 2 -13 -3 -16 -19 -19 18 -15 -258 22 23 19 -14 -18 13 -13 17 -13 -7 -2 5 11 -15 10 9 15 21 10 14 2 -3 -7 -12 3 -17 -13 11 19 21 -11 19 7 33 15 9 0 -15 -2 8 -13 6 -18 
145 34 -10 -5 -15 13 5 13 44 5 3 8 31 17 11 689 9 19 0 116 33 18 35 -17 11 14 6 41 9 8 40 14 28 -10 60 43 16 9 -2 11 28 -9 42 41 8 153 47 25 20 41 9 -2 38 27 3 10 21 1 29 28 9 1 2 24 7 13 25 13 5 10 23 25 10 11 10 5 -250 9 37 17 16 -690 34 31 34 27 40 30 16 11 39 -481 -26 14 6 -1 0 24 27 35 32 26 11 9 27 38 -5 -3 -206 24 9 28 61 32 29 32 47 27 17 5 -12 41 45 31 19 46 13 32 25 38 22 0 -15 29 8 28 56 39 -218 26 26 19 -9 33 8 37 6 84 43 -1 13 43 -332 22 27 12 -1021 62 38 -164 -13 -1 28 -32 2 13 11 19 -6 -5 29 6 31 20 550 14 38 336 28 6 36 25 4 29 -2 -667 46 6 25 18 80 31 21 6 28 14 16 31 42 3 
-41 25 -200 2 -292 -37 41 66 147 11 36 113 18 11 -4 1916 16 19 8 230 -30 -15 43 -27 -18 13 -4 46 -19 -4 21 23 36 -40 232 49 10 -24 3 35 33 3 68 47 5 425 50 572 -8 26 19 -11 49 12 -35 -675 45 -38 -14 -137 19 -22 -7 -5 15 -16 -38 9 264 34 2 116 24 50 16 -1 -310 33 32 -9 4 -1231 25 38 12 104 36 26 1 59 46 -813 -97 3 -5 5 -33 1 12 164 11 37 -54 28 -149 73 -172 44 -290 77 -2 39 179 51 87 22 35 82 52 17 -25 51 27 -39 7 229 27 43 10 10 22 -16 51 45 17 9 46 8 -310 11 31 25 -43 49 52 41 96 21 25 24 28 30 -1454 -5 4 27 -984 101 40 27 -30 28 -30 -73 -5 41 36 3 -9 -7 37 173 7 24 721 -40 87 693 26 26 58 -2 -2 21 10 -1180 158 -153 37 -3 215 3 -1 29 46 38 46 19 29 18 
-296 72 -647 -10 -1323 -115 154 107 200 -28 19 189 71 47 49 3210 30 46 12 1051 -61 18 94 -7 -39 21 28 79 72 -17 41 15 31 -47 455 55 39 31 67 36 56 3 239 45 54 380 79 701 2 28 58 -56 45 20 -27 -915 33 -61 26 -213 39 -1 33 -57 14 -59 131 10 1078 -39 11 219 -73 193 47 25 -1409 42 20 -3 -187 -2037 67 36 36 250 68 27 -8 144 58 -1682 -91 52 -5 21 47 35 5 1154 -1 75 26 17 -211 248 -229 166 -694 116 -4 165 563 75 178 82 37 132 171 32 29 56 432 17 12 654 49 45 50 26 57 -10 50 71 39 32 119 477 -330 0 26 30 -70 71 50 56 336 96 44 41 65 -13 -2209 33 40 75 -1644 205 22 67 23 -37 -5 172 -9 28 14 -39 -8 17 30 -60 15 188 626 -61 141 712 47 27 5 15 30 78 -134 -2356 782 292 101 -1105 669 41 33 -149 58 66 66 48 18 36 
-32 146 -665 56 -2220 -191 134 197 311 -24 17 -34 67 96 79 5238 -1 79 42 101 -505 67 -82 42 -3 -22 30 117 -115 207 -89 -211 -1 31 684 80 29 -31 432 29 65 103 458 -50 73 1252 49 351 -260 -262 54 -85 79 -21 -8 -1118 29 -119 32 -210 51 69 30 -92 -57 -97 352 -146 1025 146 107 356 57 148 31 84 -2084 44 25 -181 -255 -2659 41 43 55 397 122 19 51 86 52 -2336 -78 176 1 61 734 -84 -226 2736 -60 19 -400 75 -142 139 -483 118 -1652 238 20 481 1183 78 280 77 61 261 224 80 99 83 -37 27 7 1181 71 46 311 -318 104 -126 427 55 27 -58 198 573 -751 -26 62 81 -58 38 42 -36 601 -522 -23 38 -68 119 -4874 134 73 71 -2288 393 193 93 -38 -171 1063 349 32 43 33 47 12 33 -73 621 -72 828 444 -67 505 1478 -24 66 132 67 65 9 -12 -2991 1040 -352 140 -929 590 -26 39 -363 -27 66 117 72 16 67 
-64 105 -1114 41 -2999 -10 189 288 1228 -84 -33 47 -170 -14 -180 8427 107 85 58 -1296 -745 67 64 -111 166 -98 -9 131 -353 217 -226 -722 -124 -8 977 -69 49 -24 546 -232 -34 122 636 -93 87 2354 23 211 -536 -606 40 -155 88 -26 -4 -2003 84 -114 4 -161 108 -38 -609 -144 -800 7 341 -148 1199 701 120 463 11 -71 78 -12 58 44 38 -412 -219 -4867 41 126 -215 64 24 20 -46 49 40 -3061 -179 246 -47 -268 1792 177 96 3083 -254 -75 -1314 -8 -194 -185 -833 -163 -3597 212 -13 837 1910 42 1206 19 28 396 668 -52 37 92 -793 -80 -15 1706 -15 -172 416 -1037 -9 -414 850 -95 14 -126 169 379 -1255 -76 -79 69 -232 -461 -11 -110 574 -1303 -30 26 -100 115 -8159 297 -135 100 -3442 761 239 17 -145 130 1820 440 -85 -37 46 361 -42 7 -128 1674 -35 1263 750 -15 1194 3111 -36 1 174 -83 -43 -93 655 -3106 879 -767 102 -199 275 -113 8 -128 -30 -118 -106 93 -71 58 
-889 -67 1075 -65 -3816 312 364 139 2110 -211 -45 305 -226 -29 -301 10137 -14 122 -12 -1795 -389 21 641 -174 258 -240 -171 207 -432 241 -471 -406 -123 -181 1366 -77 38 184 627 -414 -23 -200 900 150 120 2234 81 133 -449 -704 100 -235 97 41 -143 -3164 37 23 -27 -209 125 -442 -574 -244 -951 28 73 -138 2730 47 65 497 -94 -282 182 -129 1311 -380 -32 -588 -367 -4990 47 371 -374 272 -297 -21 -384 28 -54 -3791 -404 207 -129 -315 1692 30 548 2182 -365 -121 -1025 -279 -69 68 -1458 -173 -3226 513 -31 1305 2686 4 2294 -11 4 54 2277 -115 -162 171 -532 -345 -40 1391 -136 -296 139 -899 -73 -326 710 -107 -179 -18 251 192 -817 -144 -117 -2 -355 -472 45 -130 355 -878 -123 73 -108 117 -12742 68 -181 126 -3926 1036 121 -22 -386 82 1529 492 -217 -252 10 256 -72 -109 41 2334 22 2656 487 -171 1737 3762 21 -293 416 -209 -551 -139 67 -4743 954 -316 -78 -1091 1241 -176 -48 -34 -44 -227 -147 83 -179 19 
-1633 -152 3102 43 -2551 -179 -24 68 1998 -220 -107 518 12 -50 -126 7442 -326 101 -177 243 -356 -149 511 -95 -134 -388 -271 111 -735 174 -603 -111 -212 -343 1271 44 -104 493 353 -198 47 -1294 842 648 196 1215 -4 -267 -38 -312 117 -271 109 125 -206 -2021 -33 -123 -74 -48 214 -473 -495 -194 -1860 103 -11 -867 3867 121 61 151 -234 -449 132 -54 4501 -685 -188 -1453 -399 -4632 43 320 -163 638 -791 -75 -421 -341 -7 -2525 -480 456 -220 -492 1410 200 658 1683 -762 151 -1112 -327 -89 273 -1249 -103 -2430 7 -373 1543 2854 -70 2296 230 -34 513 3445 107 -565 269 -216 -188 -211 1464 -104 -253 -312 -818 -68 149 635 -438 -264 233 311 -28 -244 -205 6 -165 -377 -142 106 -113 508 -1147 -48 84 -44 -40 -13072 -235 -9 -165 -4070 997 11 -243 -465 34 -177 626 -252 -239 -105 97 -118 -444 106 2522 -205 4159 -367 223 2042 3419 -56 -276 833 -657 -538 -165 -376 -5321 1235 132 26 -1663 2400 -157 -163 181 -162 -560 -64 -39 -309 -29 
1194 -5 -608 168 -2728 646 -659 486 2856 -52 -407 505 182 -84 -86 5860 -1315 249 20 -1512 -277 -151 -1353 49 123 -27 -111 63 -833 138 -507 -276 -184 -291 1797 49 -65 524 20 -145 -54 -1385 626 272 -180 365 55 -750 60 -33 182 -362 160 220 -310 -1919 -164 286 -18 -56 296 -439 -415 -84 -4646 200 176 -1182 2566 628 151 -515 -131 -60 144 82 5783 -245 -93 -2021 -152 -6042 -55 431 -29 620 -520 -59 57 -823 149 -3318 -254 406 -259 -610 1733 500 286 1054 -1075 -225 -2639 -96 23 30 -1656 -304 -3782 276 -148 1816 3639 -246 2538 551 85 853 5399 -351 -342 396 -1497 -24 -142 1934 198 -262 -634 -1457 -1 22 728 -634 9 785 683 157 -221 -124 153 -168 -200 46 171 7 779 -2260 -107 48 105 958 -13004 -350 63 -688 -5316 430 -72 -700 -330 1148 -587 1759 -80 -252 -177 998 -66 -513 175 910 -167 4665 -252 1662 2796 4138 312 -657 959 -620 784 -78 -40 -6666 896 2985 221 -2471 3781 45 -135 8 -132 -1047 -73 -112 -303 -229 
2143 -89 -368 -136 -1592 684 -173 439 3084 -321 -839 -18 185 30 -538 5582 -1442 265 -551 -124 -290 -231 -1168 -52 61 -34 -225 154 -876 -210 -252 -693 302 -117 470 310 -186 584 -226 -298 -981 -1155 862 -633 -801 1381 -15 -990 -122 495 158 -544 248 198 -365 -2065 -329 299 -610 141 385 -605 -256 52 -4963 150 174 -1018 2364 41 -27 -498 24 -50 -12 4 7419 -252 -125 -2339 -383 -6646 598 437 -543 361 -12 -152 -201 -511 -96 -2379 39 -1159 116 33 1718 1059 -53 481 -1503 -543 -2456 -796 -33 33 -1629 -21 -5001 20 -423 744 3718 -924 1290 272 -269 1115 5109 -566 -565 346 -262 -62 -379 1167 -360 -655 -1081 -993 -78 111 -61 -947 149 846 645 555 -569 -234 181 -102 -75 -169 -179 -116 946 -2548 -82 90 -8 473 -14163 -338 -420 -708 -6104 -226 -329 -1239 -335 2069 -633 539 -109 -298 -203 1445 -336 -239 203 -534 -787 4201 -74 1952 3114 5039 253 -930 327 -816 635 -185 -206 -5965 316 2309 522 -2664 5379 -124 -131 690 -165 -2149 -653 -289 -564 -373 
1879 -830 -4829 -543 -1658 -782 50 421 2048 -845 -889 229 271 133 -777 12366 -342 245 -1390 5842 -508 -344 -1559 -349 -620 -665 -571 220 597 -564 284 -953 338 -469 -391 -105 -167 25 -490 -703 -878 -1034 -368 14 -901 5374 -47 -412 -113 347 11 -471 250 103 -791 -3245 -638 -338 -443 -165 310 -598 -770 -60 -3749 78 498 -903 4131 361 -569 176 -390 230 -269 -751 8935 -568 -315 -2577 -828 -6545 834 318 -611 -51 -194 -493 -787 -863 -272 -2320 -74 569 197 -148 330 1528 -243 2778 -1467 -1129 368 -1415 -429 360 -2359 369 -3458 -801 -854 202 2775 -1177 -834 135 -690 843 2402 -7 -1237 234 1561 -602 -1039 201 -707 -813 -1512 -90 -241 -17 -1253 -1024 239 575 491 -128 -628 -748 133 -133 -261 -212 -252 -200 78 -531 -248 129 150 -265 -16474 -199 -1235 -358 -3754 -538 249 -1906 -960 2909 -1306 -830 -394 -439 -286 1274 -224 -735 227 -1384 -928 1818 -113 1743 2506 7098 303 -1477 -303 -537 1551 -753 -707 -5770 -120 -928 388 -2906 5887 -311 -318 89 -89 -1970 -487 -368 -781 -410 
3696 -1281 -3845 -728 -3517 -1135 1213 -155 1184 -708 -538 -236 284 60 -367 11272 141 283 -1375 7269 -402 -1238 -564 -303 -885 -958 -703 212 1767 -312 1020 -779 -119 -506 1120 -375 -238 -503 -511 -452 -182 -663 -722 181 -1484 6008 241 143 -539 168 161 -295 216 -18 -245 -3678 -848 -602 -502 -294 182 -466 -1204 289 -586 512 448 -854 1932 196 -326 814 -235 -166 -427 -703 5383 -495 -432 -2033 -1286 -4660 639 -107 406 -1395 261 -692 -949 -435 -161 -4142 -232 2184 -172 -1159 298 1003 -470 2222 -1308 -1515 1897 -1426 -425 909 -2029 -369 -4143 -780 -1751 -316 2407 -610 -943 282 -614 1360 2026 641 -1362 323 1579 -787 -1726 -541 -867 -407 -1851 386 -349 -341 -1111 -859 318 712 451 -393 -689 -486 143 -380 -354 -323 -166 -166 19 165 -380 173 -72 -1212 -17317 398 -1337 -477 -971 -854 1290 -1465 -493 2779 -1456 -721 -640 -800 -395 1346 57 -930 252 -1100 -626 -567 -274 1076 1336 6624 227 -1088 -1670 -622 255 -746 -517 -6183 -242 -1870 563 -3446 3879 -349 -179 -528 -198 -1547 -341 -196 -395 -326 
2609 -568 -719 -742 -2755 -859 1554 1419 -2159 -630 -842 270 240 -590 -1608 15772 2220 309 -1475 12781 -1141 -1338 2577 -772 -628 -1332 -697 263 -1506 139 1264 -841 358 -583 839 -120 58 -641 -876 -826 -243 -619 -1060 62 -1472 7397 92 1802 -1574 23 169 -516 202 -249 -643 -4527 -525 -268 -702 -416 110 -678 -429 220 5004 221 201 -1025 2041 661 -656 2239 -733 -525 -158 -277 2765 -1883 -437 -1656 -1376 -6573 1001 -121 416 -1817 -240 -705 -706 -425 -613 -4014 -521 950 -601 -1222 -151 -44 -402 1281 -1624 -1308 4007 -1425 -1220 2054 -1955 -1613 -4988 -1091 -1235 -163 2434 -744 -2057 509 -672 1472 3121 -683 -863 418 2808 -722 -1584 -706 -1205 -194 -1375 2947 -378 -1436 -1227 -453 67 1462 198 -314 -843 -685 198 -804 -735 -264 -348 -118 -779 4793 -469 154 227 -1484 -17747 517 -1069 -454 -3532 -517 1403 -1173 -695 1616 -1613 -421 -858 -465 -266 1085 157 -1157 279 416 -592 -911 -279 1562 444 5463 89 -922 -1703 -736 841 -687 -985 -4405 221 -3725 338 -3181 625 -334 -537 -210 51 -1092 -301 -100 -267 -608 
2336 -586 -1570 -707 -798 227 1592 1137 -1595 -828 -1200 166 350 -1125 -3080 14820 1952 291 -190 14246 -1047 -622 2234 -182 -518 -960 -867 327 -3702 84 908 -744 476 -854 -223 -377 489 -573 -484 -1272 -531 -758 -1301 -38 -1120 6107 272 2679 -2187 -202 132 -1435 194 216 -634 -4507 -349 282 -646 -512 140 -638 -407 357 7204 -39 464 -917 -361 -394 -1206 2385 -756 -552 79 -407 102 -2391 -456 739 -1208 -9309 1033 -256 -657 -2039 -960 -744 -759 224 -936 -2942 -790 211 -574 -1186 -1243 -189 -845 -279 -1235 -1726 3668 -1096 -1232 1745 -1655 -483 -6852 -1252 -852 143 2119 -876 -929 461 -704 1080 3505 -3148 -1342 542 3482 -763 -1107 -768 -1025 -180 -622 2886 -523 -1613 -460 -144 73 1459 83 -391 -675 -770 267 -1123 -778 -175 -662 -256 -1628 5724 -406 153 343 -1242 -12343 436 -973 -576 -5995 -963 1153 -955 -393 605 -1476 399 -459 -278 -154 972 -391 -1288 247 590 -383 -2340 -61 1789 -103 3953 161 -1018 -1181 -646 2702 -805 -535 -1009 -258 -1731 221 1304 705 -217 -1080 466 115 -557 -469 110 361 -189 
2884 -543 -2563 -1101 229 482 823 123 -2249 -1007 -1399 214 326 -1982 -3008 20479 4526 246 -1144 16421 -795 -703 5008 -305 -911 -1383 -1073 -264 -3890 -649 423 -608 319 -628 -1953 -54 909 -1352 10 -1107 -1393 -1241 -1372 -243 -1495 5621 406 2286 -1075 39 -710 -3073 173 47 -989 -2605 -104 1019 -925 -649 84 -1179 -998 347 10417 -107 651 -813 -906 245 -1123 2779 -924 -432 147 -581 -811 469 -685 -493 -1376 -6812 435 -96 -1262 -2876 -2128 -833 -753 42 -809 -1032 -1108 -937 -544 -864 -1156 -280 -878 -546 -900 -2039 5998 -1666 -1031 1205 -1513 -637 -7899 -1850 -1075 -396 429 -1280 -673 377 -585 18 310 -2708 -1655 461 1661 -637 -138 -966 -1186 -362 -538 5052 -938 -1431 -1128 427 -100 1441 -145 -769 -462 -986 208 -1431 -716 -81 -891 -491 -2440 6231 -513 138 234 -1470 -9204 157 -616 -1086 -5729 -809 421 -1001 -879 601 -1505 1137 -1091 -268 -60 1044 -725 -692 174 1950 -1299 -2033 458 -719 -227 2478 332 -792 -1601 -671 4455 -747 -724 174 -346 -1246 -844 3676 213 -227 -1130 256 234 -1442 -692 151 273 -370 
2835 -744 -2561 -817 720 182 705 95 -2219 -1184 -876 492 268 -1294 -620 17687 4166 27 -1538 12592 -1175 -564 4906 -496 -1033 -836 -642 -250 -1307 -554 -2 -404 284 -750 -3137 214 -158 -1145 -293 -1094 -630 -861 -1245 -453 -992 3375 368 1456 -774 180 -868 -2871 130 283 -732 -2282 -2 1158 -719 -598 -461 -748 -1568 127 9085 164 609 -586 308 387 -360 2107 -798 37 39 -1046 -610 3001 -566 -1681 -1394 -3997 -683 136 -421 -2094 -1282 -722 -352 -357 -717 -592 -513 -623 643 -606 -1210 -197 -734 -718 -542 -1625 5568 -817 -812 687 -587 -1139 -9415 -1409 -1224 -1022 -1813 -1293 411 95 -439 -400 -3718 -638 -914 372 1459 -364 295 41 -746 -244 -166 3957 -834 -1309 -849 619 -538 1431 82 -543 -285 -677 198 -1166 -746 -109 -317 -578 -2521 5183 -243 106 176 -1171 -3433 -180 -565 -584 -6851 -714 1197 -477 -704 585 -1929 1644 -726 -279 114 45 -406 -469 -321 1484 -1250 -579 270 -1244 -414 867 524 -650 -1327 -486 4542 -517 -993 -793 -555 -692 -222 3739 -61 -6 -896 -191 217 -1447 -19 -112 -4 -370 
1180 -631 -1701 -603 1380 -160 -1 -236 -1742 -1436 1 327 266 -771 -1002 14113 2279 -252 -764 10800 -1040 -350 4852 -359 -707 -475 -268 134 -1100 -19 68 -554 213 -201 -2515 194 3 -1043 -130 -377 -314 -422 -1188 -325 -591 1285 210 976 -866 172 23 -1358 96 -216 -641 -1896 -14 1073 -717 -971 -1056 -624 -1780 88 9371 -337 402 -922 -122 195 -375 721 -492 278 -70 -592 383 -1152 -482 -1007 -1131 -4245 247 138 -243 -1331 -574 -1099 -356 -311 -532 -1826 114 -536 935 -890 -1682 51 -361 -881 -271 -1207 3476 -118 -576 779 -171 -1088 -6639 -942 -811 -1035 -2622 -935 -873 114 -316 -550 -2638 -486 -489 135 642 -229 331 214 -402 -188 463 2460 -943 -644 -379 554 -601 1009 39 -332 -242 -306 134 -742 -787 -160 99 -697 -2252 4283 12 83 149 -703 1104 -157 -454 -41 -7765 -739 2298 -353 -226 426 -968 189 -136 55 182 -1357 -298 -434 -711 950 -630 -973 219 -1219 -391 -465 372 -604 -1240 -532 3335 -713 -685 -1498 -718 -100 82 2665 -132 82 -647 -583 57 -778 335 -260 -36 -60 
241 -558 -249 -246 1050 -409 -288 21 -542 -856 49 138 153 -82 -888 7823 944 -267 385 4652 -448 -148 2313 -410 -480 -245 -218 81 -632 143 83 -286 294 -372 -1065 124 -4 -532 -94 -75 390 -189 -952 -10 -356 291 135 447 -294 97 145 -562 27 -18 -348 -1607 -59 1102 -366 -795 -914 -260 -392 77 5344 -376 43 -1154 -298 222 -103 -334 -393 284 104 -151 1135 -1069 -239 -428 -749 -5666 -21 67 55 -423 -177 -402 -179 -58 -122 -202 159 -426 724 -291 -1114 -22 -136 -519 -87 -969 1449 5 -74 483 92 -877 -4976 -503 -380 -1034 -1295 -522 -590 482 -126 -479 -782 -97 -331 34 -69 16 199 -39 -263 -47 1166 1261 -694 -157 -189 360 -107 462 33 -257 -134 -78 101 -301 -170 32 146 -164 -1373 2964 49 51 65 -594 2938 -152 -125 -59 -5519 -533 2374 -254 -105 274 -291 -330 -108 279 103 -1487 -24 -429 -514 -191 -98 -671 -186 -1137 -518 -444 408 -155 -244 -225 2755 -435 -385 -328 -614 -1034 81 1065 -67 2 -307 -194 86 79 236 88 -92 -75 
1096 -327 -6 -542 741 -119 -207 57 -395 -165 112 109 98 73 -252 886 -111 -35 -48 -44 -133 -48 426 -24 -484 349 -264 63 -340 477 83 -49 327 -373 -526 75 -142 -481 -61 -132 302 -456 -785 -103 -463 -473 115 -35 -17 88 -74 -288 94 188 -129 -176 -5 887 -128 -200 -224 -269 -18 73 2024 -213 15 -797 -254 133 -12 -535 -4 404 149 -59 -92 -503 -56 56 -159 -5046 -123 87 71 30 -54 -577 -83 77 -64 141 62 -250 509 -9 347 33 -5 -58 28 -974 11 3 42 69 10 -431 -3830 -263 -402 -427 -71 -275 156 698 -40 -435 -834 -16 -64 103 -252 94 -26 23 -46 -236 602 342 -445 -12 -39 85 -208 177 31 65 -28 81 95 -223 -26 -186 80 -271 -831 431 79 24 97 -114 4058 -168 250 -57 -4148 -490 2668 -268 -12 551 -219 172 36 -34 47 -364 -46 -354 -80 -1061 -172 -172 -10 -376 -141 -557 358 -11 -294 55 2807 -225 -55 50 -591 278 -24 234 12 -268 -70 339 74 -435 78 -186 209 -42 
716 48 -104 -637 570 43 -202 3 -240 -105 61 65 56 52 -88 676 219 19 7 347 -406 3 800 -77 -73 148 -277 49 -93 463 30 -39 233 -180 -188 19 5 -513 67 -70 -28 -228 -73 -267 -484 52 51 -71 -49 27 -15 -118 72 224 -5 -79 -27 387 -188 -304 41 -81 -16 39 1186 -465 76 -157 -7 87 -48 -14 -11 128 86 -30 192 -70 16 -11 -36 -1844 247 24 14 -12 1 -643 -96 75 -37 -44 12 -150 285 -76 966 40 -1 4 -11 -262 -76 -18 52 -23 -121 -358 -1905 -286 -125 -236 -152 -153 -191 58 -2 -185 -602 -10 -62 42 7 46 -16 -11 -52 -293 -148 64 -462 7 38 46 -415 -2 10 172 -31 -37 25 -62 10 -171 42 -367 -757 325 34 16 63 -56 1765 -304 129 -52 -1719 -222 1387 -29 -14 482 -190 -219 27 26 58 -434 -211 -99 49 -286 -353 -85 18 131 16 -119 249 -4 -471 -17 893 -283 -47 34 -414 1252 -4 -345 309 -429 -40 298 73 -743 28 -437 254 25 
196 32 3 -286 229 8 -131 15 -32 -207 22 9 24 28 -50 699 72 6 -17 419 -310 -17 819 -62 -28 83 -63 10 8 358 20 -95 110 -178 -19 7 -161 -356 27 -70 -39 4 -3 -246 -239 234 28 -48 -66 13 -4 -101 49 63 12 -5 22 185 -134 -262 3 -78 -46 26 1063 -412 34 -70 34 57 -20 37 -33 29 8 -31 66 0 32 32 -15 -1228 60 8 14 11 -18 -280 -90 14 -10 27 8 -137 -13 7 769 3 -1 2 -38 -11 52 8 23 -51 -345 -295 -648 -30 -24 -30 -27 -14 43 9 6 -39 -406 9 -42 41 8 15 25 8 -31 -65 -299 40 -54 8 2 39 -365 31 -2 134 -57 -5 25 -37 13 -20 28 -162 -195 52 -1 8 41 2 302 -253 2 -79 -144 -34 373 1 -11 39 -184 -47 -1 6 10 -400 -185 -38 2 -175 -337 -13 20 60 86 13 67 -15 -422 11 78 -237 0 -41 -51 1039 0 -532 72 -221 -41 80 32 -379 33 -176 194 10 
-27 -7 11 5 -28 -15 -32 -11 9 -101 -17 9 -7 13 0 62 -10 19 -25 61 5 -6 15 -4 -9 14 11 -5 4 18 10 4 -14 -49 16 -17 -76 -12 -12 -21 10 -19 -4 17 -23 38 16 4 -20 15 15 -11 -12 -15 -6 11 -20 -13 -49 -4 17 13 16 -18 17 11 18 -15 19 18 -11 5 16 17 -11 3 29 -36 -9 9 -23 -34 -2 -11 -4 11 7 -15 8 7 -7 9 0 -7 -12 -4 -5 3 18 14 -11 -9 -10 -17 -5 -3 0 -68 1 15 12 -4 10 -13 5 -7 15 22 -21 7 -1 18 -15 -20 -14 11 1 -17 -71 -2 19 -7 10 17 -21 16 -5 10 -1 13 5 -1 18 -5 11 -4 -6 3 -4 14 19 -21 19 -13 14 11 -17 -1 9 12 19 -26 -113 -15 2 -8 14 2 -16 -8 2 -31 -6 -7 14 61 52 -2 -3 18 -22 -9 0 5 -2 0 -10 91 -19 -47 -19 0 -5 -14 7 11 -11 -7 1 -10 
19 15 10 -7 -33 -3 -18 11 12 -14 1 13 7 -9 -10 -19 -20 -3 -9 15 -11 -15 -13 -2 -18 6 -11 -9 19 1 2 19 -10 -15 -16 -9 3 -13 14 -23 -1 -5 4 -13 8 -19 -12 1 -2 -1 -12 -1 -4 -5 17 -2 -18 -14 10 13 1 -16 12 3 -7 9 14 3 16 0 9 -4 15 0 -5 -5 1 -12 -1 11 14 16 -9 -10 -16 -12 -7 3 -28 -10 11 0 -5 -4 -21 -4 -18 9 -20 13 -11 -3 -11 -16 -18 -4 -24 3 19 -20 -28 5 8 -14 13 12 -2 -4 2 -3 -2 -6 17 13 2 -20 -18 7 11 14 0 18 -5 2 14 -3 18 18 13 10 10 -20 -5 -2 -10 -17 -29 8 -9 5 -14 9 7 -17 -5 -7 16 -3 11 5 -9 -7 -4 6 7 -18 16 -23 -20 9 -5 10 9 3 -19 19 6 -16 -1 17 1 5 -17 -15 -6 13 -10 -7 -18 -29 14 -7 -12 -18 12 15 -15 8 0 -15 
-11 8 8 18 -17 9 9 1 13 -20 -10 -14 -2 8 -9 19 2 2 -12 4 5 14 10 13 17 -6 0 -18 14 12 19 -17 -8 7 13 -5 -4 -6 16 -19 -6 -14 -12 12 7 -1 3 -11 13 11 5 -10 6 -13 15 -5 1 -5 -3 -5 -12 -4 -10 0 -16 -17 16 -8 -3 4 -6 4 3 2 -4 -10 13 12 -9 -1 3 16 9 -19 16 -3 -4 -11 12 5 -3 -20 14 7 -7 10 3 -19 -18 12 5 -4 -4 -12 10 5 -10 -4 -3 1 7 12 -10 -12 6 -14 5 14 -5 -2 0 12 -10 -6 -8 3 -16 15 4 18 7 -18 -13 16 -18 9 1 -7 17 18 14 4 10 16 13 -4 -18 -10 -9 -10 0 3 14 11 9 18 -14 5 13 3 3 -7 5 10 -11 7 0 10 12 -11 0 7 14 -10 -5 -1 -1 -10 9 2 0 -10 17 -14 13 6 -15 19 -9 10 2 6 -17 19 -3 -8 7 9 14 -1 
18 -6 18 4 5 -14 -17 16 -4 5 -10 8 7 -13 14 0 5 11 -9 16 2 6 -6 -3 5 3 10 -16 -8 4 -4 -17 19 -14 7 -4 -8 3 -16 8 -20 -6 -12 7 -7 15 19 18 6 -10 6 -20 8 -20 -2 -6 4 -20 -10 8 -4 -2 3 -13 5 -9 3 9 6 -1 -10 6 5 -2 -15 18 -7 -16 8 12 -14 -6 4 15 -13 -18 -19 3 14 -17 -17 -9 2 7 -2 19 10 14 0 -4 -7 10 14 11 -19 19 9 -14 15 -2 10 -19 4 -5 16 3 -11 9 -14 -16 13 -10 -13 -13 17 -3 -14 -1 -9 -2 15 -3 -11 1 -12 -18 0 9 -20 -5 19 11 -12 4 18 17 19 -13 6 18 -17 -9 -12 -10 -10 17 8 -4 -4 11 7 -17 -12 8 4 -12 10 16 18 2 -17 9 -7 -17 -7 -9 -20 -15 -9 -1 -17 -6 2 -17 5 13 12 -15 -19 -20 16 8 -17 17 -4 -1 -15 18 -13 15 
1 -10 5 14 -7 10 18 -14 15 -19 5 18 -5 -13 -19 12 12 13 9 14 13 6 2 8 3 19 19 0 17 -14 -12 -10 -4 13 -15 2 -5 15 8 -9 8 -15 -19 15 -16 15 8 17 0 -11 11 -14 15 -15 6 -10 -16 6 11 14 12 11 -16 -19 4 -19 3 11 8 -17 -18 -12 -20 16 -16 -16 3 4 -19 -17 13 4 -11 1 10 16 11 6 2 -6 -8 -14 -15 -11 -13 1 -18 2 -7 3 -3 -13 11 -3 -17 15 2 6 -1 -5 2 -7 12 11 14 2 -1 -3 -20 13 12 -15 12 9 -6 11 -9 -12 -6 4 11 3 11 3 -19 7 -2 -5 -15 10 10 7 15 -6 -9 1 8 2 18 9 -12 2 6 -20 -8 -20 11 3 -12 17 19 12 1 2 -5 2 -11 5 9 -13 -13 -1 6 -18 6 9 3 -6 -8 -6 -17 -8 16 9 -8 -12 1 15 3 2 13 2 -6 -6 -15 1 8 -14 18 -3 
-7 -14 8 -20 -20 -6 7 -4 9 13 9 4 -15 9 -12 -14 14 -1 -14 2 -19 18 13 -12 -16 17 0 4 -14 -9 14 -2 -11 -7 -10 -11 0 12 5 -11 -2 -5 5 4 14 10 14 1 -15 14 11 -19 -1 4 -16 -5 2 4 19 7 7 4 17 16 16 21 -16 -3 10 3 -2 -13 11 16 2 5 -1 -14 -14 2 15 8 7 -7 7 3 9 16 19 0 -5 7 -16 -8 3 13 -17 1 -9 8 -15 1 5 18 -3 -13 -7 17 -16 -1 -1 -19 -12 18 -14 2 1 9 -1 1 -13 14 -6 -17 19 3 9 -18 -15 -24 10 -10 -7 -6 19 11 -7 -9 0 -1 10 19 -9 10 20 -2 -7 -8 -15 12 12 -15 -2 14 -20 7 -4 9 7 3 2 -12 3 7 2 1 -2 10 15 18 -13 -6 9 -2 -16 -1 18 -3 11 14 -19 -5 11 8 -12 3 -15 -11 -15 5 12 -2 14 -8 -15 -12 7 3 16 -12 
-55 13 -6 -18 -7 0 1 -18 8 -9 8 10 5 -7 -10 92 15 -2 16 15 10 5 6 6 9 -4 6 -13 19 -4 -3 -16 -8 10 -20 -2 -18 2 -7 1 8 -20 -8 -11 -22 23 11 10 4 3 3 -4 17 14 16 6 -19 5 5 12 16 13 16 -13 1 19 -5 1 32 8 -19 13 0 -11 14 5 16 3 -13 -10 8 4 0 12 2 -4 -11 0 14 17 -7 9 11 -15 6 -13 -26 -17 2 -12 2 -7 -19 16 -7 15 -6 -21 -18 2 -18 -13 -11 -6 21 9 11 -10 -20 5 17 -10 -8 -1 -7 15 -2 -13 9 -20 -3 -14 -13 -2 -17 8 -14 -2 -5 -4 18 -10 1 -16 7 -6 2 2 4 -1 18 -8 -58 -20 15 12 12 -3 19 3 -11 -4 0 -19 7 5 13 16 17 -17 -10 3 0 5 -2 -13 -19 -18 -4 -4 -10 -9 9 8 0 -1 1 -10 8 1 13 19 8 -6 -11 -12 12 14 -19 8 
187 -7 -134 8 -21 46 -3 12 32 18 17 27 12 5 4 195 23 29 21 -40 -9 -24 6 52 18 -13 -11 12 1 -5 -13 -20 6 -13 113 7 -44 7 45 -7 8 13 21 10 -40 24 -8 24 162 13 -4 21 -1 1 16 18 -24 -39 22 20 11 10 29 -7 23 -21 -10 28 -37 -1 7 7 -9 -11 13 81 241 -25 19 -1 -26 -751 19 25 28 12 10 10 14 3 10 -12 8 10 -2 6 -35 13 33 25 -39 21 21 2 -8 -5 20 13 -597 -25 -6 91 129 14 64 3 -11 32 119 -5 15 2 24 9 -7 -4 -62 14 -22 0 30 124 19 13 -65 7 23 123 7 0 6 -3 65 10 -5 22 84 -16 -4 -7 5 8 -299 21 19 1 -799 54 -127 -3 11 57 7 -70 16 -16 -7 88 14 2 -12 -7 27 67 18 128 50 16 -8 -42 9 -2 -39 -5 23 76 21 87 21 5 0 21 -1 28 26 -6 13 -6 -7 73 
622 50 -75 67 35 -112 50 38 204 70 24 148 -245 21 53 773 15 -164 43 -69 49 -19 23 0 44 55 52 35 61 -79 21 44 -164 8 325 142 -134 5 -86 56 45 35 114 111 59 -31 26 45 377 52 39 29 58 20 55 76 -27 -274 32 23 -190 50 30 43 24 232 -43 98 -25 33 53 -2 18 174 -95 238 -352 -136 75 25 78 -1522 -81 39 37 252 97 -30 90 68 102 -547 24 71 0 24 282 66 396 -42 -84 97 -14 66 78 -52 51 116 -756 180 12 289 213 137 -10 -56 60 17 -123 11 60 -98 52 45 44 25 22 28 -47 45 73 408 105 46 156 6 99 70 -395 54 -308 -12 25 24 26 43 105 -4 43 24 25 132 -100 211 59 52 -1803 154 -280 64 35 43 61 632 26 0 -12 287 159 47 -249 -235 38 118 861 325 370 217 15 -16 71 53 -127 -10 3 -742 105 -53 -58 75 51 58 70 -46 48 38 29 34 42 84 
317 -64 -395 40 -86 -126 -91 93 23 -9 5 372 -114 31 -11 2418 16 -115 -6 178 -22 37 127 -69 54 25 8 -17 270 -165 -102 36 -154 9 567 -15 -143 -92 20 -30 -40 203 295 56 62 272 56 395 1218 -97 41 -38 52 -62 68 -615 -128 -393 -46 -200 -149 -119 66 176 -268 355 250 32 471 -2 -14 107 27 292 -78 311 -194 -344 63 -255 87 -2727 -102 -1 -207 613 47 -115 34 54 33 -410 -70 227 6 10 330 -187 755 234 -106 158 -52 -28 -87 93 -142 -31 -1302 221 17 427 619 117 145 -2 -37 -295 -94 -293 -58 -70 -11 -155 -14 407 4 14 -11 -14 100 775 -69 41 119 -125 174 79 -318 38 -117 -22 12 -49 -120 -77 426 -46 -102 31 -15 149 -418 326 -159 27 -2211 -79 -30 44 -24 160 -12 311 -47 67 -30 155 17 28 -122 -61 52 273 796 472 752 459 11 -18 58 18 -141 -13 -50 -1171 194 -716 -26 82 447 73 12 80 54 56 -142 64 -33 -21 
-459 -192 -801 193 -1315 -469 -42 75 689 -49 16 457 66 -37 -105 5005 -55 -221 37 946 -177 72 215 -97 69 -252 8 24 192 -152 -418 40 -467 2 886 -549 -195 90 -105 -139 -81 127 297 -94 10 957 59 552 1704 -701 58 -75 45 -120 -89 -763 -362 -537 14 -344 -571 -121 145 32 -416 -128 486 7 1131 -129 16 72 83 380 -253 583 -1580 -763 84 -353 19 -4772 -46 26 -524 1344 -127 -172 61 142 39 -1120 -94 144 -48 -79 831 -583 717 2582 -78 323 -25 -46 -143 412 -188 214 -2228 205 -9 1842 1326 159 654 141 9 28 437 -832 -7 47 360 -465 13 688 10 54 9 -75 141 1301 -181 -35 485 -212 206 613 -57 -32 82 39 57 -143 -528 -139 248 -290 -259 20 -181 250 -975 1294 -631 -30 -3083 -179 -400 10 -17 684 10 569 -50 285 -73 1083 -418 21 -353 611 -121 431 428 764 1094 912 -20 -81 285 -115 -205 7 -492 -1843 907 -156 -31 -904 366 -72 65 439 -38 102 -453 50 -223 175 
410 -289 904 439 -3196 -698 -179 283 582 -172 -103 462 160 -19 -423 9454 -12 -144 55 139 -740 19 -78 -112 310 -741 -34 121 44 536 -621 -399 -619 4 1386 -588 -186 22 -571 -455 -41 -274 783 -241 207 2505 74 -7 842 -1169 40 -304 192 -54 74 -1392 -267 -527 -235 -190 -726 -321 -36 39 -582 -371 442 -515 1073 333 40 -158 -33 385 -445 175 -2418 -848 37 -499 -32 -6936 114 266 -623 2122 -557 -97 231 -353 -127 -2544 -226 157 -291 37 2505 -607 -8 4064 -121 128 -559 -330 -48 107 -652 -403 -4324 392 -206 2732 2158 28 893 180 -199 110 404 -889 -195 114 -475 -296 139 1170 -256 83 379 -386 90 1107 713 -157 339 -645 339 391 -949 -53 157 130 228 -409 -375 -339 594 -1026 -331 73 -345 -193 -3917 1301 -553 -218 -4558 159 -70 -178 -113 948 1130 1059 2 336 -66 1316 -179 26 -583 1905 -134 1285 556 188 2399 2447 11 -311 35 -107 -518 -148 -170 -2711 1461 -1222 396 -1293 250 51 26 173 -161 34 -99 21 -256 392 
1134 -262 2352 481 -3460 -1031 394 431 1213 -208 -271 430 -108 -268 -943 9941 233 275 190 -1850 -852 56 210 -295 303 -1164 -243 283 -202 1174 -740 -584 -64 145 2548 -985 74 375 -180 -663 -174 -902 971 -496 310 2076 167 -63 1027 -1658 -186 -436 213 169 348 -2122 -478 -319 -297 321 28 -308 -290 -87 -954 -658 468 -477 2120 481 83 755 -353 441 24 -538 1461 -754 -6 -987 41 -9167 226 274 -1190 1547 -601 -137 -476 -46 -136 -2759 -447 419 -472 -200 2845 -159 254 3995 244 170 -1424 -471 -118 -320 -989 398 -7392 1036 -329 2128 2965 -138 2745 223 -304 307 624 -1250 -328 527 -1235 -463 -87 1252 -251 -207 278 -1159 195 1296 940 -49 -65 -841 410 -132 -1224 -142 157 30 225 -657 -444 -414 303 -1693 -160 161 -395 50 -9531 223 -734 -365 -7950 412 644 -213 -293 1702 1774 711 -71 36 127 528 -235 -158 -233 2892 -80 2491 578 -444 3168 3084 138 -877 612 -499 -511 0 -317 -3048 509 -1067 377 -1041 807 172 -52 627 -104 -665 -107 218 -245 -225 
1240 -459 257 394 -2394 -1175 357 824 3172 -148 -769 130 -315 -246 -1386 11639 27 593 334 332 -362 13 359 -72 93 -2042 -331 394 -389 2184 -928 39 351 -138 2251 -926 -162 569 542 -973 -409 -1112 908 -123 121 2126 94 41 1939 -1513 -279 -1182 217 201 545 -1778 -364 -131 -218 376 485 -706 -672 -334 -1774 43 737 -139 3657 1247 218 540 -518 847 662 -429 4078 -841 84 -1986 -352 -15298 24 207 -1865 1409 -975 -51 -431 225 -13 -2527 -838 663 -498 -393 2897 152 1878 4374 430 201 -1333 -508 -16 -183 -1127 860 -11882 1056 -86 4264 2743 -319 4529 230 -188 603 1015 -1693 -361 455 -1244 -1161 -226 2250 -30 -300 -331 -1331 76 1384 227 -115 112 -700 477 -296 -794 -379 269 -298 -26 -899 -764 -167 246 -1121 -153 274 -159 -115 -15637 -357 -508 -1106 -12901 657 1139 -525 -75 2118 1489 506 -297 -305 189 731 -634 -365 108 4411 -66 4315 158 331 3923 4558 503 -565 1335 -228 781 -29 -948 -4962 373 1643 113 -2287 2979 103 238 736 93 -1416 -167 129 -300 576 
193 86 1941 -241 -1518 -1849 -838 1034 2473 -175 -943 216 -794 -26 -1377 6946 -610 205 78 -154 -369 -104 48 779 -150 -2353 -221 221 -1319 1687 -454 -391 165 -85 1999 595 -621 -108 367 -898 -935 -1543 1122 83 94 469 -305 -643 3357 267 -472 -2498 80 15 -152 -1462 169 -538 -143 114 397 -639 170 -523 -4200 1081 297 -631 3295 827 334 -141 -399 1537 -34 -333 4850 -1480 27 -2137 -34 -14900 -732 226 -545 1729 -1062 -32 -706 -248 -137 -1905 -701 329 -474 -899 1469 535 1847 4059 -1023 736 -2197 -624 -108 121 -1396 292 -10739 -502 -379 6052 3229 240 5230 716 -179 769 601 481 -711 520 1055 372 -425 2172 -176 -618 -1116 -1810 -160 2400 -392 -506 -327 -919 236 -1035 -332 -210 -53 -339 358 -315 -1045 -264 -196 -1066 -308 -204 -276 -454 -16568 42 365 -1383 -9008 242 1793 333 -28 2855 1286 1421 -633 -372 -280 1843 -1293 -516 -497 2147 -758 4005 -581 3159 4473 3240 126 579 307 -382 2618 -310 -793 -6135 79 3613 90 -4278 5850 -80 292 -6 96 -2985 -192 -280 -728 619 
1100 129 2288 -164 -2836 -3302 -1030 1184 3247 -254 -1428 282 -516 222 -1155 3234 -851 -94 -704 -2660 -457 6 -1570 946 -124 -2590 182 -177 -137 1413 700 -506 -169 -298 1991 1970 -552 -102 37 -883 -600 -1912 1646 -197 -120 -220 -892 -693 4090 2332 -740 -2473 336 -6 -237 -1892 975 -1026 -223 133 604 -847 757 -616 -6554 2341 -835 199 1337 137 489 -308 -261 1350 -1304 184 5555 -1644 81 -3550 -558 -7392 -1561 -49 1154 1153 -594 302 -219 -1134 54 -2528 -960 2 113 -1124 -1168 828 3479 1179 -367 70 -3016 -959 -151 -810 -1945 -981 -5174 -852 -106 5946 3832 223 4933 791 -345 117 3285 2511 -612 952 2551 1782 -1207 1642 -276 -1009 -2045 -2829 -205 2727 -1720 -1121 -271 -966 108 -1299 -353 78 128 -471 386 244 -495 -827 1130 -2037 -470 -255 -1249 237 -20397 727 1484 -1048 -5415 49 1474 701 495 1180 952 2465 -641 -409 -406 1462 -1632 -262 -760 1252 -984 4759 -1185 2513 5160 2543 66 1139 -511 177 3558 -264 -285 -8134 401 5828 -208 -4302 8450 213 491 362 208 -3873 -482 -706 -736 687 
4600 77 401 -864 -3927 -3735 -1069 1394 3107 -353 -1639 51 -322 475 -1341 3458 -413 -236 -2279 2466 -579 -481 -3378 507 -447 -1645 139 -378 -11 634 1037 -1097 -192 -497 337 1527 -1615 -387 -381 -242 -1234 -2051 1580 -428 -336 2464 -962 -703 1631 2622 -832 -1811 286 154 -912 -4583 730 -2582 -546 -319 632 -955 678 -354 -6773 698 -445 871 2551 797 7 761 -404 341 -1600 -1164 6904 -2116 -346 -3694 -1265 -1142 -1796 -386 954 553 -163 -447 -507 -992 -602 -4123 -1181 -557 -360 -772 -2614 1568 3487 2253 -271 -789 -715 -1680 -176 -1012 -2405 -1807 -2160 -1378 -427 7418 3257 -241 3822 343 -652 752 3409 2386 -692 887 4329 1163 422 2168 -673 -1443 -2872 -1877 -772 1017 -1877 -1667 -922 -513 610 -819 -1132 -463 -308 -324 28 -69 -40 -978 54 -2956 -381 -239 -1022 -330 -23582 455 664 -1134 -1121 -924 992 -269 -176 1834 -607 1206 -682 440 -573 456 -1729 -540 -621 513 -1184 7370 -1328 2736 4911 5140 206 292 -1079 -623 2644 -407 -570 -9774 -725 9093 247 -5460 9431 -305 238 1851 245 -3981 -950 -1003 -821 677 
3859 575 -1510 -497 -3694 -3858 1087 351 5688 -640 -1671 -43 -635 689 377 1078 -970 289 -2431 1200 -274 -647 -3663 1036 -574 -1436 157 -559 -113 103 2114 -678 -843 -808 1231 1710 -2406 -178 693 6 -1022 -2622 785 786 26 3328 -554 -28 778 3183 -1590 -1289 333 -1097 -563 -5309 862 -1709 -354 14 68 -920 -254 40 -5781 151 -541 2111 3446 216 4 -370 -28 497 -2076 -865 3364 -2306 -63 -5271 -1175 2284 -1280 -809 1597 582 237 -408 -613 -432 152 -5324 -467 1521 -351 -416 -120 789 3115 4580 -499 -751 -721 -885 231 -1152 -2023 1634 1658 -546 -966 5897 4191 -30 4246 -289 -41 2521 5437 1321 -564 334 3979 664 1862 596 -109 -1390 -3420 -1839 -923 234 -2113 -1399 -573 -1423 551 -1164 -571 -449 -468 -66 89 -86 782 -915 199 -2521 -434 -336 -805 850 -26986 932 45 -1470 678 -36 676 -57 -275 2932 -842 1265 -615 -42 -1348 967 -395 -1170 -991 -152 -1333 6163 -1588 2578 4696 5435 407 -81 -905 -377 1549 -244 -633 -11183 -390 7207 -487 -5166 6030 -315 277 -375 39 -3489 52 -1168 -376 290 
2374 456 334 -518 -1615 -3857 1886 73 4402 -920 -75 -502 270 1390 1890 -2835 -1598 285 -2418 -1602 -757 -424 -3250 641 -343 68 -544 -1130 -428 548 2672 -559 119 -1206 202 683 -1752 -807 -1273 504 1103 -911 81 306 -773 2957 599 1244 -1292 1991 -2903 -411 285 -1630 -344 -4697 -205 -1139 -271 72 222 -1111 -44 410 -3777 -10 -151 472 544 -713 -128 -917 -173 545 -1153 -1776 1310 -1808 -105 -5340 -854 7902 -559 -1272 3150 -578 -69 -495 -1075 -65 -11 -3203 469 2021 -1112 -876 414 1161 -524 5712 -582 -686 -1030 -339 -205 -384 -1626 2812 2533 -1228 -896 2673 2145 -419 1230 254 -361 2120 4440 307 -616 575 1232 490 -340 -512 -306 -1033 -3352 -1663 -846 -1580 -2043 -1992 -789 -1696 -169 -1804 -185 -1040 338 -222 -183 187 1965 -774 -951 -1943 -669 -1 -618 -122 -19443 1149 -574 -1127 2481 -83 1564 157 -254 3335 -828 479 141 -474 -1296 1091 920 -993 -319 -858 215 2594 -1354 1148 2330 3597 369 -2 -469 -760 3434 -78 -1129 -7154 -107 3640 -866 -3155 -838 -627 -540 -1363 178 -607 1439 -1487 646 -761 
-349 562 -2114 -493 -597 -4733 4307 67 719 -591 -1483 -251 -162 583 4239 2478 -25 1052 -2075 2387 -971 -634 -1178 1234 -39 -1537 -929 -487 -87 -746 2311 -103 56 -1258 -305 -255 -232 -1444 -1216 -183 2305 -1172 487 -249 -835 4669 442 1966 -2607 347 -3379 -1525 491 -1282 -595 -6324 -705 -1479 -980 -193 -856 -360 1062 -878 -1341 1152 128 -949 188 -299 -208 226 -363 297 -1042 -865 -1238 -2691 -556 -2479 -464 -2001 464 -1966 3617 452 -130 -538 -1041 204 -383 -2182 404 714 -406 -1807 -938 484 -1338 2355 -644 -625 839 744 -287 88 -1723 1626 -3340 -1375 -1085 3330 4057 -910 1700 169 -345 1881 6157 -217 46 607 1129 -838 -1379 -1237 -517 585 -1779 -589 -81 -3356 -1655 -1484 530 -278 -186 -1825 -101 -1194 -79 -225 -836 349 1854 -49 -827 1801 -976 -271 -170 -1089 -13685 1181 -407 -423 -131 -566 2181 119 214 3047 -836 622 -647 -993 -748 4471 1432 -495 -116 901 1467 2531 70 1566 314 2984 429 -549 -1044 458 2175 9 -404 -3020 -152 172 -17 3138 -3072 -322 -525 -139 605 2854 2035 -1109 -425 296 
1764 1115 -128 169 -1739 -4021 4274 -61 326 -980 -1029 -683 278 -1300 3681 9996 852 1152 -1160 7173 -670 -68 -14 1459 -111 -1077 -623 -426 1156 -1835 868 -304 1518 -994 -452 -420 225 -1003 -443 -579 727 491 299 112 -1356 2987 689 881 -3854 -1407 -2216 -1367 332 -925 -385 -4821 -631 -418 -550 -44 -964 192 580 -1016 2009 1405 387 -2111 -2186 -1195 -509 -1029 -214 650 -600 -579 -5965 -3543 -330 -2371 -1282 4149 376 -1419 1178 270 -841 -716 -1673 256 -936 -3150 -636 -86 70 -773 -337 -640 -2098 -816 -742 -298 194 748 -719 701 -2153 1773 -2464 -331 -219 114 4160 -440 979 -205 -396 1139 3838 -2137 -550 586 762 -887 -2443 -1698 -241 510 -211 2072 143 -3424 -1302 -1049 1586 238 15 -1711 -207 -1174 289 -379 -594 283 511 175 -1697 3706 -1005 57 -187 -846 -12859 1805 -346 -550 -2245 -1978 3483 310 836 2446 -861 163 -632 -838 -937 2802 375 -478 310 781 899 896 -274 2923 -1001 -50 442 -993 -142 -289 3212 -204 171 -3655 -748 415 131 4305 -2698 -167 -545 -1975 461 2522 1376 -522 -776 142 
4272 1179 -1184 -118 -246 -2310 2425 -731 -1071 -1059 347 -875 734 -2997 930 11656 2679 626 -752 9440 -282 -127 1343 714 -544 38 -432 -777 1951 -2917 -110 -297 2426 -1068 -1085 -21 -199 -1126 155 -1176 -153 1119 264 -294 -506 1235 1298 263 -2629 -1177 -1675 -2463 279 -503 -1072 -3753 -141 1928 -254 665 27 530 -219 -500 5013 580 240 -1808 -2937 -331 -238 -1183 -380 698 178 -1491 -7454 -39 -294 -1813 -1080 5448 -1016 18 -1363 -544 -1490 -1061 -1602 -318 -763 -322 -508 -184 567 398 -1961 -747 -1946 -2707 -1512 -754 1448 405 -1033 801 -2970 869 -698 -8 -726 -1190 4260 -30 879 215 8 505 1912 -2016 -1001 623 -1409 -890 -586 -1496 -71 674 1328 4165 348 -2858 -2243 -317 2129 931 -67 -1362 -51 -968 490 -203 -238 177 -1022 482 -985 4573 -708 169 74 -1287 -15315 923 -706 -320 -2667 -1602 3357 -260 -214 1337 -1355 1627 -1071 -626 -751 3280 -586 -222 449 2017 119 189 266 -349 -1468 -2087 1057 -780 108 -835 5040 -161 112 -3421 -818 -894 47 6661 -1559 -140 -492 -2583 356 1625 558 593 -1116 -141 
4766 -150 -4251 86 1080 -1796 521 -540 -2274 -1594 848 -123 622 -2842 -447 16004 1929 236 45 9960 -302 -176 3638 162 -799 -461 -192 -278 -782 -2810 -1002 -947 2410 -1331 -1678 115 -990 -833 -84 -1083 1230 834 19 -514 -716 909 886 1285 -2029 -628 -1189 -3264 -181 -698 -1127 -3576 2 2217 -669 275 -674 422 -1570 44 8599 -818 237 -1836 -1202 263 -129 -756 -850 -596 264 -2181 -3917 -1450 -458 -2023 -1215 -3828 -2817 238 -1567 -1089 -957 -1238 -772 -492 -812 1455 -652 -371 683 246 -1456 -456 -1350 -3014 -943 -1079 2062 -75 -1416 1215 -1664 11 -2503 -3 -1223 -2486 2118 -383 149 222 43 -180 1026 -1139 -796 564 -1327 -522 1002 -543 -331 1185 1989 3398 423 -2296 -1543 440 1167 567 -380 -886 -557 -467 498 -330 -701 187 -979 307 -1303 4332 -211 299 313 -1382 -5303 437 -701 -274 -5125 -903 1983 -892 -588 1267 -1774 1811 -1082 176 -469 457 392 -623 -130 2250 479 -367 203 -1468 -2051 -2035 868 -924 183 -1457 4673 -674 -217 -398 -534 -1835 -65 7737 -960 303 -828 -2333 364 1846 -144 1324 -1399 -104 
3149 -582 -2383 209 1829 -1868 -1634 -449 -1569 -1376 373 -121 415 -1324 -1250 10648 1092 -319 622 7502 -186 -108 3979 -393 -805 -27 -421 21 -1860 -2568 -163 -783 3106 -473 -2395 93 -1170 -175 -952 -99 2316 845 -701 -570 -63 -334 264 583 -1760 -141 -536 -3891 -255 -849 -768 -2713 167 2153 -392 468 -1131 878 -1568 2 9784 -2003 -25 -1699 -321 214 -200 -1064 -1058 -344 230 -1241 -666 -2730 -517 -2295 -841 -3211 -3055 -13 -1168 -1611 -856 -676 -270 -473 -551 2049 234 -754 698 294 -1063 -91 -1063 -2459 -712 -1574 1521 579 -677 601 54 50 -2670 -490 -802 -3471 -1996 -305 -1655 -343 -39 -7 -1969 -592 -249 -233 -615 -206 1573 65 -290 1535 3333 1998 599 -1400 -670 807 613 311 -731 -1373 -606 344 238 139 -513 176 -255 601 -710 3643 164 300 94 -1160 2020 -548 109 360 -6567 -1326 2363 -342 -167 -1109 -1052 32 -940 900 -250 -1537 1610 -229 -402 -467 1629 -788 659 -2012 -2401 -1688 487 -501 445 -778 3392 -443 -732 1918 -785 -613 646 10143 -1232 677 -572 -1600 -467 2350 -426 1758 -1137 -195 
2186 -518 297 52 2707 -1485 -1761 -325 -796 -662 1131 -46 425 203 127 4576 -159 -265 721 1129 -715 -67 1554 -579 -448 62 -97 157 -403 -1029 -93 -741 3174 -648 -1351 -366 -1709 -89 -378 412 1717 1275 -1108 268 -354 -980 309 258 -1710 -687 -762 -2499 -265 -396 -433 -460 255 2940 -202 -291 -824 630 -836 167 5595 -2437 -135 -1747 -345 -126 -237 -1739 -691 -173 277 -864 2197 -2362 -231 -1669 -696 -5733 -1561 14 -560 -2051 -409 -621 -379 -337 -317 2534 754 -980 1042 207 130 -45 -1419 -1139 -489 -1121 -223 460 -488 142 377 -407 -5378 -139 -658 -3336 -1750 -302 -2075 -57 316 -440 -2063 -290 -871 -49 -819 63 827 -186 -62 1352 2641 765 -7 -1154 -338 1128 749 120 -216 -786 -553 300 156 19 -120 181 146 100 -791 1741 75 247 25 -913 7712 -393 746 592 -6896 -628 2454 180 35 -809 -754 944 -482 700 6 -2058 1203 -173 -614 -1477 1402 -656 952 -1836 -1679 -1285 601 -711 755 -366 3132 -58 -258 2568 -795 -3254 469 7607 -695 364 -360 -1883 -633 1970 -175 1134 -533 444 
1316 -192 897 -266 859 -434 -968 -68 -197 -1084 460 140 185 -44 52 775 -745 24 304 -1341 -358 34 -145 -275 -401 325 -13 96 -7 21 -22 -248 2756 -368 -880 -189 -2491 -282 -697 -160 575 1085 -596 -70 -108 -1657 160 102 -724 -242 -619 -1221 -96 -6 -440 903 160 1960 -119 -472 853 -166 88 140 2424 -963 117 -786 -376 -287 -86 -1902 -267 224 -378 -368 1407 -1380 -95 -222 -515 -3217 -1474 -80 -418 -951 -357 -547 -623 48 -78 1457 411 -624 122 22 1700 177 -434 -706 -319 -815 -1432 398 -772 -395 -647 -255 -2908 -49 -974 -1619 -239 -384 -1012 359 238 -670 -697 -335 -528 238 -548 127 -16 91 -7 458 494 -120 -31 -454 -167 480 275 -141 90 122 -31 66 80 -44 43 -200 22 -366 -584 12 61 183 74 -661 3426 -424 271 499 -6134 -395 3229 47 36 293 -1082 1595 -15 119 165 -308 338 -451 14 -1580 337 -859 -179 -1252 -358 -1335 392 25 -235 -155 4517 -49 -80 1396 -330 -204 73 2469 -661 163 -64 -342 -183 310 -232 254 440 135 
1149 276 847 -356 596 78 -97 61 76 -1046 69 105 182 -575 -516 -1485 -646 59 233 -1911 -387 20 341 -305 -4 -26 -36 152 -24 462 -146 -117 1574 -177 -212 87 -1088 -506 -6 -78 -807 1263 -96 -381 -92 -1761 -59 -64 -41 37 -369 -42 -176 378 162 986 50 1261 -58 -439 804 -369 143 100 1748 -444 111 -15 -197 -447 -87 -1216 -217 78 290 -70 1011 172 116 312 -32 -1707 -500 -92 -370 215 185 -799 -177 157 7 347 234 -280 560 511 2070 167 -155 -329 21 -212 -878 253 -108 -131 -1091 -287 -3903 -135 -574 -979 -227 -193 546 177 179 -691 -961 -297 -152 201 -27 -25 76 -93 38 -575 -332 -535 -387 -214 68 302 -201 -281 141 -7 151 -54 84 -45 14 -16 -203 -537 -348 -716 206 85 123 -278 4481 -596 -46 311 -4568 0 3787 286 61 221 -791 1453 29 -68 156 -988 -444 -369 119 -878 -259 -280 -108 -806 -46 -1379 471 -11 -485 -210 2998 -149 -156 1324 -41 1895 -55 886 -647 -170 -151 -226 11 -1177 -205 -563 540 -138 
