--- Layer 1 Weights (W1) [784x200] ---
-19 7 -6 0 -11 -16 18 18 -18 4 5 5 -19 7 -19 -9 15 2 7 16 11 -16 2 13 -8 2 1 16 18 -5 -13 -14 -9 -2 9 12 7 -1 15 -6 3 -9 -18 -7 13 4 1 11 -7 8 7 -16 2 17 17 -1 -17 1 -11 -2 16 15 10 -18 -12 6 -20 2 4 -12 -14 -15 -10 -11 -10 10 -14 1 13 8 9 3 -16 14 16 -20 -14 -4 -9 8 4 19 6 -17 -3 -2 18 -18 -11 1 13 15 19 -2 4 -10 -3 6 13 6 1 5 -16 12 10 9 -3 -7 -3 12 6 -10 -19 16 15 -13 -5 -6 11 -8 10 10 1 -16 -14 10 7 11 -13 -3 -3 -13 13 3 5 9 -11 18 1 8 2 6 6 10 -7 -12 0 11 -18 -5 -10 19 4 -3 8 -17 15 -19 -18 10 -9 16 -6 0 16 1 8 19 8 -16 -19 -6 -7 19 -2 -2 0 8 -13 7 -12 -7 -12 -17 -13 1 10 -3 -7 14 
9 -4 -5 -9 -20 -11 19 16 18 3 4 -12 -16 -11 9 2 15 -15 -7 3 -17 7 14 3 -12 -20 -2 -2 0 16 18 -19 9 18 -11 17 12 2 -2 -8 18 -1 10 -3 18 11 -5 -12 16 11 -18 14 12 -5 -12 -14 -18 -14 15 13 9 2 -16 -4 -19 18 -18 -9 1 -1 17 16 -8 9 15 12 -20 10 -17 9 1 -12 -19 9 -5 3 -18 5 2 -15 -12 6 -3 17 12 -8 -11 14 -19 9 -4 -11 -12 -8 5 15 14 9 -19 12 5 0 18 13 -1 3 19 16 -13 -11 9 17 6 9 13 15 -3 -4 -14 5 -12 -18 -5 -6 14 1 16 11 6 3 13 15 5 -7 12 -12 12 5 13 16 -19 18 -14 2 -19 4 16 2 -11 -19 -5 -10 -7 6 -16 -1 -8 19 -7 4 14 10 5 -11 6 13 14 2 -12 -2 7 5 18 11 -18 5 17 -6 14 4 -6 14 -8 19 13 10 -13 -3 18 -3 
-7 10 -17 8 12 5 2 -20 -7 7 -18 -1 -13 5 3 -16 3 -8 1 1 -17 12 5 13 -15 11 -8 2 2 -14 4 0 7 -20 -7 -6 10 -10 15 13 11 -20 -4 7 -15 10 0 -6 -5 4 -1 -15 -4 -6 -2 2 -9 6 18 13 -9 -16 -2 4 19 12 -20 -13 0 -14 -10 17 -10 15 -4 7 -17 18 -16 9 -18 -14 -15 -13 -3 14 5 7 9 -12 3 -20 2 -18 -17 16 -3 1 15 -15 4 0 -18 16 10 -14 -9 -9 -9 7 13 -20 10 -16 8 -17 0 -9 2 9 0 13 18 -2 -15 -13 17 -20 -2 19 3 -20 17 -16 17 8 13 -13 -19 -10 0 8 13 4 -15 0 11 4 15 16 12 10 3 -15 16 -4 6 17 -14 17 -3 11 9 -19 -4 2 -3 12 17 -4 5 -19 3 -11 9 -15 19 -8 -4 -5 -7 -18 4 -6 -6 -8 -3 -11 -8 -17 -13 -17 11 15 7 -12 15 -2 3 2 
14 11 1 -5 -1 5 1 10 6 -6 -15 3 -10 18 19 1 13 -6 17 -6 16 13 -4 5 -18 8 -19 0 -7 -19 -5 -5 2 2 -9 17 4 18 12 -17 -4 13 -20 13 15 12 -2 -10 -3 -8 12 -5 -11 11 -20 -12 -15 -10 -3 9 10 5 13 14 -9 0 -16 -2 -5 19 12 -15 4 1 3 9 -5 -12 -8 17 9 16 -19 7 7 1 -11 -20 -7 -6 -19 17 -5 -17 -7 12 4 -19 12 19 10 8 7 -16 15 6 -2 -10 -13 -13 -16 3 1 3 6 -17 -10 -9 -11 -20 -16 2 -1 13 11 4 -2 12 10 -15 -5 -1 3 2 -2 -13 4 -12 -9 4 13 15 5 12 6 18 -11 2 19 5 -11 4 5 0 -15 8 18 10 -19 -17 -8 12 12 -13 -10 -17 1 3 3 -13 -20 -11 -5 -15 8 3 7 -12 3 17 -11 3 -11 -19 8 2 -12 0 1 18 14 -12 6 -10 9 -17 10 0 8 7 
-4 3 15 6 5 18 -7 9 4 8 -17 19 -3 -14 4 15 18 -14 -9 5 15 -19 9 -4 4 15 -16 2 15 13 2 16 8 12 6 -14 -7 9 -16 5 6 -8 -5 -7 -15 16 -4 1 -6 14 -4 -8 -4 18 -18 15 -5 -9 10 -19 5 -9 17 6 -10 -10 2 14 -7 13 -4 -8 -12 2 13 -6 3 14 3 -4 8 -16 17 -7 9 8 -20 -20 18 -2 -10 15 -19 4 3 16 -17 9 2 -19 -11 8 -18 -7 14 0 -18 -17 11 -11 18 -1 -12 -1 -9 -17 5 1 4 12 -15 13 -2 9 -18 -2 17 -10 1 14 8 -19 19 -7 15 9 -3 9 -2 0 -9 4 17 -5 15 -5 -10 19 -8 -12 -18 14 -15 10 -16 -6 0 -5 11 1 15 19 10 -2 13 8 -3 -8 16 -11 13 -12 1 10 -17 -17 8 4 -2 -20 11 -15 -6 11 -7 7 13 -5 -12 5 16 9 -10 18 9 -7 -14 -20 16 -11 
7 -12 19 4 1 -15 6 -4 16 -14 6 -13 -19 -16 0 -14 1 2 -19 4 9 -5 2 13 -16 1 5 -18 3 -9 -14 8 18 -18 7 7 -19 -8 -4 10 14 -11 -16 16 -10 -7 16 12 -6 5 8 -12 -9 12 -9 14 19 18 -18 4 15 -8 9 19 18 3 18 6 -1 -2 -14 16 2 13 18 2 6 12 17 -15 -13 -2 -18 -13 -2 10 -8 -20 18 19 12 -12 -18 0 15 -5 -18 -13 -4 17 -2 -3 8 -9 -4 10 -11 -15 -2 9 -20 0 -20 7 -18 -5 15 12 -19 14 18 6 14 6 8 -11 18 3 15 15 -19 15 -5 -12 14 -10 5 4 17 -18 -19 -16 9 9 -10 -17 10 -7 -15 10 -3 -4 -3 18 13 16 14 -16 11 9 -5 5 -3 -16 -3 3 4 -10 -12 -12 -19 -15 12 -7 -8 14 16 6 16 -8 -11 -20 -6 -1 3 -9 1 -11 -1 -15 -15 5 -4 -10 -5 -11 4 -14 -7 14 
9 0 -5 -7 9 -19 -8 -12 18 11 8 6 10 2 -6 -1 10 12 2 11 -5 -16 14 -16 2 -5 0 14 -8 1 -18 7 -3 9 -15 15 14 10 3 14 -19 -8 12 19 8 12 -18 -13 -12 -5 8 3 19 14 -16 -14 19 18 5 -14 -14 0 -13 -8 7 -8 16 -6 -13 1 -17 2 -9 -4 3 8 -17 2 -2 -4 0 11 2 -4 -10 -15 -16 -14 17 -11 -17 -6 17 8 8 11 16 3 8 -13 6 11 -3 -8 3 7 -12 5 8 5 18 17 -17 13 1 -10 -12 11 -10 9 12 -6 9 -19 5 7 13 13 14 12 -8 10 1 -18 -3 17 -10 2 -16 1 10 3 17 3 -1 15 -11 -13 -18 10 2 -2 -14 -13 10 -12 -9 -2 -7 0 3 -14 2 -10 12 -12 14 -19 18 3 7 5 -2 -19 -3 10 -6 18 -2 1 3 16 -13 18 -11 15 -15 15 6 6 13 -20 -10 -12 -12 -8 13 -20 -14 -5 
-10 19 17 -8 2 -12 12 -11 -16 14 -12 -8 -13 12 -5 -12 4 -3 -17 -11 -5 -19 9 0 -8 -12 -17 -9 14 13 -9 -20 -6 10 -3 19 0 -2 -9 4 0 -13 -1 -15 -17 -2 -8 13 -8 -9 -20 14 -20 -3 5 -11 0 -15 11 12 -10 9 -2 -1 -9 17 13 13 0 -3 6 16 10 2 -2 19 -2 -11 19 -11 -16 12 0 -12 -13 -12 17 3 -10 -13 16 14 -18 -9 -1 -19 -4 -10 -17 -17 16 -8 -8 1 14 -7 2 16 0 -5 4 19 -4 -20 18 12 7 4 -20 17 -14 10 -19 -18 -11 -17 18 5 1 -5 -4 16 18 -2 -1 -2 -3 10 -13 -11 -19 15 18 16 13 -1 4 -15 -7 -12 -8 -17 -11 14 -12 -5 11 -7 -18 8 -9 6 4 -14 -3 17 9 16 14 11 9 12 6 -7 -9 -5 9 -3 -20 -8 16 11 -13 6 -18 15 3 14 0 -3 5 5 13 1 -2 18 18 0 -9 7 
-15 -10 -5 -11 10 9 -7 5 -6 -18 -13 12 -4 -13 -18 -18 -10 -19 11 7 5 19 -19 -2 11 -13 -12 -14 16 19 9 2 6 -14 -5 8 -6 0 -7 -3 8 3 1 11 -18 -5 17 6 12 1 -4 -19 1 -5 7 -16 18 -5 -4 -6 -1 18 14 -7 -18 15 -17 -12 13 12 7 -20 -14 18 -10 -19 -19 19 -5 -17 16 -7 -19 -15 13 14 10 13 1 -13 -1 10 -17 5 -8 -11 1 12 16 1 -13 -10 11 -15 -8 12 9 -20 -15 11 -2 -7 -14 -2 8 -14 -9 -14 16 -3 0 -6 -11 8 9 4 -11 -2 -3 -5 6 -16 -12 6 -12 -3 18 10 19 5 -14 19 0 10 11 -7 -5 -15 18 0 -9 7 7 -16 6 7 -20 7 14 11 12 11 8 -7 -15 -3 11 -16 17 -14 -12 2 -7 -20 2 -3 18 8 15 -11 -13 1 -7 4 7 -19 -7 -3 1 -18 -13 5 13 4 -16 -5 -15 1 -16 1 
12 6 -4 3 13 -20 -20 8 -9 13 -12 -9 -4 19 -12 -20 -9 -7 -1 3 -1 -7 -4 -5 -15 14 -20 15 -20 -4 -5 -15 11 -12 19 16 -18 12 5 -20 -5 -18 -15 -18 -20 16 17 -18 8 -20 0 16 -2 -7 0 6 14 -7 -3 -20 -5 12 -20 7 15 6 1 8 -19 -12 15 16 5 -11 -8 -4 -5 -18 -17 2 1 -18 12 -12 -2 -12 17 14 -10 -10 -5 19 -11 -5 3 -20 -1 19 5 11 1 -19 -8 13 13 9 7 -18 -7 -17 0 -6 18 -16 3 9 -8 4 -11 10 -15 -13 14 -13 -14 16 -17 0 19 10 8 10 11 5 1 10 3 9 15 -2 -1 -14 2 -5 -13 16 13 -12 -5 -1 13 10 -18 -15 -19 5 -13 -13 9 -6 11 -3 18 5 17 -2 18 -16 -8 -17 8 4 -19 -17 -10 -16 -19 7 17 -8 -9 -17 1 -17 -19 -15 1 -15 -10 -5 1 2 -8 11 -5 -5 13 -2 19 -18 
-12 -6 2 7 -15 -2 4 -10 -1 14 -16 3 5 18 -16 1 -10 -7 3 14 -10 -14 7 -15 -15 -4 10 -11 -2 -17 -5 -3 -11 10 4 8 -3 14 -20 -8 -7 -5 -6 -19 -4 -14 4 15 2 19 1 12 -16 -1 19 -17 7 16 -15 18 -3 8 19 -3 -3 -9 16 15 0 1 13 12 -4 0 15 7 4 14 19 10 16 -19 11 -11 -10 -6 12 11 9 7 -10 19 -7 -7 3 -19 3 -15 -4 19 -5 -1 8 18 -17 19 15 1 13 6 -18 18 8 1 19 -2 -9 3 3 14 -17 9 2 7 2 1 -13 6 -9 17 -7 -20 -4 -10 -18 -5 -14 -10 17 2 0 9 5 14 3 -18 15 -14 -20 18 8 -9 -15 7 5 7 9 2 3 7 2 -3 -1 3 6 -17 -12 -9 -10 16 -2 -13 -4 -15 -9 -18 -1 -5 16 -9 -5 -16 11 -17 8 15 -10 19 12 11 3 -7 -5 -18 -11 0 14 18 5 -3 
-7 -7 -10 3 10 13 -18 11 -9 10 -2 -19 -2 -13 12 -2 19 2 -17 10 -18 -12 2 -5 -5 -12 -19 2 14 -1 8 -2 -18 17 1 -13 9 5 0 13 -16 10 1 5 13 4 2 3 2 9 14 -11 12 14 9 -10 -16 -16 -11 18 5 -17 12 -7 10 -9 7 11 9 18 -2 3 12 19 -7 -17 -18 -12 -17 14 -10 2 -20 11 -8 -9 0 17 -4 16 -2 0 -5 8 18 -1 15 -3 -17 2 2 2 0 -10 2 13 -19 -14 -12 17 17 -8 -2 7 9 5 9 -8 -1 -19 -17 -10 8 11 9 12 10 -8 4 -13 -5 8 -19 -10 -10 -3 11 16 -1 -17 -20 13 17 -7 10 14 13 2 -17 1 -10 2 7 17 11 3 -10 17 -20 3 -14 -17 1 -1 -15 6 -9 -15 -19 -20 -11 -3 -17 -10 -2 1 -5 1 7 11 -13 19 4 -1 -2 0 -10 1 18 -15 0 8 -1 2 18 -20 -2 -5 -19 -6 
-13 -7 16 -19 6 -2 10 -2 16 15 17 -9 -20 12 18 13 -5 5 -14 -19 14 19 13 8 13 12 13 -7 -3 3 -10 -9 -6 8 7 -2 9 -12 19 -13 9 -9 9 15 18 -11 16 19 -17 -17 -9 14 1 14 5 -13 -4 13 4 6 13 8 3 -16 12 7 -12 9 -10 -9 -6 -10 7 3 -16 19 14 15 6 18 9 -2 -11 -11 -13 -20 -2 -16 -5 6 -11 3 6 -8 -20 -10 16 15 -19 6 -9 9 7 -17 -15 10 -10 -14 15 1 -12 2 17 2 4 -15 12 12 -15 8 -14 -11 18 -17 -15 5 0 -15 -2 1 -5 -20 -13 -7 -6 -9 15 -4 -6 -19 -3 10 -6 10 16 11 -20 -5 5 -18 5 18 -7 12 17 18 5 -18 17 -8 -1 -13 6 3 11 15 19 -2 9 -15 14 19 -15 12 15 2 12 -7 -20 18 -3 2 -12 -17 17 -15 -6 -19 18 2 -11 -4 18 -1 -2 -19 6 3 17 -5 
-16 1 0 -19 2 -18 -12 -5 -16 -4 -3 7 13 -16 4 -1 1 -2 -17 8 17 19 -3 -19 -9 4 3 15 12 -11 -19 15 -5 -4 17 19 0 -8 -7 -19 9 -12 7 18 4 -16 14 -7 -15 18 -10 2 9 -16 9 18 -17 -15 -20 4 13 5 -8 -15 -13 -13 17 4 4 10 14 -9 1 -15 -6 10 2 18 -14 -2 1 4 17 -4 -6 9 8 -13 -7 8 -14 2 18 -20 -1 18 -10 4 -1 16 -12 12 18 -6 7 19 14 0 7 14 8 -19 18 -18 -18 -19 4 6 -4 9 13 8 -19 -7 -14 -16 5 2 -18 0 -19 0 3 -2 7 13 3 11 -6 -5 -4 -19 -8 -9 19 -9 -2 -10 -16 7 -13 4 11 1 -11 18 -19 10 -7 -8 -5 0 -7 12 -18 16 3 -7 6 -9 15 -12 -8 -19 9 3 -11 7 -8 -9 13 12 -10 19 12 -13 -6 5 -20 3 2 -11 -13 18 -20 11 -9 -6 7 14 
-17 9 -11 -14 -13 16 12 10 -1 6 -18 -17 -20 13 5 -9 -1 6 -13 9 -18 17 -15 16 8 -8 14 6 13 -20 19 11 -2 7 -4 -2 14 -20 -7 -13 9 -4 -18 -18 -13 3 0 7 13 10 17 -17 -4 14 6 17 -6 0 -9 12 -16 14 6 -7 4 -5 -20 -8 0 11 16 -1 3 17 9 -19 5 12 14 4 -19 -17 4 6 -12 8 17 10 -17 4 14 6 17 1 18 -9 -8 11 12 -17 1 11 1 -10 -2 -11 -9 -20 -1 17 17 14 15 -19 -4 7 8 -7 9 -7 1 3 -11 -4 -17 -13 5 -18 10 17 -19 -13 10 6 -13 -9 17 -15 -16 18 11 -13 15 12 11 -3 -15 -7 -9 0 0 -10 15 -20 10 -3 18 6 -16 -11 11 4 8 -10 18 19 -1 -13 -11 19 19 16 0 16 -7 -2 10 13 -14 -11 -6 12 -20 -6 -6 -7 6 9 11 8 19 -19 1 -12 -14 13 -15 10 -11 1 
0 -12 2 -18 6 18 -1 -3 -13 -2 9 3 0 15 6 13 9 17 17 -6 -7 -5 -2 13 -17 -7 6 11 0 -6 -3 -6 12 -3 11 -5 -3 -8 -8 17 -10 -7 -4 10 9 8 -11 6 4 -20 2 -11 -20 13 -8 -18 -6 -13 -13 14 5 13 -9 13 -7 4 -17 15 -18 1 6 9 -12 -12 4 11 14 15 -13 13 -20 2 -13 -3 -3 0 2 0 -20 18 16 14 -5 10 11 -5 -3 3 -18 -13 9 -9 -9 14 -20 -7 -7 -19 5 -12 -17 -20 15 11 10 -8 -5 11 -20 -6 -20 6 14 -12 -1 -15 16 12 2 -8 -9 7 4 17 -12 16 -10 -10 2 1 -7 -1 -8 -16 -9 15 -16 -10 6 6 -2 -19 3 -17 -19 0 -5 18 -1 -17 8 -11 -12 -6 -7 -1 -11 6 19 -3 17 -18 15 -8 -17 12 -12 -17 13 8 15 17 8 8 -9 13 5 1 -18 -10 8 -4 5 -15 3 -11 15 -7 -15 -16 
18 5 -20 13 -15 0 -12 14 13 -15 8 -19 12 -4 10 12 2 1 6 15 0 11 -13 -3 3 -12 13 15 -9 -17 2 -9 19 14 12 13 -10 -19 14 -2 -14 6 11 -17 8 7 19 -16 4 -7 15 4 -6 2 7 7 -15 6 -14 9 0 17 -10 19 -2 16 17 -17 -18 0 -9 5 3 15 -4 -5 -16 -14 -12 -19 -5 -2 -15 13 3 12 -2 -3 16 -1 -14 -6 -14 -17 -18 11 -20 -5 18 -13 10 10 13 -13 -7 -6 -4 12 -10 -19 -19 -14 -15 -7 4 -11 -5 -17 14 13 7 7 -20 19 -19 -15 -6 0 -20 7 1 -8 -7 17 17 -17 3 -7 19 -9 -15 8 -2 8 -10 -8 -16 -6 3 13 16 7 6 6 1 4 18 -9 -14 -15 -1 -4 -12 7 11 -1 11 -14 17 -14 -7 7 1 12 7 -1 -16 -3 -19 -12 2 4 -12 -12 -19 -4 2 -20 -16 18 5 -1 4 -6 4 -1 9 -6 -5 3 
12 -9 -3 -6 -17 -9 -1 -10 17 -17 18 4 -8 6 9 -12 -3 17 4 -12 7 8 13 2 11 9 -7 17 -6 4 -16 3 -5 -9 -7 -8 18 10 -1 -10 -7 14 9 -6 14 -7 9 -2 5 13 18 11 -8 3 8 9 -12 -15 11 -20 6 11 -12 1 -2 17 -13 2 18 -18 -17 6 6 9 16 5 11 -17 18 10 -3 16 11 -14 10 -7 -9 -20 -16 3 1 -15 -2 9 5 14 5 7 4 -16 16 17 7 15 2 -14 8 -2 -1 -9 -11 18 -10 -5 -10 -8 -11 -4 10 12 -18 -11 12 16 17 13 -4 10 -15 -8 11 17 11 -19 15 -7 12 16 16 -12 11 -15 18 -4 -1 4 -4 6 2 18 8 1 6 8 -3 8 -1 7 9 -20 -15 -12 2 6 19 17 -9 -13 5 11 -14 -16 14 -11 9 16 1 5 5 -4 0 -3 -5 10 17 -11 -15 -14 8 15 3 -3 -10 -13 15 -18 -7 -20 14 -11 
-12 -5 -12 10 0 19 17 7 -6 4 17 -15 -1 12 -7 -8 -18 3 11 -11 -3 13 -20 4 -17 -3 -12 10 -12 8 -19 -8 17 -16 -1 1 9 3 -4 -8 -20 -13 -8 -10 0 15 3 -5 -3 17 -6 -6 13 -7 18 -14 4 -6 15 9 12 4 4 12 4 2 -5 13 2 13 -16 -20 -18 -7 17 2 10 -3 17 -14 -9 17 5 16 17 19 -10 -2 5 -13 -16 12 -15 16 -5 8 -2 2 8 15 2 17 6 -13 -7 13 5 6 -11 -16 -6 5 19 -14 -11 -8 -1 -5 16 1 -13 -2 -7 -13 12 -4 9 -19 -10 -10 14 15 -14 -17 6 4 -4 17 -4 -7 9 -9 -16 -3 -15 -20 10 -15 -15 18 8 -14 -11 -12 1 5 -4 0 16 10 4 7 -12 -4 -16 0 -17 -16 -9 -20 -10 4 -17 -14 1 10 -15 6 -12 -4 7 6 -3 18 19 14 15 11 10 12 -2 16 17 -10 -13 7 14 -14 2 -18 
19 6 -5 6 14 10 6 19 -4 2 19 1 -8 16 -16 17 -10 18 12 4 -19 0 -20 -17 -4 1 -13 -1 -12 -10 -8 -1 -2 -1 -13 -16 7 -3 15 -7 9 -9 -18 -1 -4 1 1 14 -11 18 16 9 -3 4 18 -18 5 18 12 5 16 -19 -1 3 -13 -9 13 2 0 -4 -12 19 9 13 -1 -9 11 -17 -16 18 -8 4 19 1 -6 -7 -1 14 -11 15 -18 1 -4 -3 -8 -15 -9 -2 10 -13 -5 7 4 2 19 -19 -12 -16 14 -12 -19 12 8 -6 -4 -3 13 -19 5 -2 -5 -6 -8 -14 16 -16 -14 1 4 -20 -6 -4 16 7 -15 -2 -9 -19 5 11 11 -1 0 -3 -4 3 4 4 5 17 2 6 15 -14 12 9 -14 5 -17 12 1 -14 13 4 -11 10 -15 6 5 -10 -4 15 13 -17 -8 -4 -4 -10 -4 -8 10 -10 15 -8 10 15 16 -19 -20 4 -11 -6 -10 -18 -14 -4 4 10 -3 2 
6 16 8 5 1 -10 -10 2 1 13 18 14 13 -5 -20 18 -13 0 5 -17 5 -4 13 10 12 9 19 3 -3 -11 13 19 -7 -20 -8 5 1 11 18 -17 -7 7 14 16 -3 -9 9 4 -14 -9 2 -2 -18 15 7 -3 18 4 -18 10 6 5 0 -15 6 0 -3 -18 4 14 4 10 15 -20 -14 6 2 -4 13 -9 7 -5 -15 -5 14 -12 19 19 8 -19 12 17 17 9 -8 11 -2 -18 -1 17 19 -1 -20 -20 16 4 12 15 13 -15 1 19 -13 -12 -16 -11 -19 19 8 -13 -1 6 -11 15 6 -16 -13 -6 -16 -12 6 5 -19 14 9 -12 -2 7 13 4 5 -3 -3 15 -19 3 -7 -3 19 -4 15 13 14 -10 -8 4 19 -12 10 14 12 -4 1 -5 -14 11 -20 -5 0 14 -2 -3 10 18 1 -13 -18 -2 10 11 1 -1 1 10 13 12 -17 2 2 -12 -19 -2 -13 5 -14 2 -14 14 -3 -16 
-17 7 -20 -15 4 -17 -3 -7 -12 -10 -5 6 -2 12 -4 18 -19 2 16 6 2 -16 3 10 12 -10 15 11 -10 15 -12 -20 1 3 18 -8 -12 4 -15 7 2 3 -2 -1 11 -4 -8 12 -19 -17 -12 -5 -4 16 -2 19 -17 -15 17 6 -11 15 17 7 0 10 -18 -5 9 -7 -20 13 -3 6 1 5 -18 5 -1 -15 13 -5 -5 -17 6 -4 -12 -15 12 -19 0 2 16 -12 19 16 12 5 18 18 -4 6 -9 -4 7 -19 -18 -15 2 -16 -1 -8 -3 -10 -20 -6 19 -20 -2 11 -20 10 11 7 13 15 -4 -1 -5 10 -4 -4 12 3 -14 -13 15 2 -5 -14 -4 6 17 18 6 -16 -15 5 8 0 -20 -6 14 -8 12 -2 6 -15 10 -11 -1 19 13 18 17 1 5 11 -11 19 8 -15 -18 13 -19 -10 7 -7 8 8 15 9 6 -11 3 -9 1 -1 11 -8 14 -14 8 -10 -12 19 -5 -10 -16 -4 
18 -14 7 13 -17 -9 -13 13 1 -7 -6 2 7 -3 3 13 -14 15 -5 -7 -14 -10 -1 5 -4 13 3 -8 19 19 -14 13 5 5 -9 -16 7 11 -13 -1 19 16 15 12 -8 13 -3 10 19 17 -14 -11 5 -14 -1 -1 13 15 8 1 8 9 -4 -9 -2 14 15 -17 14 16 4 11 5 -18 -9 -3 -5 -6 18 3 -2 -5 -18 3 11 3 12 0 10 -20 -12 5 2 -2 -2 17 -19 -20 8 -4 13 -8 -8 2 7 -20 18 14 7 -6 3 -16 4 14 6 10 5 -5 -17 7 12 11 -1 -20 18 -12 8 -20 19 -9 -14 7 -12 -14 5 19 18 0 15 14 -4 7 16 -6 -20 11 -12 18 -6 9 -16 -4 -6 -10 9 -8 -1 1 2 -16 -17 -1 -11 7 17 6 -4 7 -11 3 -1 14 -5 -16 16 9 -2 16 -2 12 -14 -3 15 8 -4 -12 2 14 -7 15 -4 -4 2 -4 -16 -11 -18 4 12 -11 
16 6 2 -18 -5 -4 5 12 19 15 -3 -16 14 -17 4 19 2 -19 -7 -7 17 13 13 0 -5 14 5 1 2 -12 15 6 -20 -9 8 -11 12 -3 13 -12 -6 -18 16 -3 -4 -17 -10 12 -11 -7 -1 -1 -18 2 -18 -11 -6 -11 -6 18 14 6 3 -6 -8 8 -7 3 7 18 -7 17 -5 -1 1 4 -1 -19 7 -4 12 -15 12 -8 8 16 -9 -5 15 9 16 -8 16 18 9 0 -4 -16 -20 -14 -14 3 -15 -6 -9 8 -2 4 4 17 13 2 -16 3 -8 5 -9 -18 -16 9 -5 10 6 -12 -5 -16 1 9 1 -1 2 -17 -8 -8 12 -1 -19 -13 -15 -10 -11 19 8 -1 8 0 11 -2 -20 -4 8 -16 5 -15 -10 -2 -4 0 -5 4 6 12 19 13 -18 -15 -4 -7 5 7 -8 18 -15 4 18 19 12 8 -4 18 -2 18 -15 -1 -11 4 -18 -11 -11 18 7 18 3 1 -17 10 6 6 -17 -16 
0 -12 3 7 16 -14 10 5 12 -20 -3 -7 6 8 17 -1 4 -12 0 18 5 7 12 -6 -8 -11 -18 -10 -9 15 -10 11 4 10 -20 5 -13 14 7 -3 -15 2 -12 13 -5 -1 17 8 9 -14 10 -11 -20 -19 19 -19 6 0 -9 -6 -7 4 17 19 -4 9 10 -3 -15 -15 -6 -11 -6 12 10 19 -3 13 -7 17 -3 -20 5 13 11 -18 -4 -6 12 -6 -4 -10 13 5 -8 7 -19 1 4 -1 -14 -15 19 18 7 8 14 -10 12 19 0 -5 -2 12 16 2 9 16 -1 18 3 19 -5 17 10 11 2 0 17 -14 -5 -14 -17 -8 18 15 -15 8 18 -20 1 9 -16 5 6 17 -3 -19 -2 13 -4 13 -7 -12 13 -5 9 -4 1 -19 -1 4 -17 -1 -9 -11 -18 -14 -10 -13 -20 -11 3 8 7 -17 -20 18 -14 -2 3 -20 -14 18 -15 3 9 -2 16 10 -5 16 -17 8 -1 6 10 15 9 19 
1 17 5 -6 18 -2 14 11 1 17 0 12 15 -4 18 18 0 -15 -7 -16 -7 -13 -15 6 10 -4 -19 -10 9 8 17 19 15 -7 -3 11 -9 -3 13 -9 -4 -11 -9 -16 2 7 -20 -12 16 14 19 17 -20 1 3 1 -9 9 -1 -1 -5 -1 -17 -15 -14 -19 4 -17 9 -5 4 -5 5 -10 -17 17 12 12 -16 -7 0 -5 8 10 -17 10 16 -15 14 0 -2 18 -16 -12 11 7 17 -12 10 -1 0 10 10 -8 -20 4 15 -16 -18 11 6 8 -16 6 16 -14 12 8 18 5 -8 7 -14 -1 -8 -9 -4 10 -3 6 -10 10 5 -15 8 14 -6 -17 9 -4 -17 -4 -2 -6 1 1 -5 -5 -6 2 -1 -18 4 0 -5 -3 -4 0 4 4 -3 -5 -15 9 -9 8 14 4 6 15 11 -10 -16 -1 -1 15 18 -13 -15 -6 18 16 0 12 -14 2 17 13 11 15 9 5 9 -12 19 -13 14 -10 -12 -6 
17 12 -10 -2 8 -4 10 -18 3 19 1 -7 -13 9 13 13 11 12 -5 6 -18 -20 -4 -19 17 7 -20 -15 -14 -19 2 2 -14 -9 10 -5 15 3 -17 -9 12 -5 -3 -8 -19 7 -19 12 -18 8 10 9 4 -1 13 11 14 -19 4 3 -20 4 8 17 -7 -18 -2 -18 13 -11 -2 -5 -10 18 3 15 1 -15 18 -17 -13 -19 6 -10 -11 0 -5 -17 -9 14 2 0 11 -5 -11 10 14 2 -4 -10 -5 -8 14 2 -7 8 -5 -20 5 -17 2 -1 -13 3 7 4 9 8 8 18 -20 19 7 -7 0 -13 -14 11 2 4 2 -12 16 13 9 -12 3 5 -9 10 19 -14 -18 -5 4 18 5 3 1 -3 10 -12 -10 -6 -4 -11 -14 18 15 12 12 2 1 7 -12 5 -11 -1 -18 9 6 -1 -5 0 6 12 -15 2 -17 -19 -4 1 10 12 12 -19 -10 13 -15 -15 -20 -10 -12 -10 1 16 -16 14 19 -10 
9 12 15 11 4 10 2 1 15 11 6 -17 10 18 -8 -5 6 -6 -8 -16 5 -8 1 1 -5 -10 -15 -9 -13 2 3 7 13 -10 19 8 14 -16 9 -5 0 5 11 12 4 10 -4 0 -19 19 9 -17 7 0 5 -4 0 -12 -5 -13 -11 -9 -20 2 16 -1 10 19 -15 19 -11 1 11 -16 -13 -15 1 -17 -11 -12 -16 -17 -16 -6 -10 -9 17 -16 11 7 5 -20 -1 15 8 1 12 7 -20 -1 6 17 -12 -12 -16 -12 -15 1 -7 -5 -19 14 7 -18 14 16 -6 -2 -19 4 -12 6 16 -4 0 9 -3 9 9 -17 -16 1 4 -20 7 -4 -8 2 -12 -14 12 13 18 -1 3 7 3 17 -4 14 1 -7 -20 3 12 0 -8 13 4 13 -3 5 -8 -20 -13 -14 -10 8 -14 8 19 4 3 -11 13 -17 10 -20 7 -10 -13 -18 13 7 3 -19 -15 19 -9 18 -19 18 3 18 18 -2 4 -3 -8 1 
-18 16 7 0 -2 3 14 -19 -1 12 2 -9 -9 13 -15 -19 -9 -20 -2 11 -18 -6 -16 -5 0 15 15 -17 -10 -12 -1 -10 -3 -8 8 -10 -5 -1 -12 9 -9 -9 -5 3 17 -11 -20 -13 -6 -16 -3 -8 -19 4 -4 -18 -3 11 -9 -8 -15 -2 -15 8 14 -14 -2 5 -12 -15 9 -3 12 -19 19 -13 -8 13 15 2 -13 9 -4 -5 2 8 3 -5 -13 13 -15 9 -3 -11 -9 -10 -7 -12 -8 -2 16 1 -5 6 -11 -9 18 -1 12 -11 18 18 -6 -8 -12 -4 -9 7 3 11 -6 -1 7 -15 19 8 1 -15 15 -8 -8 16 7 -17 -13 -1 -6 -13 -8 14 -11 13 -3 -6 -8 11 -11 -14 -13 -1 -11 14 16 -8 7 17 3 -9 -18 9 7 -19 12 -4 -14 3 17 14 12 2 5 16 4 -19 15 3 12 3 -18 -11 -18 9 17 19 15 -1 -6 -8 19 10 -8 5 -7 11 -11 10 -16 -3 5 19 
10 -12 8 -18 8 5 -6 4 -9 -16 17 15 9 -19 14 19 -10 6 0 7 13 1 -19 -2 6 10 3 1 -14 -2 14 -9 5 2 -14 0 -6 13 -20 6 -1 -5 -4 13 -5 12 -2 5 -10 -4 -15 6 -16 12 -18 -5 5 -14 -19 -7 6 -20 13 10 11 -6 3 -3 0 -11 -18 -15 -18 2 8 -6 12 -12 15 18 -18 17 12 12 -20 3 19 -19 -10 11 5 4 14 -15 19 19 -18 6 19 -10 13 5 16 -12 -12 -1 5 -4 -11 -9 -6 2 -10 -3 18 17 18 -9 -12 3 -7 5 1 7 2 -5 -19 -5 -2 12 -6 10 -2 -19 -15 -17 -17 -15 18 -5 -3 19 -1 12 14 -16 11 6 9 -18 16 -2 15 -8 10 -19 -8 -12 -18 9 17 6 8 18 -3 -2 -5 4 -15 -1 1 0 -20 -14 -19 8 7 11 7 11 10 17 17 -11 -17 -4 0 3 -6 -6 -11 6 -15 19 -12 -10 -7 -2 -4 -16 
-7 11 -16 3 11 2 -10 7 -16 -12 14 -1 3 9 -3 1 -15 17 3 12 8 15 9 17 -11 3 7 5 10 -9 -11 -2 -16 -4 -8 11 -7 -11 0 17 2 -12 0 19 -18 -20 -11 -6 -18 0 -14 6 -16 -14 11 3 6 14 -15 8 9 7 14 4 -19 -14 17 -15 14 10 12 13 3 12 12 -17 19 -12 9 -17 -11 7 15 -15 12 19 -5 -12 19 -13 10 14 -19 0 -17 18 -8 -3 3 12 3 -15 -14 -20 -3 2 19 -14 16 -16 -8 17 15 -1 16 -10 -13 -14 1 -5 -20 12 -15 7 -2 -16 -9 9 2 5 -18 -11 -17 10 2 -18 16 0 -11 12 15 -9 -4 15 -6 17 14 -11 -18 -9 -11 17 1 16 -16 13 -19 17 15 -15 -15 2 9 -20 18 13 19 9 2 4 -6 -18 15 -5 3 -14 -8 -12 -16 -19 12 -14 6 -11 11 -16 13 14 16 18 -16 -7 8 4 -3 -16 -4 -6 6 16 
13 8 10 16 1 11 6 9 0 15 8 -9 -19 11 5 8 -7 -6 9 10 18 11 -1 -7 -12 -13 -6 17 -10 17 -4 -7 9 2 -4 9 -12 -1 5 -19 -13 -20 -20 -13 1 2 -14 9 4 -17 -20 2 -8 12 -17 3 -17 -9 0 -8 -17 10 19 -11 12 -4 -15 -14 16 -17 -16 -2 8 18 -2 -17 -15 -9 13 17 3 7 14 -10 -4 -19 -1 4 16 -8 14 13 0 -19 3 -5 8 13 17 -6 -3 11 -18 3 -1 0 -12 -18 -12 -14 -10 7 -2 11 6 5 -19 14 -10 15 7 -1 -10 15 -17 19 14 -12 4 13 -12 18 -20 -13 -16 13 -7 -8 -10 -2 -14 4 -4 -11 -3 17 -3 -1 12 15 5 -14 -3 -14 14 15 -10 -14 2 15 -7 -4 -14 18 -4 -17 14 19 -19 -15 14 -16 4 3 9 16 17 -6 -13 6 -17 -16 12 -19 9 -5 -1 -4 -19 11 8 13 6 10 -14 9 -10 -1 -16 6 
19 3 -14 11 -7 16 3 10 17 15 -8 7 9 -15 3 -7 11 16 9 15 18 -17 8 -3 11 -9 14 -17 -15 -13 -10 -19 -13 -2 -4 15 1 -4 19 19 -19 -9 12 -11 15 3 10 14 -4 3 12 8 -1 5 10 0 8 11 -12 5 -3 -20 -16 17 14 3 -6 -18 5 14 0 2 14 9 14 6 3 -12 8 19 11 19 -17 -18 -20 -4 -10 -2 -2 -10 13 11 2 -16 -11 -15 -5 -8 -11 -2 12 -11 -20 0 -14 7 -16 2 -4 13 14 -7 16 -9 11 -6 -9 -18 19 -18 -4 0 9 8 9 -15 -18 -10 -13 14 -20 -1 -18 -5 13 5 -12 -8 -16 -14 18 -17 -19 7 -12 17 -8 -5 10 18 -5 -7 10 -14 -9 -11 -15 -19 -13 -16 -20 13 9 10 -12 -17 -20 8 1 4 -17 14 -18 16 -6 6 5 -16 -2 2 -20 -1 -12 -18 1 -6 0 -14 2 14 12 -10 16 6 -14 -18 -3 1 1 9 
-13 2 5 -19 -17 10 8 -11 -2 4 -19 6 6 7 -9 -10 -8 18 13 13 -19 2 16 -7 -9 15 -16 5 -7 -16 4 17 -7 4 -7 -8 -19 4 -10 -3 -12 -11 -3 0 -17 1 3 16 -9 0 -12 -7 -7 11 -7 -8 -9 -6 19 -4 -8 14 -11 -8 12 1 -11 -10 0 -11 -5 -18 -15 11 -3 -9 -17 -19 -14 5 -17 -10 13 4 -18 -16 13 -4 2 5 19 13 -13 -14 3 -11 11 10 15 8 1 -1 0 15 4 -2 -2 4 -2 3 18 -3 15 10 2 15 -20 1 5 12 -16 -14 -8 -16 -15 5 -16 9 14 -11 -8 -11 16 9 -19 -7 -10 6 -8 -17 13 19 -20 15 7 -10 9 9 -20 -19 17 9 -17 -16 1 5 -5 13 -6 19 -3 -5 -16 -2 11 3 -14 3 -3 11 -5 -9 11 -10 -8 -5 0 1 -20 -13 13 14 -7 11 1 -2 7 19 0 -5 9 12 1 12 -10 3 4 -3 -10 -10 
11 -2 -17 -19 1 18 -2 3 -7 -5 9 12 8 3 4 -15 -11 -10 -14 2 -16 15 -1 -12 -15 1 -12 -13 -14 7 -5 9 -16 13 11 0 5 -16 6 -20 18 11 1 -3 4 4 -5 4 12 -1 10 -13 19 -6 -13 10 5 16 -16 -1 -18 -15 15 -19 2 1 -16 -7 -7 -8 -9 9 4 19 3 5 -15 10 6 11 -3 -7 -9 6 2 10 4 6 -2 2 19 6 -2 11 19 -14 3 19 -2 7 5 3 10 0 5 -6 1 13 15 -13 13 7 8 4 -8 18 -20 -16 11 -14 -5 8 13 17 12 -19 -1 7 11 2 -19 11 -8 -9 -17 -15 16 0 1 5 -17 0 8 15 13 -8 -18 16 17 -11 -8 19 -4 1 -18 -9 0 0 18 -20 0 5 -11 -12 1 -18 14 13 10 -18 -20 -20 -16 1 -1 -4 5 13 9 7 -6 8 19 4 10 -12 -3 17 -15 -14 -10 3 -12 -10 -11 4 19 -17 15 4 
-3 18 -14 11 -6 7 -7 -11 7 -20 -15 -16 14 16 -5 18 4 -13 -12 7 15 12 1 17 7 -4 -1 -16 19 -7 1 -19 -16 -11 -5 -15 -10 -8 -17 19 -4 19 -2 18 -19 -17 -14 0 10 -11 -15 -16 18 7 4 9 -1 -2 -7 18 -5 -18 -19 -15 3 -9 6 7 3 -10 -15 -18 2 11 15 -10 -8 -4 -18 -12 13 -14 -3 4 -5 -7 7 17 -2 -2 4 10 3 5 -12 -1 -17 1 -3 -20 9 -17 -17 5 -13 13 6 4 -11 14 0 -10 19 17 8 -4 -15 12 2 -7 -5 3 7 -1 1 -10 -5 0 19 -7 6 -15 -15 -11 16 1 -1 -1 1 -13 15 -1 -16 7 15 -20 -7 -8 -20 -17 -12 18 15 -11 4 10 -17 17 -3 19 15 9 10 6 18 7 6 9 -20 19 1 -13 19 -2 5 -1 -10 -6 10 15 12 -15 -2 -20 17 4 9 3 4 -10 1 1 4 7 1 10 -4 4 -17 -2 
-20 -9 -10 14 -5 3 -15 -11 -6 12 17 10 18 12 -7 -10 1 -8 15 17 -15 -19 -2 -15 -7 -19 -14 -10 8 14 -12 7 15 -3 15 -15 -10 -18 -6 18 10 -16 -1 -15 14 -9 2 -16 7 9 -10 12 12 14 -3 -3 -10 1 7 1 -3 -12 5 -19 -5 -13 14 -17 -3 -8 9 -18 -18 15 12 -5 -10 -6 -20 -12 -12 -16 14 13 -17 -15 -18 2 -20 5 -10 4 3 -18 -14 8 18 11 -15 6 -18 -17 -2 -1 -9 1 15 16 -12 -19 -2 7 -9 19 -1 12 10 14 1 2 18 0 0 14 -14 -20 10 -17 19 -12 -15 14 -5 4 -16 8 -20 -1 18 9 7 0 -1 -12 -16 19 -8 0 -12 -10 -3 13 0 2 5 0 -13 -10 -18 -13 -1 -10 -10 16 4 -9 -15 -9 -18 -1 -13 -10 16 3 16 -7 16 17 -14 -14 13 -17 12 -6 -2 11 -3 1 -11 -20 6 -13 -19 -7 -17 -12 -9 17 -1 -19 
3 10 11 -2 13 -10 -7 14 6 -13 13 2 5 -6 -12 2 -3 19 -17 -14 -15 14 -14 -16 -19 -11 -2 17 6 0 11 -7 5 -15 -14 18 16 18 2 4 -14 -5 -7 -17 -11 -16 -2 -11 12 10 -19 -5 5 -11 -6 17 15 10 9 0 1 14 -19 3 12 19 8 -14 -7 -11 19 -5 -19 -9 -10 17 -4 -1 2 2 4 16 -11 3 12 -17 14 -9 -12 0 1 16 -2 9 5 -3 6 -17 -12 12 -9 -16 -5 -6 -10 9 11 1 18 -15 15 -15 4 13 0 19 -13 -3 -11 1 11 -1 -2 -6 7 19 2 5 -11 -1 -16 -13 -14 -12 -13 -6 -11 16 2 -17 16 -3 -9 -12 -12 1 13 -6 -12 -16 8 8 5 -16 -16 -19 -20 11 -18 11 0 2 10 5 10 -9 -20 18 -13 -20 -15 2 5 -6 -8 -16 12 -11 -2 -15 6 6 -9 -20 -16 1 6 -14 -5 -7 -9 -16 16 -8 19 11 16 -13 -13 -13 
7 -20 -15 -13 17 10 3 -17 -3 -17 1 15 1 17 18 -20 14 11 9 -7 -10 -12 -10 -12 12 1 10 -4 3 -2 -5 4 9 -6 1 -15 -12 -20 8 -15 -2 1 -9 5 -19 16 -8 9 -9 7 10 -15 4 -18 -13 6 -12 12 17 9 -5 18 11 -2 -7 -3 19 13 15 8 -17 -10 -1 -15 16 19 3 18 19 18 1 -13 -17 -14 -2 6 13 -18 16 -20 -2 17 0 14 18 1 8 -19 13 -2 17 -2 -1 5 1 9 -4 16 19 -15 -15 -8 -2 1 16 -18 -13 -12 -2 -10 -15 -10 19 -11 -13 -7 -7 -4 5 3 8 13 19 -18 -14 6 -5 -1 11 4 19 -12 -13 -6 14 -8 7 2 -13 -8 -20 19 -2 11 6 12 12 -3 -16 8 -7 -11 -12 -6 -4 8 6 18 -3 5 -12 17 5 -13 1 17 -17 7 10 9 6 19 -8 -8 0 11 16 -9 -15 -15 -1 -4 -6 -4 17 12 -4 -12 -4 9 
-8 18 8 4 -16 -10 -13 -11 19 8 -6 1 -19 -5 -14 -13 13 -18 0 -2 -12 -11 13 1 3 16 -9 -20 11 -5 12 2 2 -10 -16 -8 -3 -19 8 13 -7 -6 -1 -14 -17 -7 2 12 16 5 -8 -8 4 -15 -4 -18 -7 18 5 17 18 11 -19 -10 -10 0 -7 -13 19 16 17 18 18 -3 1 5 12 13 -9 -4 6 14 -18 -19 9 -3 2 -12 -18 8 12 -4 0 -3 9 4 1 18 6 -19 10 7 -2 19 5 1 8 -6 -19 16 -6 -13 -15 -13 19 -17 -20 -6 -16 19 -15 -20 -3 4 -11 -14 14 -3 5 -5 -2 15 10 2 -9 17 10 -18 11 8 1 -8 -4 16 0 18 -9 11 -12 -18 -2 10 18 -12 5 2 18 0 13 17 -7 -5 -16 -7 12 -15 4 -5 1 -12 -12 -16 0 -9 18 12 19 -3 -14 12 2 -6 11 17 -6 2 -9 14 -18 9 14 7 -10 3 -19 -14 -9 -3 -3 2 
-5 8 22 22 19 11 -22 -1 7 -6 -13 -8 17 -13 17 -6 -7 -12 19 -9 22 3 -8 -9 10 14 -19 0 -12 -12 9 -14 7 8 -8 -7 22 14 -10 20 -13 16 19 4 -6 -13 -13 -9 -20 12 10 -14 -20 5 -19 15 -1 3 -16 15 -10 5 14 10 -18 4 -7 5 10 -9 -9 3 7 -4 -13 15 2 7 -13 1 14 -10 9 -9 -5 20 0 13 10 -1 18 4 16 -17 2 -9 -13 12 -11 -2 12 10 0 -7 -5 -10 17 -2 1 -4 -3 10 -4 -13 -8 8 12 -8 0 -14 -5 19 11 10 16 -8 5 -13 23 23 -14 6 4 7 12 -7 -7 -8 -24 12 1 -11 -3 13 11 18 17 8 7 12 -19 19 17 5 22 9 13 -6 5 22 12 4 -9 4 23 -14 3 8 6 2 -7 -7 -14 -6 -7 11 -5 19 18 13 20 -9 1 0 -17 -13 4 21 -11 11 8 17 15 9 -7 -1 -3 8 3 11 
3 36 34 9 -18 -14 -35 -13 23 -17 -7 -14 29 29 14 9 15 10 3 6 32 -2 -11 18 -14 42 -13 21 14 -19 11 13 -7 7 12 30 3 -17 19 10 32 28 2 25 12 0 4 18 5 -13 10 26 -1 9 18 28 -11 10 7 -3 6 9 5 5 3 -2 -1 38 9 21 20 38 -10 15 -12 23 3 -5 17 15 -2 8 4 40 13 32 28 28 10 10 30 6 16 5 38 9 22 6 -5 -30 3 39 1 20 -5 9 4 26 7 16 17 31 18 -18 3 4 29 13 3 4 5 20 35 5 -4 14 7 6 19 26 16 11 19 28 7 -14 21 -2 -32 14 27 30 -9 17 18 -5 38 17 7 8 -18 19 8 23 5 6 11 -18 18 32 42 42 21 29 16 33 23 -27 16 31 -14 18 8 15 7 -1 -21 14 14 5 33 9 -10 4 0 3 28 9 5 26 14 -24 6 36 5 28 10 6 34 23 
3 10 -14 -14 3 4 -15 7 -17 2 -9 5 1 21 -2 -13 7 0 9 0 6 7 -16 -15 -18 6 -4 10 -7 -11 -10 -6 11 7 7 18 -8 -15 18 -13 0 -1 -12 -17 -17 -10 -9 -11 7 -2 -4 -14 -12 -5 -4 -14 18 -2 -4 -1 3 -11 4 -4 -7 -11 -15 -7 -9 -7 -9 -9 6 0 19 10 10 6 -6 -16 10 9 14 -5 11 -5 -5 -1 21 10 22 -18 19 -17 -9 19 -7 -1 16 13 11 -11 17 6 -17 -19 -19 -12 13 -6 -17 16 -3 17 -16 5 -13 -11 4 -15 7 -16 5 3 23 -16 14 1 -12 3 -5 -3 19 -7 17 11 20 12 9 10 -9 -2 -11 12 14 -1 18 9 19 -10 9 -7 -16 10 18 -4 17 3 19 -10 5 -13 11 -9 -3 -9 13 16 -10 14 -14 -4 6 10 -6 10 7 -12 10 6 -4 19 7 2 -11 -20 -10 3 -14 -14 -13 11 10 -7 -12 12 -6 12 -15 -5 
-18 0 5 -13 18 8 11 -8 -3 5 -6 -1 11 2 10 8 7 12 -10 -2 17 13 -16 18 -8 -7 22 10 6 13 3 -7 -16 -4 -14 5 -16 -20 -8 2 5 -7 9 -5 7 8 19 14 -5 -17 -16 2 -10 -5 6 19 -12 -15 -18 -12 19 9 2 19 -14 2 -14 12 -10 -19 16 17 15 6 3 -11 0 -4 5 -14 28 -3 1 1 1 0 16 -17 -2 -2 17 -6 8 -1 10 19 15 -14 5 12 14 18 -3 -20 -12 13 18 17 11 -2 -18 -3 5 15 2 12 -16 -18 17 -4 -17 16 -2 6 7 15 13 -20 18 -4 19 -10 8 2 -19 -13 3 12 6 -10 -14 -18 8 -2 15 2 6 1 13 -8 17 17 -18 15 11 14 7 4 17 -16 -2 -20 4 -14 0 -9 -18 16 4 5 6 5 -20 4 9 -18 -17 17 -13 -13 7 -14 7 15 12 11 17 -11 -14 -19 15 6 21 -4 -9 7 -10 -16 17 -15 
7 2 14 16 -6 0 15 -8 13 3 -9 16 2 27 -20 -19 0 13 -17 6 31 3 7 -2 -21 22 4 9 8 -3 -18 2 13 29 33 18 37 3 31 36 28 27 -6 11 7 6 23 6 -14 -17 34 6 -3 30 -16 29 -20 4 -4 33 37 1 7 36 6 15 5 33 -10 11 -1 16 -18 28 3 7 6 -20 -17 22 -13 9 10 5 25 9 8 18 12 0 37 0 17 -5 34 11 31 29 9 15 9 36 4 34 15 -4 -20 7 8 10 32 6 36 -17 -57 2 33 -14 13 0 15 20 4 -18 -5 23 -2 11 32 19 4 6 4 9 9 7 14 -14 19 -17 13 27 13 7 25 -20 6 28 6 -15 -15 -13 13 14 29 -9 27 9 28 22 -1 10 10 17 2 27 7 -18 -1 7 -7 4 -20 17 5 -19 -15 18 6 12 15 9 0 -16 -2 -63 26 7 1 13 -8 -17 -8 26 2 -1 3 -10 32 31 
10 51 31 19 12 -4 -4 -3 45 14 1 -10 52 29 5 16 9 -16 6 -12 16 -8 11 0 -50 34 8 53 5 7 -12 26 11 18 27 32 33 -13 11 50 51 53 -10 44 50 0 52 43 0 8 34 28 -12 51 -8 39 -1 21 -16 40 38 20 50 29 -7 3 11 36 -14 -7 53 21 -7 14 -13 29 12 15 -24 26 -9 49 -17 47 22 41 29 17 26 47 23 -10 8 15 37 47 14 19 -20 5 44 24 18 24 13 -4 -7 35 42 16 34 33 41 -3 -68 32 23 -9 27 13 19 52 19 -10 -18 49 -13 -3 28 28 46 -18 40 48 -15 -7 42 -18 -16 -19 29 43 -13 51 32 -13 48 26 7 -2 11 9 8 32 46 -3 15 14 51 29 31 24 21 44 34 39 18 -17 27 18 0 -4 -18 49 -10 -17 -2 25 4 49 37 0 -17 17 -30 -119 52 29 -3 20 5 0 -12 23 23 48 18 27 24 30 
-15 3 21 26 0 -18 12 10 20 11 4 1 13 18 2 13 -7 14 7 8 27 -18 6 -12 -6 4 -3 26 15 2 -20 14 15 -2 -1 30 14 -17 -3 5 19 26 6 6 27 7 28 18 -11 -20 21 -5 -6 4 6 11 15 17 -18 13 11 14 24 13 3 -15 -12 32 9 10 2 25 8 -4 -20 14 14 5 -24 24 -5 -3 7 11 30 27 32 -4 8 9 15 -2 13 16 29 19 17 28 7 3 14 11 8 32 17 -8 12 29 -5 -9 18 2 17 -13 -30 12 32 -7 -5 -12 12 20 24 -12 -7 4 -10 -11 11 -2 0 8 -3 28 5 -11 0 15 16 -17 14 2 14 17 19 6 4 15 9 -2 -9 -20 -16 18 16 -18 -3 -18 -7 -6 10 5 20 32 4 21 -7 -16 18 3 -10 -19 -12 28 18 -9 4 0 -5 4 15 0 -19 17 -28 -46 14 16 -5 2 -7 -18 11 18 1 0 17 -2 17 5 
7 4 15 -5 -15 -11 18 15 -5 1 -4 -11 -1 7 2 -12 -1 3 -9 11 -9 -4 -2 -1 -2 6 11 1 -7 1 -9 9 -14 17 2 1 15 15 -2 19 -19 0 -6 4 -2 13 -4 13 -7 11 11 -8 -7 19 3 0 16 -20 -14 12 6 -16 3 -19 12 -11 -7 -18 -18 -11 -18 4 9 0 -4 5 -15 -8 12 6 15 5 -10 16 8 -14 8 -6 -7 16 -14 5 -15 1 9 -4 8 16 18 18 15 -1 2 -7 8 9 3 16 8 1 10 4 1 -13 7 19 -19 2 -11 5 -17 9 10 11 -13 5 17 5 -13 10 -2 6 -15 -18 2 -5 8 -5 16 -20 1 -7 6 18 7 3 -16 -14 6 -15 17 8 -4 -2 4 -16 -17 19 -5 -8 -17 -13 -3 -14 -3 0 -3 9 -4 -2 0 2 14 15 8 14 18 -1 7 12 -19 0 -11 -4 -17 -7 6 1 8 -6 -2 -18 3 -4 7 -3 -15 -17 12 -4 
-15 11 6 -6 14 2 -17 0 10 6 -11 -6 18 0 2 16 -15 -7 -7 -16 1 -12 11 15 -17 3 3 16 -17 -15 -17 12 17 -16 9 -13 -14 4 4 1 5 -8 10 -20 -13 15 5 13 1 -18 5 -11 18 8 -14 10 -4 -7 3 -13 -17 0 14 -16 -5 14 -16 -19 -15 -20 7 -8 -11 -3 -2 -7 18 -1 9 -14 15 -16 -14 7 17 -18 11 0 1 15 5 13 7 -14 8 17 -17 -2 4 17 19 -6 0 -9 -7 5 17 10 -9 7 -3 0 4 -9 -1 -9 0 -10 6 -7 -2 3 10 -18 -16 1 15 6 -2 14 -19 -17 -7 -2 6 -13 18 -8 18 -18 -16 14 16 -1 -2 -13 -10 -19 6 -8 -14 4 4 15 2 -1 -12 4 1 16 15 8 19 -10 -7 8 -5 15 -18 14 2 14 15 -10 3 14 -8 4 -19 8 -20 4 1 1 2 -7 -4 0 1 -5 -1 -2 -6 -13 13 -1 6 8 5 -16 
-16 7 9 18 11 -18 -18 -18 7 2 -3 8 -8 18 -7 -7 8 11 10 16 -1 -11 9 17 -16 6 -19 9 5 -2 -11 9 -19 19 7 9 13 14 -15 -10 13 -11 14 -18 -12 -6 -13 12 7 -4 2 -8 -10 -12 -1 1 -17 -13 -7 5 -16 18 -5 -16 -9 -6 12 3 4 6 3 -9 1 13 15 -14 16 -12 -9 1 -10 -20 13 7 -9 -9 -8 -11 -14 9 -6 3 -10 -19 7 -11 -3 5 -9 -15 8 -18 -10 -16 -5 19 10 -5 11 1 -20 17 -11 -13 -5 6 -8 -18 -11 6 14 -16 -16 10 -2 13 16 -7 -9 2 -15 -13 17 -2 8 -14 -20 -3 -11 -6 -11 -1 4 19 12 9 -12 -3 3 2 -2 3 -3 0 18 -6 4 -13 -17 4 6 3 11 -8 -8 14 10 -11 -5 5 -7 -9 -18 -9 -3 0 -12 14 -17 -13 16 1 19 13 6 -15 10 4 -20 -8 13 5 -15 6 -14 17 -4 6 -20 16 
-16 -7 14 -15 -1 18 16 -1 -4 2 -11 16 -18 -20 -4 19 -6 3 6 -8 -1 10 15 -19 16 -3 -7 -3 -2 -17 -19 3 12 -5 12 0 -9 6 -19 17 13 -11 15 -19 -3 3 -7 6 16 6 15 13 14 -13 -16 -13 12 6 -9 -11 -12 -9 -9 7 6 18 2 5 -10 -19 -13 -10 6 7 -6 -14 5 -1 -15 -19 -16 2 -3 -20 16 18 -9 8 4 19 -5 1 8 -9 0 12 14 -19 -15 16 13 6 -12 -11 -17 0 -15 -10 -9 -10 5 17 18 16 16 -11 13 -2 3 11 0 -5 -10 0 -14 0 -15 10 5 -10 -7 16 10 8 6 7 16 1 19 -6 -6 -14 13 -14 -17 14 15 7 -10 17 -11 13 8 -10 -16 2 16 0 10 -9 9 -12 10 -2 -8 -19 2 11 -14 -16 -1 13 -10 -15 17 -1 -2 -11 12 -14 18 18 -11 -10 13 12 9 -7 4 -15 3 -10 -11 -1 -12 17 4 -4 8 -14 
-4 -2 6 0 12 5 16 9 -9 -18 -19 7 9 9 3 -19 7 -3 -16 18 14 2 -5 -3 6 -1 -17 2 -8 -19 -8 -13 -2 4 8 -5 19 -19 -12 -9 -13 15 19 -2 3 6 7 -13 -12 -15 15 0 -20 10 -13 -4 14 12 -14 16 19 0 -7 -17 9 8 5 -11 11 0 -13 10 1 2 13 14 17 1 16 -17 6 8 -12 -8 -16 -5 12 13 -20 -18 -18 -12 6 13 -19 -10 4 4 5 -9 12 -8 -2 9 1 -11 -11 8 -6 -6 7 18 -4 18 8 13 9 4 -20 -11 -15 5 -13 -2 0 -12 18 7 -17 15 -1 0 -1 -20 13 -3 12 -14 17 19 -1 1 12 3 -18 -1 -13 -11 0 5 3 14 3 -7 -15 -19 17 -19 -15 -5 -13 16 4 -15 4 -4 -8 -10 -15 0 11 16 6 14 -9 -13 -3 7 -11 -8 -4 14 3 -8 -12 3 -9 -14 1 1 1 1 -17 -15 -4 9 -7 0 -10 3 
8 -9 1 -17 2 10 8 -7 8 19 13 0 -3 15 -6 11 -20 17 -9 -12 17 -18 -12 -15 19 9 -1 -7 16 -16 16 -11 -7 -17 11 -17 -16 -5 -2 -18 0 -15 4 2 -5 0 9 -10 9 -3 -9 4 -8 -19 0 13 15 16 -11 16 8 4 -2 3 -19 0 -13 16 10 2 3 -14 3 -5 18 -8 -9 1 0 -7 -19 -11 -16 17 -18 -1 7 3 -4 -10 -18 -1 -7 -20 8 6 -13 -14 -8 -4 -9 0 -3 -4 -5 -9 7 2 -16 3 -17 13 -8 19 2 -20 -4 18 -17 -13 9 -5 -15 -10 12 17 -2 -19 12 -3 17 0 7 11 -3 13 -9 7 3 8 -18 -12 -2 2 -8 -3 -3 5 -7 16 8 14 -9 -9 7 12 -8 9 -8 17 7 -15 -9 -9 3 -19 10 12 -16 18 14 -7 -6 -11 12 7 15 -3 8 -5 -3 -9 -12 4 -3 -14 0 -14 -18 5 5 1 12 -2 -6 14 -6 13 -2 18 
5 -1 -9 13 -13 -1 19 -3 5 -14 -20 -2 17 1 -15 -20 19 -11 -4 -17 12 -10 14 -2 19 -12 -7 0 4 -6 7 -10 6 -8 15 -3 -6 0 -7 3 0 19 18 8 -4 5 -7 15 -15 6 10 12 -20 -14 19 0 -3 -20 14 3 1 6 7 1 -12 12 14 1 5 -6 -10 10 -6 18 -1 6 -18 -13 -6 -12 8 -10 4 -8 14 -13 -20 14 -15 4 -17 -1 -14 8 4 3 -10 -5 -20 8 -2 3 4 -15 18 14 -10 19 -17 19 5 -20 -9 14 0 -12 8 -8 0 9 -17 -18 5 -19 14 0 -10 19 12 -19 -16 -5 12 13 -6 1 9 15 6 5 -16 -3 9 -10 -2 -20 -9 0 4 16 17 8 16 16 8 -11 -10 6 7 -6 14 18 -12 -7 0 -9 -17 -14 -2 -11 -2 -4 0 17 -8 3 -18 2 16 19 1 -19 5 4 -5 12 -16 -2 -7 -6 -11 -1 -3 18 14 -13 -15 -8 -12 11 
17 0 -9 1 8 -1 0 19 -10 -9 13 6 -8 6 -19 -20 16 16 5 -15 -17 -4 2 19 -16 -11 -9 8 7 18 17 -19 10 -8 9 -20 -9 -9 -6 13 -10 2 13 8 -16 -5 -7 9 -16 -18 14 -3 0 12 4 -11 8 3 -17 17 -13 -20 6 -17 18 -2 -20 12 -3 -15 6 9 -10 -3 15 10 17 12 17 3 10 5 12 19 -3 -6 -12 14 3 -19 13 14 4 -2 10 10 8 16 -16 1 18 5 -12 0 7 15 -12 -5 -5 -15 -20 9 14 -19 15 -5 -3 -9 1 -10 -13 1 -5 14 18 8 -9 -19 -4 15 12 -3 -9 3 -12 -6 9 -8 -4 4 -1 -14 11 -13 12 5 -17 -4 1 -7 -11 12 8 -8 -1 10 -3 18 -5 17 -1 12 -15 -11 11 -12 -19 -9 -14 -8 6 4 -20 -9 -2 19 13 -1 12 -2 7 1 -18 0 16 -13 2 -15 -18 -20 -1 14 -16 -11 -17 -12 -2 14 16 -3 
-20 -1 12 -12 -13 -16 -11 6 16 10 -19 19 -7 16 13 11 -19 -8 -4 -12 -12 -1 -5 19 15 4 -2 -16 -15 -5 -11 -9 14 5 4 -20 -5 -19 -16 -9 6 15 19 0 -17 -4 -6 -3 -1 9 -3 2 -17 17 -2 16 -3 -9 -18 9 -13 17 -20 -13 9 -14 -17 11 -12 15 -9 4 -2 12 -2 -8 15 -9 -11 13 -12 5 4 12 16 -5 18 -18 17 16 -2 -16 4 18 5 -7 -5 14 13 -6 -2 -20 9 -19 -8 18 6 0 3 -17 -3 12 6 11 19 9 -10 -10 -3 -19 -5 14 16 -19 -3 5 -17 19 -10 1 -2 16 -6 14 7 -5 -20 1 3 -5 -6 -10 -12 -14 -3 5 -8 10 -6 -8 -8 4 -4 1 2 -1 -3 9 12 -10 18 4 -14 -10 -17 -5 17 -18 -13 17 -11 -17 13 11 -8 6 -9 18 12 -17 2 3 -5 -12 -5 17 5 7 4 -16 2 13 14 13 -16 19 -11 13 7 -19 
-12 19 -5 -4 -5 6 2 -8 -2 18 -9 -1 8 13 6 -11 0 -19 0 -20 -13 1 1 -19 18 -11 -7 8 -11 10 8 1 7 5 -10 4 -4 7 -6 -15 -15 -19 8 -5 -5 -16 -16 -10 -5 -1 -19 -1 8 -4 11 1 -2 13 -11 -3 -2 -4 14 -15 5 9 -10 -4 9 -2 -17 9 1 19 17 -6 4 -5 2 7 13 -18 2 16 -18 -15 -1 -9 11 11 4 -7 0 2 -17 -10 -11 -3 11 -2 0 3 -5 7 12 12 8 -19 18 -2 13 -7 -19 -13 16 -2 18 8 -4 7 -17 17 13 12 -5 -4 -12 15 -1 3 -12 10 4 -10 4 -20 -3 -8 14 4 -3 8 15 4 12 -4 -9 17 6 -7 3 18 13 -18 10 8 -16 1 -11 5 4 -14 -5 16 2 -17 -5 7 17 15 -5 14 -10 3 0 -17 16 -6 7 18 9 4 12 -16 -6 -14 1 10 14 -5 2 0 19 -14 -10 -10 4 -2 16 1 
2 -14 6 3 19 -10 -6 11 12 5 -16 1 -5 2 -17 -16 -8 -20 11 -3 -2 1 -6 -9 -20 10 -2 7 9 11 10 -14 15 -9 1 -12 15 -15 -13 8 5 6 -7 -11 5 1 -5 -13 14 6 16 -9 -9 -13 -18 2 -9 12 -5 1 1 7 -13 -15 0 -9 10 17 -9 4 12 -19 -3 -5 3 -9 -2 18 -14 8 -19 -9 0 8 9 2 -2 19 13 -1 -12 -19 -3 0 -7 -10 6 -13 -14 9 13 -16 5 10 -5 -18 6 6 -9 -10 10 8 -12 -1 10 -7 4 -4 -6 -17 -19 3 19 -6 4 8 13 11 0 17 17 5 -8 11 6 8 15 5 -6 3 -2 -13 -4 -13 11 -18 -16 10 1 10 18 17 -16 -8 14 -16 14 13 -1 -3 6 19 15 -4 0 -18 -1 7 -14 2 -9 -10 13 11 -16 -16 18 4 8 18 -17 12 -2 7 13 14 -18 -15 4 1 15 -1 -7 16 3 -17 14 2 -9 6 
10 -5 4 -10 -20 -20 -2 7 2 10 -13 10 -18 3 13 17 12 -10 -5 11 -11 -14 -19 14 -16 15 7 -10 17 -11 -16 -18 -14 18 11 4 -15 -8 -19 -7 10 -2 -8 17 -1 -19 16 -16 -11 -10 13 14 9 -14 -16 -11 -5 -14 -15 8 -15 -16 -16 6 -1 -18 18 -9 14 -18 14 -18 -13 9 17 16 9 4 -9 4 -7 -1 -5 -13 17 0 -15 10 -14 16 -14 -19 -1 -12 15 15 11 -17 -6 8 10 6 -15 5 3 12 4 -2 -12 -18 -6 -4 7 2 -9 10 -20 -12 -8 -19 -10 17 2 15 18 8 15 -8 -3 13 18 14 -10 -1 6 -9 4 -11 18 -12 17 -3 -8 -15 15 13 15 2 -6 -18 13 0 -10 5 -16 3 -14 11 7 -14 -18 -8 -12 -6 1 19 13 -20 -2 13 11 -6 -17 -16 19 -6 18 -6 4 11 3 14 -1 -16 -5 -20 14 12 -8 -9 -2 -19 -11 8 -18 19 19 -7 -11 18 
7 -19 -1 -9 14 -18 -7 0 15 -1 13 7 0 -20 -8 -9 -4 -18 2 -9 3 11 5 8 -14 13 2 -14 4 -7 -8 4 1 -20 14 11 7 -7 19 2 -2 14 12 3 -16 16 -10 -19 -7 -13 -11 15 -5 15 12 -20 -19 -17 14 7 5 -12 4 -16 -20 17 -9 -17 17 -8 -15 -15 8 -2 15 2 12 2 -6 -14 -14 3 -17 10 1 -13 11 8 -9 -10 10 9 5 -8 -6 -1 -10 14 -4 -5 4 19 -13 -19 -20 -2 -17 10 -13 -14 4 -20 -8 15 -1 0 19 7 -15 5 7 11 0 17 5 -10 -14 8 17 10 -5 -17 0 2 -8 5 10 8 -20 -13 5 0 4 6 2 -11 7 3 -4 -5 -16 18 13 -12 14 -2 -13 6 -5 12 -12 -19 -12 -7 -10 -11 9 1 11 -5 -2 6 -6 -3 1 -18 -8 14 13 -16 17 7 14 8 -14 -6 14 9 1 1 -17 2 -16 -1 9 -12 13 -12 -2 -13 
-19 -1 -19 -13 -13 -9 12 13 19 -5 18 -7 4 19 -4 -18 13 6 -2 -7 7 5 4 11 12 -8 9 6 -2 -1 -17 16 3 -20 -8 1 15 16 -10 -6 2 18 -10 6 -4 15 -14 6 -2 6 -10 -9 3 4 -5 -2 0 8 -13 16 -1 7 -4 19 -14 10 17 9 14 14 -19 -18 -3 -19 17 15 -15 19 -17 5 -2 -4 -8 11 -9 12 4 4 -12 15 16 -15 11 2 5 10 -20 -7 -2 10 9 19 -7 0 5 -5 18 19 -4 8 -11 -3 -4 -17 -13 -4 -13 -1 -2 -3 9 5 8 -15 7 1 1 -19 -16 -7 -8 5 7 13 -12 1 1 11 -13 -14 -12 12 10 -18 16 -2 -18 -6 -11 11 -13 -16 6 10 19 18 5 -19 9 -11 -2 19 -18 9 -16 -10 -12 16 17 -17 10 -19 9 9 7 7 11 3 -14 -10 15 10 9 -18 19 15 -16 -6 -20 -20 5 -14 7 5 -6 -1 -12 5 18 -2 
-2 6 8 4 -4 -19 -20 1 4 13 -1 16 -8 19 -15 14 -15 -6 -7 17 12 16 5 11 10 -16 -6 -1 12 18 14 -13 -17 16 12 -2 4 2 1 -12 19 4 5 7 17 -10 11 9 15 -4 -4 0 -10 16 0 17 7 -3 7 16 8 -19 8 -18 -12 -19 -8 -12 -7 -2 -11 7 -8 -8 -5 12 -7 19 -1 -2 6 -10 18 14 16 -5 -16 3 -9 -14 1 2 -18 -10 16 -1 -3 -19 -6 -3 12 11 17 -6 4 17 -14 -17 16 10 -4 6 12 15 3 -12 -11 -5 3 10 17 17 -8 -17 -16 5 -19 8 -5 16 4 10 -20 -16 14 -18 -2 7 3 -1 7 -5 -4 -7 -5 -18 14 -14 -6 -1 -6 -19 5 -15 -4 -4 5 18 0 14 5 -18 -12 -6 -7 13 2 19 15 -14 -12 -20 -20 -18 -3 -10 18 5 -3 -9 -15 -17 -3 -3 -12 17 -20 -4 -11 -19 9 4 -20 7 -6 6 12 2 5 16 
-10 -13 5 -16 -7 -5 0 -3 10 11 6 -4 -15 19 12 -6 -3 3 1 -19 17 -10 -16 0 -10 4 0 -10 -13 -1 -7 14 -5 -8 -8 16 14 2 -4 -16 2 15 -14 -8 -5 -13 14 -5 -8 14 11 -1 16 -19 -19 18 -11 -5 5 17 1 4 -20 5 -18 2 3 -18 10 12 -13 -12 2 -5 -15 -20 -10 -1 4 16 -18 2 2 11 11 3 15 19 1 -19 -8 -16 -5 17 -1 11 -8 2 16 2 13 7 -5 -12 3 -18 -13 -16 -6 -9 6 19 -11 -1 -10 -7 16 14 -16 -13 8 3 -14 10 -13 -2 -6 11 8 14 5 4 -1 -20 14 -2 -13 16 7 -13 15 3 4 -15 0 13 14 8 -7 -17 -2 1 -12 11 3 8 8 -5 5 19 -2 8 -13 -13 -7 4 2 -6 13 1 -18 -11 -10 19 -18 -11 4 12 3 17 -18 15 10 -10 -11 -17 3 17 -14 0 0 12 3 14 -15 7 2 6 15 1 
-2 8 -8 7 -10 -16 12 -11 11 -20 -11 11 -12 3 -20 -15 17 -2 1 6 0 14 2 5 14 2 -7 0 2 -7 15 3 -16 7 -13 8 -1 8 -11 -16 -5 -19 -4 -19 8 16 -13 2 -6 7 13 12 -9 17 5 -9 7 3 -7 -15 -6 -17 -15 -9 18 7 5 19 -14 5 8 -6 15 -18 0 -4 -9 -14 8 10 8 -12 19 17 -7 -7 -19 17 -3 17 -15 -18 -16 7 -13 5 -12 11 16 11 -4 4 -13 16 -11 -5 16 1 -10 -6 10 -16 -9 -20 14 0 -7 -10 0 -12 3 1 -13 17 7 16 1 -9 -9 -15 -11 -4 -14 -14 16 -14 -12 7 -18 4 4 -1 -11 0 -2 -17 -10 4 -2 -20 -14 -17 -15 18 5 -7 2 -4 -17 -7 -6 -6 13 12 -6 -6 -8 1 -9 -3 -8 6 -11 -16 19 12 -7 11 -16 -21 -16 2 4 -5 -5 0 1 -10 17 10 -16 -15 13 15 0 -5 10 15 4 4 
-4 12 -5 2 -15 -3 0 -8 4 -18 -9 -10 9 14 -19 0 -20 10 16 10 -22 18 -13 2 -15 4 -18 18 20 0 5 17 11 0 -15 15 5 -3 7 -7 2 22 5 -6 -6 -3 -7 -19 19 1 -19 2 -15 9 7 -6 13 5 7 6 10 -8 -3 -11 -20 19 -5 9 -14 12 -16 20 2 18 19 19 -9 22 -17 11 16 -17 10 19 -8 11 -14 -1 -7 12 -13 -16 18 -4 -15 -3 -14 5 17 -14 4 8 -15 -14 -3 19 -18 10 -11 17 -9 7 9 -17 -15 -11 11 17 -7 6 -14 -3 -14 -11 -1 23 -11 -17 1 -5 0 0 -15 22 5 11 14 17 9 -12 11 -1 8 21 6 -11 -8 1 -17 7 -17 -9 -5 8 7 18 -6 -5 -11 8 19 -22 14 16 17 6 -13 -18 -12 13 2 -9 -11 1 17 15 -17 16 -15 -15 5 -8 19 -3 -8 2 6 17 5 12 13 15 1 -3 -8 21 14 -13 6 4 
-15 14 -8 -16 -3 3 17 -8 -6 17 -6 12 2 -4 -8 5 -3 -18 -11 -4 -20 18 5 -13 14 -4 -10 0 -2 -3 -13 -9 14 9 -7 19 16 6 23 -15 4 19 -12 -19 21 4 3 17 19 -7 15 -8 17 -3 9 16 5 19 -4 5 9 19 3 -2 7 12 17 -2 -12 15 -17 6 14 -13 -9 4 6 -17 -1 15 17 13 11 21 9 12 -10 11 7 19 0 10 -3 -1 16 19 15 -14 12 7 -7 8 0 -1 -8 17 2 12 12 -1 19 -19 6 -12 -7 -2 15 -1 -8 18 -10 -18 16 4 -6 4 -2 -14 -6 13 -2 17 -14 -15 -8 10 -15 -11 15 -16 18 5 8 -2 0 12 20 3 -8 -17 1 5 8 5 16 -15 0 11 20 -19 2 -6 -1 -7 -8 -1 13 -1 9 -12 12 -17 6 -9 -10 -18 -2 -13 16 -10 -11 -21 -5 8 0 -12 4 2 -19 -5 11 -17 -18 14 22 6 13 11 -9 -1 
-14 -16 23 -18 18 11 -1 -2 -14 18 -17 -3 2 -11 17 6 -13 9 -16 -17 2 -1 4 -1 12 -9 -13 17 -2 6 -3 20 -11 17 1 10 11 1 7 18 -18 5 -15 7 25 19 23 2 -16 -2 11 -6 14 12 -13 -13 15 4 2 -4 14 -6 -15 25 14 -14 9 25 15 3 -4 -7 -3 -9 15 22 -2 -16 -1 -13 -7 -18 -15 6 1 14 14 14 -1 3 3 -3 -8 12 12 21 -14 19 -7 -2 0 19 -6 17 -11 15 15 9 4 19 -5 -4 0 -11 12 18 9 -2 -3 17 14 -18 7 0 -4 9 9 -3 -9 1 -7 -10 -4 0 -6 -4 8 18 1 -7 11 -3 -1 12 14 5 7 9 15 -2 -16 16 -14 8 6 -9 -11 18 17 12 6 3 10 -2 25 11 -7 18 3 24 7 0 -15 16 8 -13 3 15 -13 19 4 -4 -3 9 -18 4 3 4 -11 23 12 -7 -14 -9 -12 14 7 -12 16 -1 
0 3 10 -2 2 -4 13 -18 -1 9 13 -7 -8 -8 16 -8 6 7 -14 -17 13 -8 -6 -7 11 22 -3 10 11 -13 -5 -1 2 -8 16 5 0 -6 19 3 -9 8 4 -16 3 -10 11 11 -4 -10 -14 -17 11 -21 0 -3 2 -3 8 4 -13 5 13 0 19 10 -7 -9 -12 -12 -20 10 -20 -7 16 -13 -16 17 8 18 -18 -9 -16 6 -3 0 1 11 13 18 5 8 -6 16 0 1 -16 6 21 -8 -24 17 3 0 12 7 17 11 10 -10 10 1 13 0 14 11 -5 -3 20 -4 -9 -5 12 -3 -6 16 17 7 10 -1 0 -17 -14 -9 13 19 -3 -10 7 -11 11 10 -2 8 -8 -10 16 -14 -13 4 8 4 -19 1 -9 17 4 -5 -8 8 7 6 -17 9 -4 -3 9 3 -12 1 -7 -18 -9 7 14 7 9 2 -17 19 12 2 1 6 5 2 2 18 3 -16 9 -17 14 -9 -17 13 13 14 9 12 
-6 32 3 12 -21 11 -18 -15 7 -11 6 1 29 -4 -7 -12 13 -2 24 -16 28 -7 16 22 11 19 13 7 -5 -144 2 33 9 11 -1 7 32 0 -1 24 21 26 3 31 4 -6 25 3 2 9 33 30 -8 7 17 14 -17 6 8 25 4 22 25 3 14 18 15 25 -74 -8 4 35 -3 32 14 5 -3 -44 13 3 48 38 -7 1 16 18 13 -4 0 13 35 2 -24 -34 19 0 -1 16 40 -34 29 11 -10 22 9 3 4 23 1 -13 14 23 -1 -33 7 -5 41 -8 11 6 -4 -5 32 -17 -2 -4 21 -4 20 26 32 28 32 0 11 11 33 -16 -3 22 21 24 18 10 -7 31 5 27 36 14 12 16 5 1 11 17 14 -3 31 21 25 -1 1 20 -6 9 30 -6 36 33 -14 -20 22 4 -19 15 -23 -1 34 10 9 -36 20 -5 1 14 -4 37 -3 19 -11 -14 -7 2 34 8 36 8 5 30 
-1 31 51 11 14 -13 -9 -4 45 4 -7 6 27 38 -4 11 8 -3 11 13 31 -1 22 -3 -7 42 28 33 31 -178 -7 51 -4 30 31 23 30 -16 -1 15 32 45 15 40 46 3 52 26 17 -9 35 36 16 31 -7 35 18 28 -7 64 41 48 26 25 -12 19 19 25 -118 2 37 31 -16 32 -1 51 -19 -60 16 53 84 44 -5 21 26 20 53 47 28 28 28 7 1 -17 17 47 49 25 18 -39 57 24 2 30 19 18 -10 19 46 7 27 22 29 -43 15 41 40 -6 51 10 -15 14 29 5 -44 19 16 0 44 48 49 12 14 44 -2 -16 19 7 -49 29 44 39 -5 16 26 36 23 33 14 -7 -1 9 2 30 32 6 23 20 15 41 55 25 40 21 47 52 27 -35 25 21 -2 -20 -10 17 15 -7 -23 33 0 45 24 -48 6 -12 21 15 21 30 22 31 5 -5 -16 26 38 50 19 2 40 26 
2 29 11 25 -12 7 -18 -6 -3 17 -24 -14 12 8 -4 -1 -15 -4 0 10 5 6 40 18 18 20 17 14 51 -87 4 33 8 18 24 25 10 10 19 13 12 10 -20 5 17 15 -1 26 1 -15 25 37 17 37 2 -4 2 28 1 47 15 5 31 19 0 24 10 36 -43 19 8 16 3 26 -14 3 -5 -36 4 -2 1 17 6 15 27 0 33 30 10 32 33 -6 -6 -13 0 36 -7 3 27 9 10 12 12 24 -2 17 -16 1 18 -13 21 24 20 -17 5 33 -1 9 2 23 -5 4 0 19 5 8 23 -14 17 22 -3 18 24 35 24 -23 27 -2 5 1 18 17 -15 -12 15 34 19 14 23 -19 9 13 16 20 30 -8 17 5 3 33 4 14 4 20 30 10 9 -25 21 21 11 -14 -12 5 1 -18 -7 31 27 3 31 -51 4 -11 -16 -8 6 19 11 24 -27 6 -4 10 33 7 7 -9 20 13 
-9 26 31 63 2 7 -19 23 54 15 -23 -1 42 57 12 15 11 -22 7 -6 22 -7 -5 -8 -34 34 3 67 31 -62 -11 61 -18 26 31 41 70 15 35 46 50 30 -11 34 25 -16 52 56 10 -1 51 35 9 59 14 45 2 37 -9 44 38 65 46 34 17 -1 18 36 -14 -1 51 26 6 59 9 39 -4 -15 -16 51 18 32 6 40 49 41 35 59 27 58 37 17 -19 -18 38 43 42 32 27 7 21 59 3 62 10 6 18 61 49 17 57 23 35 -33 -40 20 49 9 50 17 20 33 62 7 11 33 -3 0 54 63 54 14 47 45 -1 1 61 -22 16 10 43 44 -7 57 34 4 36 60 2 -23 12 16 5 43 37 4 30 24 19 45 40 27 41 34 32 25 39 18 60 63 -27 -19 2 39 -14 -13 -8 33 0 59 41 -36 22 10 -38 -76 49 27 1 67 -14 12 -5 53 29 44 40 19 45 31 
-7 48 52 57 -15 8 -7 34 7 12 -13 1 69 60 9 2 17 -29 7 10 -6 14 21 -8 -25 37 10 75 33 -6 0 38 -4 40 12 18 71 -15 23 83 -25 15 17 0 -19 13 35 82 -11 -11 -17 49 -2 34 -5 47 6 8 3 38 70 49 25 62 -5 -7 15 37 -28 -10 39 24 -9 58 -11 -72 4 -20 6 15 25 -18 -4 27 47 59 45 31 9 60 22 -12 24 -2 25 6 63 -24 2 21 -5 28 3 42 -11 -3 -18 19 17 9 28 -13 14 -3 -54 -13 -24 8 -14 -9 -3 22 37 8 -25 44 30 4 15 49 -14 7 47 13 3 -4 7 -9 -3 1 14 7 -19 53 51 11 0 -2 23 -32 7 -13 -9 60 10 1 10 28 -26 14 -43 14 -14 -6 47 2 77 -20 15 32 -14 1 18 58 -12 -17 -13 28 0 57 -26 -6 25 10 -15 -103 49 5 17 73 3 5 -2 10 39 37 1 10 48 -14 
-24 73 83 93 -13 -8 11 48 64 15 -13 18 81 68 5 -12 22 7 -18 -52 33 -18 3 2 -41 59 -11 66 83 -7 -27 68 1 59 37 69 96 -11 26 80 16 91 12 35 47 2 79 82 23 -19 57 78 7 48 -13 39 -8 56 -26 115 28 38 50 85 -11 -8 -5 39 -3 17 50 76 -21 49 18 18 -6 12 -13 80 16 25 -32 66 38 81 45 49 37 70 46 -12 15 13 39 68 44 42 -95 21 43 59 -8 71 -17 -11 16 58 53 12 71 40 69 -9 -67 29 31 12 17 8 7 57 53 -5 24 43 42 -11 38 71 39 12 60 54 19 87 60 -25 -4 -17 62 63 0 62 80 -48 62 41 -2 20 20 -8 -5 51 64 -29 56 16 49 66 44 44 37 29 111 57 69 -19 51 77 -10 -2 10 91 2 -16 4 42 -53 66 39 11 -2 -1 -47 -103 66 64 -28 63 13 -19 -6 45 91 26 48 0 69 46 
-29 47 47 71 10 -4 -13 12 17 11 11 3 73 70 -7 0 21 10 12 -50 39 -1 38 1 -32 47 4 82 63 -76 -1 70 -19 52 30 32 88 -16 49 58 2 81 15 13 10 14 61 81 31 -13 7 72 15 54 -21 45 -5 27 7 85 66 69 60 84 13 8 -9 41 -58 -2 51 53 -12 62 10 -41 6 -5 9 32 13 6 -107 37 49 52 34 74 23 66 39 3 -2 20 18 52 29 26 -152 -14 18 17 -1 67 -9 15 10 47 31 -5 59 24 54 16 -59 39 3 12 -19 15 6 24 35 14 35 42 3 -16 23 69 8 18 66 16 26 43 39 -19 8 12 35 14 -13 39 96 -45 33 16 -5 -2 15 7 -14 41 55 -17 26 -3 12 53 -2 37 20 -6 98 39 72 -2 32 60 1 -17 1 63 0 -11 18 39 -79 47 4 -14 14 -6 -13 -88 41 18 -13 40 -1 -3 9 36 74 48 39 40 52 19 
-52 40 49 78 -3 -31 4 34 24 12 -4 -12 51 58 12 14 -4 9 -12 -7 18 -14 3 1 -8 32 10 68 13 -88 -14 61 6 32 43 31 97 -17 22 93 22 58 -17 12 17 16 43 47 43 19 9 30 -2 31 -17 28 -20 11 10 63 65 59 54 60 14 11 1 47 -64 -2 38 35 -2 64 -10 -27 -10 -6 -5 41 -33 40 -93 51 27 56 31 63 33 64 38 -3 12 11 27 36 41 12 -171 4 4 42 14 69 -19 19 3 55 21 -1 25 39 47 10 -96 12 -5 4 3 18 -18 45 46 -10 26 54 10 13 11 61 1 -10 45 14 16 -12 28 6 0 21 48 1 -3 35 70 -47 26 44 11 9 -6 -4 -30 71 41 -9 19 -8 6 15 6 44 33 7 69 43 61 -12 20 63 -18 16 16 53 -4 -31 8 30 -92 69 -18 -11 4 -11 6 -74 49 27 -11 51 4 -1 -5 47 36 49 18 37 50 2 
9 -6 32 25 1 -21 -1 -7 11 -4 -6 4 26 0 9 11 -15 0 9 2 -1 -8 13 -8 -3 23 -5 28 -7 19 -1 29 5 11 -4 7 38 -18 0 39 -21 2 -17 -12 -17 2 -4 26 -1 11 -1 -9 14 -14 10 14 -11 -7 -11 24 -4 30 -8 5 21 -11 3 24 3 12 25 -14 10 29 19 -14 -14 -3 3 23 -24 -6 -82 6 -13 -1 26 5 1 -2 -1 2 -5 -14 10 18 -7 0 -125 -11 -13 17 12 15 5 -14 -2 2 7 -9 -6 -5 12 1 17 -7 -13 2 9 12 16 -9 14 -9 23 -14 14 9 19 -11 5 12 14 1 5 18 -8 -11 15 -18 -7 9 -11 29 34 -28 -18 -15 -14 6 -7 -1 8 0 0 -13 -3 9 -13 21 -28 9 12 -6 23 -15 27 19 15 20 10 5 -21 3 15 7 10 21 -50 3 -26 4 -2 -11 9 -14 13 3 -20 3 -9 -2 -10 16 -3 19 -9 -8 24 7 
-16 -18 -7 -6 -7 7 1 14 -4 -19 -7 10 -2 13 -6 3 15 -22 -7 -13 1 1 4 -1 -16 10 17 -11 4 -11 -18 0 -17 2 15 -16 7 2 -4 2 18 -7 16 16 -14 -12 11 18 -13 -6 -1 8 -12 1 -19 -7 -20 -14 16 10 -11 -8 -10 11 -20 13 2 -15 5 -3 -18 -12 5 14 -16 17 3 8 11 -16 9 16 -4 11 3 -5 -12 9 21 9 13 15 2 -3 12 21 11 12 -19 -10 -3 -14 -2 1 0 0 -7 -16 -1 -19 -17 -16 9 1 11 -18 -5 5 -12 16 12 3 -11 0 5 6 5 12 3 -15 -14 7 8 -4 -23 -5 -13 0 -14 10 1 -2 2 18 -9 11 21 15 18 8 -10 -6 -16 -5 -6 -14 -16 -2 -1 -11 13 -14 -13 6 -7 0 18 -16 10 -17 -24 -12 8 8 16 -10 -4 5 -5 9 14 7 -4 19 6 14 18 7 -12 7 -5 16 7 11 -13 -23 -2 0 -5 -16 
15 -16 -16 3 0 9 -8 -10 10 19 -19 -16 0 -7 2 -10 -18 -15 0 11 18 -1 15 4 -6 18 -8 16 -16 -20 -14 -12 3 15 19 16 -8 14 -6 -8 17 -5 19 -16 -11 7 10 -7 -7 -17 11 9 4 -4 -15 7 -7 19 14 -1 -16 7 -13 -5 -18 4 16 -5 7 14 6 -11 1 1 11 -15 11 -14 -18 -17 -3 -3 -5 -6 -14 -16 -7 16 -13 8 10 -14 -18 3 3 2 -17 -10 -19 11 -3 8 -20 -3 1 6 -2 -16 2 0 5 1 4 -12 14 11 -6 17 7 0 10 -8 14 17 16 14 -12 9 -18 -12 -20 16 -13 3 -13 15 1 -14 3 -16 -13 10 -8 16 6 -4 2 -1 -17 -7 -14 -17 -3 18 -8 -5 17 2 -4 2 -20 0 3 -20 8 1 4 -12 1 -11 -20 -2 -3 -15 7 -4 -6 6 16 12 14 -9 -16 12 -11 8 17 -8 -1 5 12 11 16 -7 -13 -12 -20 -7 15 -5 
2 8 -9 12 0 12 10 -12 0 -8 4 18 -7 10 2 -9 17 -7 17 -15 10 1 11 -12 -6 -1 -12 3 -2 3 12 5 3 -7 -10 11 -11 2 0 16 0 19 12 10 -1 13 7 8 -15 5 15 -10 -6 -20 11 -18 2 -14 -3 7 2 7 3 17 -4 10 -1 0 -13 13 19 -14 -5 8 17 -4 -15 13 -14 -6 14 -20 -19 -10 8 -8 -14 17 9 2 -17 0 -12 -19 -12 0 6 -7 -6 4 -14 3 9 -8 0 4 -6 -17 -10 -5 -14 1 -2 -18 9 -6 -6 4 -7 0 6 -1 -5 -17 14 -19 6 10 16 0 9 10 18 14 19 -14 15 4 0 -7 -2 -17 16 -13 -13 11 -4 10 3 -16 4 7 10 17 -17 12 -9 -9 10 14 2 -2 18 -10 2 -11 -15 1 -8 -4 4 -6 1 -6 -20 3 13 -4 -18 13 -8 4 -9 -12 -12 -7 -5 -2 -1 19 0 -3 -19 -14 13 18 -1 -8 -5 -3 
12 -3 5 2 8 -7 -10 -2 19 15 -18 -5 -13 8 5 16 -20 5 -7 5 -18 9 16 -10 -8 -10 -2 13 -20 -1 -16 5 19 -2 -14 12 2 -16 -18 16 -19 13 14 13 3 -4 -20 -18 2 6 15 3 13 18 9 9 19 9 8 0 -14 -14 1 -7 -5 -7 -13 7 -8 4 11 -8 19 15 -12 19 9 0 -6 -4 -9 -19 15 -19 -13 -12 5 16 -2 19 -4 -5 1 -6 14 10 -10 5 18 11 16 -10 -9 14 14 2 9 -4 3 -20 16 10 2 -8 -17 -18 8 8 2 0 -14 -12 4 -19 9 -19 -17 -16 -5 18 5 -6 12 15 0 -12 5 -13 -19 0 -13 0 -18 16 11 17 -1 12 5 -9 -8 -4 -2 -20 -18 -10 11 4 -4 19 11 -8 -18 -15 3 -11 -9 7 16 13 0 9 -7 -13 3 1 3 -10 17 15 17 -9 2 10 -13 -13 -5 15 -2 -1 13 -6 -4 -16 3 -13 14 10 19 18 
0 3 -15 -3 -4 17 17 -15 -7 17 -12 -16 -20 -14 -20 19 8 1 11 8 10 -1 9 -11 0 -16 -11 6 -20 -11 -2 2 -12 -20 -14 13 12 -11 14 -14 13 -7 -9 -1 15 7 1 14 13 -17 14 8 8 -14 9 -19 15 1 3 18 13 5 -2 2 -20 -17 -15 -16 1 -6 -5 -5 15 -18 -5 -13 17 -11 -17 -20 -6 -5 -13 -16 -9 2 -11 2 -16 3 -9 -8 -14 -12 -4 16 -8 -10 -9 7 12 -10 8 13 8 -1 0 -19 -6 -10 -9 12 8 6 -4 16 -9 -19 13 3 -5 -9 -1 -17 2 9 -16 -12 9 8 3 -15 -4 3 5 16 0 -10 -2 4 11 1 9 15 14 -7 7 -9 -7 -19 16 -8 8 -5 12 17 13 -4 18 8 -18 5 7 6 -15 0 -15 19 -19 10 4 17 -14 -2 5 4 -12 2 -19 13 -12 1 16 -5 0 9 6 3 -12 5 10 9 -16 -11 9 -8 19 12 -18 -18 
9 19 12 12 2 -3 -14 -20 11 -13 -2 11 -8 16 19 -14 10 15 -11 -1 13 12 -1 1 -10 0 3 5 -13 9 -6 -14 -13 17 -4 -12 8 6 -14 7 -14 -14 -15 9 14 4 18 5 14 -17 -15 13 3 1 18 -8 8 14 3 -3 -7 -18 14 -1 -13 -11 -19 1 -18 -15 -5 4 -7 -15 -16 -2 5 12 5 -3 -12 8 -15 -19 19 12 11 -2 -10 -8 -14 9 19 3 -15 4 -6 -19 -2 4 11 6 -18 11 -15 -1 1 11 -11 8 4 9 -11 9 14 -3 -17 13 18 10 17 12 -1 1 -5 8 -11 18 -17 -6 9 -19 7 -18 18 -11 16 -4 -11 -17 6 -16 -18 19 17 -4 -8 -16 -18 -3 15 4 0 11 4 -20 -16 -11 8 -16 11 5 5 19 -13 15 17 -6 17 0 -20 3 -7 12 -12 16 6 16 -17 -12 -8 -14 -6 -19 3 -2 15 -6 -13 -14 -5 -9 -20 -4 -7 -17 6 -6 9 -14 
-15 3 -18 -9 5 -4 -17 -14 14 -3 11 18 6 13 -14 -3 -13 3 1 5 2 -9 14 7 -4 -8 -2 16 -7 8 -12 -5 18 -3 18 -6 -13 0 -12 1 -16 -13 11 17 7 7 16 -13 7 -12 2 10 -1 -11 17 -17 -5 -6 -12 -17 2 -9 -16 -16 11 14 17 12 -15 17 -10 5 5 -6 -8 -7 11 -18 4 -16 -1 7 18 12 2 2 -20 -17 15 -7 18 -4 19 9 -11 15 -19 -2 -4 -18 -6 -3 12 12 19 -14 -6 12 19 12 -2 -5 -20 14 16 1 2 -9 6 17 2 12 18 6 11 -20 -11 8 -18 5 0 0 -13 -3 -3 17 -11 12 9 -16 -18 -8 -19 -19 5 8 -3 -7 -9 -19 1 2 11 -19 2 -18 11 10 7 -11 0 3 8 1 -2 -14 2 -14 -16 -18 5 -19 4 17 18 -3 -14 4 2 -3 17 -14 -5 -3 19 -5 19 -13 2 -14 2 19 3 1 19 10 2 18 19 8 
-18 -7 -18 -12 -2 9 14 -20 -20 -4 -19 -3 -7 -16 -11 8 17 -18 -3 6 0 12 15 -3 -10 -19 16 11 7 15 16 18 6 -10 19 13 19 7 -1 -6 2 -17 -18 0 -10 -11 14 3 -11 14 16 -2 6 0 14 -16 -7 -8 16 3 -18 0 9 -8 0 -5 -19 7 3 -5 -19 14 12 -11 -9 -1 -8 -13 0 15 -16 3 11 -20 3 5 -1 -1 12 11 -13 10 -11 4 -19 -4 5 10 -12 -14 14 -19 -6 -8 2 6 14 9 15 -7 1 12 8 -19 -16 7 15 13 1 0 -16 12 9 1 7 -19 -11 4 -20 1 0 -8 -3 5 4 2 -11 2 -11 -17 12 6 2 -7 16 -4 13 -16 18 8 5 3 19 -19 2 8 -7 2 1 16 -11 2 8 -2 7 11 13 -15 -20 17 10 -8 -9 4 11 -18 13 -16 -13 7 -3 -20 -20 -7 16 -3 -19 -2 -11 -13 -7 17 1 -5 -2 15 5 -9 11 -8 
8 -4 -3 5 -18 10 4 13 17 1 18 -5 -17 2 19 18 -20 11 3 -20 2 -8 13 -2 -18 14 0 1 5 9 -9 13 15 -7 16 14 11 16 -20 11 19 -9 -7 5 -15 -6 -11 -11 1 -15 12 9 -7 -7 -4 17 15 -6 7 -4 18 9 0 -16 -13 17 -14 -14 -11 14 -3 3 11 3 -6 12 9 12 17 11 -18 -10 -16 -10 9 6 -17 15 17 -17 3 9 17 -16 -16 -6 -12 -3 -14 2 -11 12 -11 11 2 11 3 1 1 -15 -2 -5 -20 2 15 10 -14 -17 -9 18 14 -11 19 -16 -12 -12 13 11 -16 3 1 13 1 -14 -11 -13 -1 17 -11 -13 1 15 -19 14 -6 -3 0 -18 -4 12 -15 -14 -11 4 -7 -8 10 7 8 18 -7 5 -17 12 11 17 13 -4 -6 11 8 3 -9 16 14 -12 16 -17 -3 2 -16 5 0 15 -17 -12 -5 -14 -13 -1 -15 -8 7 1 11 -2 -5 -9 -20 14 
4 19 3 -7 -19 -14 1 4 6 0 -20 -3 -19 -13 11 -1 3 5 2 -11 8 -18 -16 -4 8 1 -17 -20 15 5 12 16 -4 0 16 -4 -5 -1 14 -18 -3 16 -18 -8 11 12 17 -19 9 -9 -2 -14 16 18 -12 15 -2 -12 9 6 2 -12 -5 -5 10 -15 -19 4 -17 -2 -20 19 -4 8 3 -6 -5 17 11 -1 1 3 7 8 19 -3 -17 8 8 -14 10 -5 -7 10 18 6 -1 8 -5 -6 3 -2 -3 3 -4 -2 -14 -4 -12 3 9 -18 -4 -1 4 8 9 6 -9 8 -9 -6 -14 11 6 -7 -15 10 1 -20 10 -2 -10 17 -17 -11 3 19 -4 13 14 -15 3 -7 1 -4 6 18 11 -3 5 15 -14 6 9 -1 -9 7 -16 -10 3 -11 2 -9 -7 14 19 2 -5 -16 -14 6 10 18 -15 0 -16 11 -18 13 9 10 -7 -12 1 5 -1 7 15 -18 6 3 -14 11 10 -18 -13 -3 -16 -6 
4 -13 10 7 -9 -16 -6 -3 2 10 2 17 17 -11 -14 -16 -12 -17 -5 -14 -5 -11 5 9 8 6 12 -5 4 -10 0 -13 12 -10 -12 15 -11 18 -9 -18 -10 -5 -14 -16 5 -2 2 2 4 12 -18 17 -11 -20 -13 -1 4 -18 -2 5 4 -15 -7 8 -11 -16 18 -9 -19 15 8 11 4 5 0 -9 4 5 -17 19 0 -19 0 -4 -20 2 17 -2 7 3 17 4 -12 -2 -4 -17 -17 -16 -5 14 -10 -15 -11 -19 -11 -9 2 17 -10 18 18 18 1 16 -7 10 -15 17 6 13 15 13 -11 10 19 -19 1 -15 16 -16 14 -19 16 -17 -18 19 8 3 9 -4 12 -3 3 16 6 14 -7 -13 11 8 -12 -19 6 5 -7 -20 2 -9 8 -19 -14 -9 -4 -13 11 -15 -6 -9 -3 0 -11 8 -3 -18 2 4 15 -9 -1 -8 18 -1 -7 5 12 -7 15 -12 -8 18 17 12 -4 -19 13 -7 -8 -9 -6 -2 
-12 14 -10 -10 -6 -2 -18 8 -12 -4 13 17 14 14 6 -2 -1 11 -3 2 13 7 11 -19 -17 18 -16 -2 14 -14 7 -14 14 -19 12 14 1 -5 0 17 -2 11 9 13 0 14 11 -16 17 -15 -12 6 -15 -17 -17 17 -14 -10 -9 19 -18 -8 6 -13 10 5 -10 -9 12 15 -16 -7 4 6 -4 13 -9 13 8 -6 18 -3 4 -9 -3 16 13 -17 13 1 8 0 14 10 -14 -7 -15 -18 -2 18 19 0 -18 16 14 -5 -3 17 -12 4 5 -20 16 -11 -19 -11 16 4 -3 8 -16 -5 12 -20 0 8 10 2 10 -8 2 -10 4 -8 10 13 -11 -4 -2 -9 13 -13 -7 -8 -11 -13 -2 -15 -14 -15 7 12 -20 -12 19 -8 -12 -5 -19 -15 -11 -5 11 -20 -15 -11 -20 -15 -1 -8 -19 -6 -4 11 -2 -13 9 6 8 -5 -5 17 2 -14 8 -12 -19 -13 8 -7 4 -20 18 -17 16 11 -6 9 -5 -4 
-1 -9 -5 16 1 -6 -6 16 18 -19 3 2 -20 19 -9 -5 4 4 18 -18 -2 -4 7 -4 18 -3 11 4 -19 19 8 5 -14 16 0 2 -14 18 -2 5 10 -14 -1 -17 5 15 6 -2 9 -14 -15 8 6 18 -18 16 -20 -5 10 -1 4 -13 -5 4 -6 -3 -12 7 1 18 -7 18 0 -12 -4 17 4 -12 -17 -4 -2 15 -13 10 -2 -3 -15 0 -8 11 -10 -13 -10 1 -20 10 -10 -3 -1 -16 14 -7 5 -8 13 19 10 17 3 12 -6 -4 -4 -12 -16 -4 -8 -20 -17 -10 -9 3 7 -16 4 -11 -13 15 15 -8 -8 -12 -1 17 -8 -9 0 15 -8 14 -7 6 15 15 9 -1 -16 -11 -20 6 -7 -8 8 13 -11 -8 5 7 -9 2 -12 14 -16 12 6 -15 19 -10 -7 8 -1 17 -1 -14 -11 13 15 -6 -14 -3 -16 5 -1 6 -5 -1 -8 -15 -7 -17 9 12 13 16 -17 7 10 -15 14 -3 
-16 -6 14 -20 3 -16 5 5 11 12 -8 -18 -23 -24 1 17 -7 -5 -1 19 -16 5 -15 4 -6 2 13 -22 4 16 -7 -10 6 -14 -25 0 8 1 1 -22 -4 4 0 5 13 15 -20 -24 17 -16 -5 -9 -13 -6 15 11 -4 18 -14 3 18 14 1 4 18 2 1 11 11 19 -10 -4 19 -25 19 12 -10 -6 -16 -10 4 14 12 -28 -8 -8 -20 6 -5 12 0 -1 -17 17 -22 -2 2 7 4 -19 -19 -6 8 6 18 3 -7 4 -24 -15 -27 -10 -9 -19 2 -3 2 -12 -4 5 4 11 -20 16 0 -15 8 10 -14 8 -17 12 -14 5 8 -1 8 9 10 10 19 7 15 0 -27 12 -23 3 15 -7 -12 -1 -5 15 -22 5 -9 -15 18 -4 4 -24 10 0 -23 -3 -5 12 6 13 13 -16 -9 2 19 -4 -1 -19 -12 -14 15 -1 -7 -7 -2 -17 -4 -6 11 16 4 -1 9 -19 -10 -6 -2 -7 -11 -6 
2 -26 7 0 -3 -17 -12 17 -3 8 -8 -6 -26 -17 -4 -16 -22 -19 -4 -13 3 1 -11 -6 -19 -23 -10 -15 2 13 17 -4 10 -5 -27 2 -22 -10 20 2 8 -16 -16 13 -15 10 -19 -4 9 15 -20 -26 -5 -8 -1 8 7 11 4 -5 14 -18 -23 -31 3 8 17 -11 -20 -15 -23 -6 9 -20 -18 -19 -13 16 11 -3 2 -5 -15 -11 12 10 -9 -20 -6 7 -5 -15 -22 -4 10 5 -11 -8 -1 -20 -13 -8 13 -10 3 -20 10 -20 -13 -11 -34 -18 11 -4 12 3 9 10 1 -15 5 -15 -6 9 14 6 10 -6 -8 2 -15 8 3 -17 13 18 12 11 1 -16 -11 10 -7 -7 -19 -10 -16 14 15 19 -6 7 -13 -1 3 5 -7 -4 5 13 -1 2 -22 3 -31 -7 -16 -9 10 -3 -18 -4 5 4 17 1 -8 -14 15 -14 19 -20 19 5 -18 -13 -17 -10 15 8 -4 -4 -7 -4 -18 13 2 14 -13 -1 
-16 -27 -1 2 -12 8 -9 -14 -21 13 -9 -21 -24 -21 -5 -19 -11 -4 0 4 7 12 0 7 -5 -13 12 -4 -9 -1 12 19 12 -34 -16 6 39 -16 -6 -8 8 11 1 -6 0 -19 -10 -13 -9 16 -15 -24 -10 -26 13 7 14 -5 -13 -3 18 -7 -14 -20 -14 -2 9 10 -4 15 5 3 -5 -28 -15 -20 7 9 11 -38 -6 -5 1 -2 11 -5 -22 3 8 14 -19 -3 1 0 3 -15 -20 -7 -38 -10 -16 -24 19 -2 2 3 -2 -33 -1 -9 -11 -18 5 10 15 -14 8 -3 9 -11 -24 11 -29 11 -10 11 -19 -3 9 10 -7 -11 0 -8 -8 -20 6 16 1 -5 -24 12 3 -15 -12 0 -4 -19 -39 -4 -19 14 16 -14 -12 6 8 -17 -16 -22 15 -32 6 14 1 -18 -6 -2 -18 -17 20 14 11 -22 -5 0 13 -1 -14 -25 -15 -2 -7 13 4 -6 -11 -17 16 -3 -4 17 16 -11 -4 4 -1 -17 -19 8 
3 3 14 -1 12 -10 10 -5 6 -18 -7 -17 -28 -44 0 -44 -1 -11 -4 15 8 19 28 -11 2 20 12 2 -9 -18 19 2 -13 -1 8 -10 51 3 23 -4 -7 -2 -10 1 37 -7 -7 -1 7 16 16 -26 -12 10 -9 32 -6 17 14 17 -2 -2 24 -23 9 -15 18 4 -22 -12 -10 -3 7 1 3 23 6 19 -16 -26 5 -3 6 1 30 6 11 -7 2 24 -6 -18 -13 -16 20 26 -15 -9 -42 12 0 -13 5 -17 -14 -17 -6 -8 -16 -5 -20 -13 16 -5 10 -6 21 13 19 -11 1 -12 -16 -11 -3 35 19 16 19 17 12 -13 -25 -7 -20 -13 12 -1 -17 15 -12 -16 -11 -2 -21 7 11 8 -31 -1 -17 -11 -6 -3 -10 -10 -12 -7 25 -3 15 1 22 0 -15 -5 4 -1 -10 18 20 -5 8 -5 -33 17 -3 -14 15 5 23 -17 9 18 -19 11 5 -17 18 8 12 -19 -14 13 -3 26 -10 -28 3 4 
20 -11 27 -19 -20 17 -4 1 22 -21 10 -26 15 -26 -2 -125 -5 -10 13 9 7 9 31 26 4 41 -18 -20 -1 -121 2 37 -3 -10 10 44 52 -4 19 7 29 38 -14 18 22 -26 7 -22 -17 9 9 -11 -9 5 19 32 11 17 -9 47 23 5 30 -1 23 -5 11 24 -40 9 25 27 13 -22 -10 29 -34 3 3 7 -20 33 23 13 44 1 10 21 -1 22 22 11 13 -3 34 20 -2 36 -17 -20 39 9 10 7 -7 17 3 5 -3 -1 4 11 28 19 12 9 28 -15 46 10 5 30 12 -11 -8 20 -9 1 18 4 26 -30 -13 13 -19 -16 15 -9 -12 1 13 8 6 -11 -16 -6 27 23 -7 16 -4 -16 17 -4 8 14 27 4 10 37 18 17 47 25 -2 28 -19 -6 7 11 4 -17 -13 -16 -128 -8 -5 13 21 -2 17 0 -20 14 6 21 -14 19 12 49 -35 -6 -8 21 -6 39 16 -34 -4 53 
22 -8 23 24 7 18 1 -12 37 14 -1 5 19 -5 4 -118 11 -25 6 5 12 14 58 25 4 35 13 -27 18 -135 8 52 -22 9 -7 31 69 5 52 7 47 31 -30 37 23 -24 26 -15 24 -5 47 17 0 34 -2 56 7 54 8 54 19 29 15 -6 -16 -13 6 43 -90 -9 1 30 -13 13 -3 50 -3 -8 13 -4 24 41 -14 -15 40 5 19 23 6 19 16 21 -27 -8 37 21 -7 15 -20 -27 11 13 3 -7 21 11 -10 7 25 19 -8 18 19 6 6 35 22 -16 36 20 -23 21 -7 10 -9 50 -9 13 27 30 26 -11 13 47 -59 9 42 -29 14 -7 34 10 13 -11 -35 28 12 16 10 5 28 -9 -7 29 15 6 1 4 29 29 27 12 29 30 -12 25 -7 -15 42 27 -3 6 -13 12 -115 -12 -17 33 24 24 58 -17 -24 -9 10 -10 8 22 24 45 -36 -7 -45 26 8 54 18 -32 9 45 
7 33 76 61 -4 13 -30 -12 72 -10 9 -23 43 36 -16 -42 -12 -113 2 -13 26 15 58 23 21 47 4 20 16 -251 0 69 -19 40 48 48 177 -6 58 49 40 67 -41 59 21 -21 41 14 0 -3 60 45 -3 35 -16 116 24 69 -21 118 75 50 53 48 13 -81 -12 112 -158 -7 43 50 -26 23 23 28 -2 -39 13 41 65 41 31 52 48 42 66 46 31 77 42 -22 -23 -31 55 63 28 38 42 -28 23 50 25 40 20 -29 -10 28 22 9 21 42 59 -39 15 26 26 8 58 47 -8 36 65 -12 -47 82 -6 -15 36 43 60 9 41 64 -74 -35 55 -4 -25 -8 52 43 -10 6 39 43 35 41 35 9 28 -10 12 96 30 -14 35 -14 49 55 50 46 75 56 63 34 60 -55 45 53 19 12 -9 40 -49 -10 -55 55 14 75 32 -45 2 -2 15 19 38 32 31 109 -7 -34 -26 49 33 80 45 -38 38 43 
44 67 75 93 15 18 -22 34 120 -54 -22 -11 100 68 -74 8 21 -118 14 -11 20 12 39 -9 -7 72 0 91 17 -246 -18 82 -18 56 60 83 226 20 83 76 53 67 -6 56 62 -13 66 75 18 6 60 65 -7 45 14 178 29 86 -20 176 75 66 76 88 -14 -103 -7 192 -146 10 53 74 -5 76 -18 32 0 -46 35 70 67 60 5 79 72 83 72 110 56 119 61 -26 -22 -50 68 97 95 53 35 -54 34 73 16 80 25 -65 -6 83 51 16 76 71 61 -55 11 50 67 -11 50 29 7 39 95 -16 -25 138 -15 -12 62 99 65 -7 75 115 -91 -43 70 -35 -43 -5 87 83 -12 45 80 50 53 71 35 -42 0 -4 4 125 67 -19 32 -19 65 82 72 49 132 56 91 78 104 -27 83 82 13 7 -13 45 5 9 -80 66 23 93 72 -73 19 -24 -20 8 78 47 11 172 -12 -12 -128 84 74 111 65 -13 92 69 
4 88 97 145 -17 37 13 26 145 -61 -4 -23 125 105 -97 6 11 -221 14 -32 46 -16 10 -18 -2 86 14 129 44 -202 -9 117 1 83 85 64 297 7 102 113 73 82 4 60 37 9 112 112 45 -8 97 91 -26 50 14 199 17 78 -19 202 111 113 84 116 -4 -146 -19 196 -115 11 68 100 13 101 26 42 -13 -49 31 99 50 50 8 87 89 116 102 142 99 127 112 -8 -13 -30 82 105 118 74 -12 -14 56 101 7 76 9 -20 -25 112 102 -9 117 90 63 -15 3 96 72 17 63 51 -6 91 119 -25 -17 151 -21 2 66 92 60 -35 115 135 -50 -81 90 -6 -6 -13 78 80 4 69 105 43 92 110 6 -51 11 -35 35 162 75 -19 59 16 62 71 50 74 132 74 132 84 124 -11 122 109 2 -28 17 78 14 -10 -43 102 21 111 58 -84 2 -5 9 -3 119 73 36 206 -36 7 -139 97 110 99 94 19 128 92 
-15 164 149 208 2 -22 3 90 197 -74 -27 -3 162 126 -78 -20 17 -208 11 -39 126 -25 -20 -26 -8 156 47 140 100 -59 -6 180 -45 136 141 131 325 11 133 141 103 143 27 118 131 10 162 133 15 16 121 138 -37 132 -30 267 1 161 3 262 196 146 156 177 9 -159 3 280 -40 -1 120 172 -14 177 1 110 -15 -17 -4 158 -18 125 10 166 163 189 160 147 158 171 140 15 -2 -41 166 162 151 150 -56 -31 114 131 10 140 -8 -19 -26 180 126 16 144 143 135 4 -79 113 116 12 154 54 -14 125 179 4 21 208 13 -24 127 145 117 -49 202 175 -15 -30 147 -43 -7 15 136 114 1 129 146 -25 150 158 -45 -32 -6 -53 -10 202 123 -24 102 19 151 123 122 151 209 133 183 127 173 -10 167 155 -5 -7 -9 135 -20 -34 -50 117 16 185 123 -30 -21 -8 -52 -86 178 163 -3 268 -30 0 -129 158 172 114 133 29 162 143 
-17 198 221 240 2 -7 -13 96 142 -46 -6 -20 220 183 -29 -12 12 -243 19 -90 112 -20 3 -22 -29 192 36 221 169 -75 -28 209 -18 172 133 99 284 -8 150 192 86 170 16 86 116 5 207 217 26 -14 106 199 -10 150 -16 189 20 154 -8 286 216 195 161 208 19 -196 13 188 -44 -6 155 155 -16 190 26 31 5 -11 -7 152 -12 102 -7 159 173 213 140 194 151 205 129 17 29 -46 157 140 150 96 -175 -10 103 114 3 167 -2 15 -11 160 156 -2 155 123 132 -2 -44 92 113 -1 92 20 6 147 173 -18 32 182 32 -34 128 141 51 -14 189 141 -49 76 138 -37 18 26 146 117 -17 164 199 -129 123 149 -63 -43 -3 -60 7 209 164 -40 109 24 109 114 35 162 139 87 240 155 218 7 178 177 -18 -11 -13 181 -15 -3 -29 130 -51 225 44 -46 -15 2 -51 -79 201 140 13 197 -18 13 -73 179 196 146 113 33 167 101 
-3 161 167 207 22 33 -2 110 65 -33 -7 3 153 171 7 -16 10 -192 -9 -81 45 11 15 15 -11 175 37 185 141 -111 0 163 9 139 69 52 227 -6 107 181 0 175 48 26 24 -2 141 196 27 -9 32 145 13 79 -29 113 20 94 -18 219 170 140 127 181 -1 -130 14 115 -74 -10 106 120 5 136 16 -61 19 -24 25 106 -9 47 -73 134 132 190 113 139 109 157 92 35 34 -23 91 119 127 56 -211 34 67 92 19 131 -4 -8 -15 137 101 -3 125 77 114 2 -75 37 35 5 36 32 25 64 146 5 28 126 67 -28 97 131 16 0 170 75 -91 92 103 -24 -9 9 114 47 19 149 206 -53 50 93 -20 0 -11 -25 -23 156 119 3 79 15 54 96 -19 114 59 14 199 109 197 -5 131 142 0 0 7 154 5 -10 -8 68 -67 164 -16 -21 -29 -2 -17 -75 161 112 5 156 -9 5 -32 127 185 125 88 26 150 49 
-1 102 125 163 -26 21 -8 60 57 -29 0 9 113 146 -8 -5 36 -174 3 -46 69 -13 39 3 -1 113 24 152 114 -146 -30 148 16 93 85 61 177 -24 95 123 34 137 9 42 56 5 103 148 29 7 47 124 13 75 -12 99 25 63 -21 141 109 97 86 135 19 -188 3 95 -75 -22 107 70 1 126 16 -39 14 -29 23 94 10 46 -86 106 98 123 105 100 95 140 82 8 24 -1 70 108 64 28 -202 2 48 78 -12 113 9 13 18 118 104 -21 104 69 85 -22 -155 65 26 2 9 28 27 68 88 -8 44 97 27 -8 89 92 0 28 116 74 42 48 97 -18 -7 5 93 43 12 114 135 -44 45 91 -3 50 10 12 1 123 110 -12 85 17 33 73 6 101 64 33 152 90 142 -18 106 110 29 -13 -3 111 -4 7 -22 86 -72 114 -2 -18 -46 4 16 -136 105 83 -1 105 16 13 -28 83 146 94 78 39 119 45 
-6 58 73 106 0 -6 9 31 62 -29 21 18 85 69 10 -17 26 -115 -14 -9 60 1 10 -2 -28 72 28 112 61 -110 -5 89 -4 53 68 56 102 1 39 110 24 93 13 41 37 -5 55 96 43 -9 14 81 0 48 1 60 10 61 1 73 67 71 67 102 1 -130 5 43 -38 -1 42 40 -10 69 -5 -9 -1 -17 14 49 -15 54 -101 62 48 88 72 67 69 71 56 10 -10 9 39 57 61 16 -192 5 44 35 10 79 -2 6 21 63 76 -6 55 35 79 13 -168 40 25 3 24 41 -8 65 82 -20 16 75 31 -2 51 53 0 -1 62 32 14 8 71 -1 13 -6 57 44 -5 66 116 -25 26 67 13 45 3 -7 -13 56 75 5 54 14 43 37 30 66 35 11 94 59 90 2 63 85 31 -5 -19 97 -20 -2 0 54 -75 69 15 19 -44 6 -12 -130 69 70 -25 69 17 5 -20 47 73 36 61 20 51 45 
0 11 0 32 -14 9 -13 3 3 -16 -9 -10 28 -1 18 -5 -8 0 -13 -23 9 1 19 -10 -27 25 -1 -3 22 12 12 4 15 14 19 -3 30 -9 19 27 23 30 19 14 25 -2 26 15 33 9 13 15 16 27 2 -5 -10 21 5 23 24 3 16 11 0 -42 9 1 -5 -6 20 12 3 24 14 21 -14 8 17 -2 -2 -7 -67 -13 8 2 32 28 24 -5 20 -3 -16 -14 24 0 4 0 -101 13 31 21 -6 3 4 13 -18 -4 15 11 -12 14 5 5 -110 6 27 -21 7 26 -2 -3 -4 -24 7 -19 28 -5 4 -8 8 16 26 11 -19 51 18 -15 7 -2 -1 -6 2 16 4 -16 29 9 -15 -4 6 -10 -6 -1 27 -16 12 -17 4 21 17 6 -2 16 13 8 -5 -9 5 27 30 9 13 16 3 15 -18 25 -45 18 20 -15 -51 -11 18 -56 9 -1 -13 15 7 -1 7 25 32 2 -8 -6 1 21 
-1 -21 -29 1 -8 -11 -4 16 -13 -9 17 -5 -21 -29 -10 11 -10 -8 -12 -4 0 18 -18 11 -30 -11 5 -13 22 -11 15 10 9 4 -6 -8 -31 8 -19 -35 -5 -18 -1 -13 -14 -13 0 -9 -14 9 -29 -7 -2 -3 -16 -4 2 6 13 -18 -13 -27 -4 -9 -7 -15 -15 -14 7 6 5 -1 10 -18 -10 -22 -8 9 17 -6 -6 7 -6 -17 -3 -12 -1 -4 7 -28 -7 -8 12 6 -13 0 -17 2 7 1 -20 -22 -16 -19 -19 11 4 -14 7 -19 4 -2 9 -13 -102 1 -20 -12 -5 -14 8 -5 -15 -17 11 -27 -2 -9 8 6 -3 -6 -19 6 -1 48 -11 2 -14 9 -12 -13 3 -16 6 17 -11 -10 6 11 12 -8 8 -16 -22 -19 -1 10 -24 -8 -28 -26 -17 3 3 -3 -20 7 -3 -14 14 1 2 6 -18 -4 13 8 -11 -15 -14 19 -16 -9 -2 -93 -5 -8 8 -22 10 2 -4 -26 9 -33 -22 4 -5 -11 
14 -31 -28 -37 -12 -4 4 2 -19 -18 -6 18 -8 -14 -17 17 6 -12 -8 -22 -20 -4 8 -19 -4 -10 -8 -18 17 -3 9 -5 -5 6 -7 -29 -15 3 3 -31 -13 -13 -12 -8 -21 9 -13 -9 14 2 -31 4 -9 1 -14 -35 15 -16 14 -17 -3 -18 -5 -11 15 6 17 -28 -6 -13 -9 -4 -17 -10 14 4 -13 -12 22 -23 -1 -11 -16 -11 -15 -30 -10 0 -4 4 -12 12 5 1 -13 -3 -12 -24 -9 -3 2 -15 -9 -14 5 -18 -17 -25 -4 0 -10 -6 -10 -4 -11 -7 -16 -19 5 9 19 -28 -15 -15 -9 0 3 -4 -13 -3 4 0 -17 -4 -23 31 -17 -19 17 16 -6 -28 -6 -8 -9 -15 -2 -26 7 9 5 -15 1 -46 -5 8 -6 -3 -14 -14 2 -17 -24 -28 -4 -29 -31 -7 -10 -25 56 -7 -18 -15 -4 9 2 4 6 -6 -13 -20 -3 2 -10 10 -30 -35 -8 -24 6 -13 3 -15 -16 -19 -2 -2 -2 -28 
2 -14 11 -14 1 8 9 14 4 -3 9 -14 -9 -4 -15 -6 3 -4 10 -23 -3 2 13 14 -17 -18 3 11 -1 13 13 19 -14 0 -8 12 16 14 -5 6 17 -5 -12 -6 -15 4 -17 -16 -11 -17 0 2 -9 8 -12 18 -9 -9 -13 -4 19 4 1 0 -6 -12 -19 -16 7 0 17 -8 9 9 12 6 -2 2 20 -18 12 14 -10 10 12 -17 2 13 -17 3 -20 -5 -20 1 -18 -9 3 8 8 5 -6 12 10 5 2 -16 -17 18 7 12 -12 -7 -9 17 10 13 19 -2 9 -16 -19 16 -11 1 -10 9 -17 -15 11 10 8 -2 -15 15 0 56 14 -7 -2 -11 18 -19 -3 -8 15 -8 -11 -12 -17 5 2 -5 1 -9 -17 10 6 -12 7 6 12 -12 13 13 -12 -3 16 19 5 3 40 -8 -13 -21 10 -3 -13 -3 -14 -9 -4 12 -10 10 -12 14 10 -7 -2 -4 18 -19 -3 9 4 -15 1 0 -19 -3 
-19 14 15 -6 4 -15 -12 12 -5 -16 -8 -3 9 19 -14 1 -12 16 14 -9 5 17 7 -17 -17 -20 1 -5 11 -11 -2 11 -8 9 -1 12 -7 -12 5 -7 16 6 0 -18 -6 18 -16 -15 3 -17 2 -7 -13 2 14 11 1 19 -17 18 15 -2 18 -2 5 14 -13 -11 19 14 12 -2 1 -8 -2 19 18 17 -19 -15 8 11 16 1 17 5 -9 1 11 -7 0 -16 -12 -11 2 14 -7 -20 -12 -1 7 -11 8 9 7 -12 12 4 -18 16 3 -14 -4 13 14 -9 6 18 9 11 5 6 -5 13 18 7 -1 10 -17 19 1 -9 15 -6 18 10 0 -4 -8 -8 -16 7 -8 12 -18 12 13 -6 20 2 -19 -1 16 16 -14 -14 -7 5 6 11 -13 19 3 0 18 -2 10 -13 -10 6 10 0 -9 5 -20 -10 -18 -9 -10 -5 14 -5 -13 -11 11 -19 -13 -17 10 -19 10 -16 9 -5 -5 -15 0 15 -16 -14 
9 4 12 -5 -13 5 -15 -16 -3 -16 6 -14 1 -1 -5 14 7 -9 -1 -5 -4 6 -6 10 10 -2 -17 -17 18 7 4 -9 15 4 -19 10 -11 -3 -3 3 18 5 -17 -2 -5 5 13 10 19 -8 14 -17 15 8 13 -7 5 17 -8 13 -17 13 -18 11 -14 16 12 -11 12 12 -6 -1 -19 0 17 0 -19 -12 16 8 -9 -7 16 10 4 -2 12 -12 19 -18 -3 -4 -9 8 -19 -11 -7 -17 -14 19 0 -12 -2 -13 15 16 -12 15 -2 -10 -11 1 19 -8 5 13 -6 -7 15 11 2 -13 -8 -19 11 2 -14 6 -11 9 15 -12 -6 19 -14 -16 -9 -19 0 -12 -2 -6 4 -12 8 -10 -4 -9 17 -16 -2 -17 -12 17 -17 0 2 2 -19 6 13 -18 -13 -6 1 -13 -19 -2 13 7 5 -2 14 -8 5 18 -3 -20 -18 9 18 18 -15 16 -7 1 -13 -12 -20 -16 -10 -20 -7 -2 14 -14 -11 19 1 12 
9 -2 19 -18 -3 0 8 2 -6 -16 -5 19 4 -15 15 -3 -17 -7 -20 1 17 -12 -11 -15 -7 1 15 -17 -17 -14 12 2 -4 -6 -7 -13 -5 -14 -11 -3 8 -20 3 12 -1 12 1 -1 0 3 18 1 -14 14 1 -20 -10 15 15 -17 6 2 -9 1 -3 11 -16 14 0 14 11 19 -18 -18 6 12 4 2 -9 6 -12 14 -11 9 -2 -18 3 -10 7 0 14 10 -14 2 2 1 -11 17 -8 -17 -19 -20 19 -5 -12 -8 3 -3 18 -11 -7 17 1 17 -12 -4 -2 4 19 14 -19 4 -4 -7 4 10 5 -7 18 -20 9 -19 -15 -20 -19 -19 -13 17 3 -4 17 4 -17 16 -7 -2 16 -8 -8 0 17 -19 -18 -13 -7 3 2 -6 -16 10 -2 -20 3 -7 13 -2 -7 18 -15 9 6 12 -15 15 16 -20 -5 -20 -15 5 15 19 -19 19 -19 6 -4 18 -2 -14 10 -20 9 18 5 18 -1 11 -2 10 
9 -8 -4 -5 19 -2 5 13 0 3 -9 -4 -8 -5 -18 7 -9 19 -9 -13 0 -6 -12 -10 10 -12 16 9 1 -15 -2 13 -8 -11 -19 -15 14 -14 15 10 7 3 -14 -19 -3 -7 -18 1 -10 4 0 17 -1 10 -10 0 17 -4 -4 -19 11 -7 15 -7 16 18 -8 15 3 -7 3 -12 16 12 1 15 5 -2 11 -14 1 -1 16 1 11 18 0 -13 6 -16 9 7 -13 -20 2 -7 0 7 -9 -3 16 -4 -20 2 3 14 5 3 0 8 -18 10 -8 -18 6 -2 12 -13 2 15 10 2 -17 -9 19 -8 -9 3 9 -14 -8 10 -17 -5 -15 -19 1 9 -2 -8 -17 1 -10 -16 11 -9 12 -18 3 -13 19 11 -13 0 5 12 3 7 13 7 1 12 4 -10 -8 -1 17 -11 1 13 -20 -17 -15 0 -11 -19 -13 12 8 1 7 3 -4 8 -12 -12 13 -18 1 -8 6 -9 -6 -19 10 -13 -7 -18 5 17 
-4 -14 -9 -1 -18 4 9 -15 -16 4 11 -8 0 12 -19 -3 -14 -11 13 -2 7 18 0 -8 4 -3 12 7 4 -14 -11 9 16 1 6 1 -18 -9 -5 -13 -8 15 -11 -13 -1 4 -18 3 7 -13 14 4 -12 -1 -20 13 -18 -3 8 10 1 17 1 6 15 -8 -5 -19 -14 0 3 3 -11 -11 -18 -7 19 -3 -17 17 18 6 -9 -8 -7 14 10 3 -8 3 16 13 -18 -3 1 0 1 17 12 18 17 15 17 -14 6 6 -10 11 -12 -18 -9 8 -4 6 10 0 5 15 18 -19 10 9 1 -17 13 -19 -4 -10 4 2 2 0 12 -12 -11 16 -4 -6 -4 8 11 6 -8 16 12 3 13 7 8 2 11 17 13 13 -2 17 -18 -8 3 -15 -6 -11 13 17 18 -17 6 -4 -11 17 9 -15 -17 -1 -8 0 2 -11 1 -5 2 7 -17 -17 8 17 -10 -13 -9 16 -10 -7 19 16 -20 -6 19 0 14 15 
4 3 -3 5 16 16 16 -15 -2 -4 6 4 -12 -2 12 0 3 -4 -8 -4 18 12 -19 -19 -3 -11 -7 6 -1 -17 -13 16 -18 0 16 5 -2 -7 15 10 -15 -16 -4 -4 -3 7 19 -12 -18 -19 -18 -19 14 -12 16 13 18 19 18 19 -1 4 -19 8 13 -8 2 -7 -14 18 -17 -20 -14 -6 11 16 -2 19 -12 -14 10 -18 -10 -11 -12 16 -10 18 17 -6 -8 17 -6 16 6 -9 8 -12 -14 16 3 19 -2 -2 1 16 2 18 -19 16 -2 3 14 -2 17 13 -13 8 -7 -4 3 10 -5 -15 1 17 5 -12 -17 -6 -6 3 10 -12 -10 9 -9 3 10 10 5 15 11 6 -13 -3 -18 5 19 -12 -1 2 -1 -13 -6 3 2 16 -7 -9 -5 4 16 1 6 -3 5 -4 19 12 -5 -16 -13 -7 9 -20 0 19 -1 -12 4 -20 -7 -19 13 -19 -1 -18 -9 6 3 2 -5 8 -12 -5 -1 -10 11 1 
5 -15 -11 -13 -15 -20 -15 -19 13 0 18 -14 7 -15 6 -12 -11 -8 16 3 16 -15 19 18 -17 0 -16 -8 13 0 10 13 -2 4 -16 -5 -2 -14 11 -16 2 12 0 -7 3 -15 16 0 -16 -4 -2 -15 3 -5 9 2 0 -6 19 -15 -7 17 8 -6 -11 -4 11 -15 2 -7 -10 -19 -8 -9 9 6 8 -3 13 -7 -11 -7 -15 -15 10 3 -20 -1 -11 0 4 -3 -6 19 -1 -8 -6 -7 16 5 -11 19 -4 -3 14 -14 -3 12 -9 -10 -18 6 -19 7 -7 -6 -4 0 14 -12 -18 -7 -20 -18 0 -4 5 6 14 -6 -3 14 -8 -17 3 -8 -19 -5 -5 0 -9 18 3 7 -1 -1 -3 -3 2 4 -3 -17 -13 5 -13 9 4 -2 -5 13 8 9 11 -19 3 -3 4 5 11 -13 -3 -11 16 3 -4 -19 19 15 14 10 19 -10 18 8 -11 -4 -15 16 13 -1 -8 -3 0 -11 -15 -15 4 5 15 -11 
-14 19 9 9 19 8 9 16 1 0 -3 -16 -9 -10 -11 -8 -12 -2 -2 19 -5 -7 14 5 6 14 1 11 13 -18 -12 0 -14 9 0 -20 -17 -8 17 15 18 3 16 8 -9 -12 -3 15 6 19 -7 1 -17 11 -5 -19 -13 -12 -15 18 -19 -14 18 -4 -15 -1 10 15 -20 13 -3 3 -11 -17 -17 1 1 0 4 -20 -11 3 3 -5 0 12 -8 -10 14 7 18 15 13 -15 2 -4 9 19 6 2 -5 6 13 4 -14 11 -20 -4 -8 10 0 8 -16 -2 12 1 6 6 -19 -8 16 -1 -20 2 19 17 5 14 2 -9 -2 12 2 19 17 17 9 9 -19 -16 1 10 -6 11 -17 12 -20 10 1 -16 10 18 16 -19 -1 -14 -6 -5 -7 -13 10 -14 8 -2 12 -20 1 -14 -13 -16 -5 6 -18 -16 18 -5 3 -3 11 -10 18 -14 7 -19 -2 -17 -13 -16 15 -9 -18 18 -5 12 13 -17 -10 1 -4 8 
-8 7 -2 -11 -2 -20 -17 3 -5 -14 8 14 -8 12 19 1 -6 6 -9 -5 12 -11 -2 -12 -12 -3 -11 16 -6 -14 -12 -5 6 0 -10 14 1 7 3 1 -16 -7 12 18 4 -10 -9 12 -19 -5 -4 -20 16 -2 7 -8 6 -19 -8 5 -1 15 15 2 -9 18 -13 -15 8 -1 -12 14 16 12 -1 17 13 16 -13 17 -10 12 10 -6 19 -8 18 -9 0 4 13 9 14 8 6 -10 -6 5 12 -19 -14 -18 19 9 13 9 1 -20 -13 19 -9 -18 -19 -5 9 -18 14 5 8 -16 18 10 -3 -16 -11 -11 8 -18 -16 1 19 3 -1 -14 0 3 -2 18 -14 10 -10 -11 3 -20 19 -10 9 16 0 11 14 -20 -4 -9 -16 -17 -18 -1 15 -5 -9 -9 -18 10 0 -3 -5 -5 -4 13 -6 12 7 -1 -18 -14 -17 -1 -15 7 9 -12 -17 11 -9 19 14 -18 -15 4 1 5 17 -3 -2 3 -12 -3 3 2 
8 -8 4 14 4 11 9 9 -3 13 19 -5 -10 11 -15 -20 2 -18 -17 4 8 -11 7 3 6 -8 18 9 11 -4 -6 19 -4 2 -15 7 -12 12 9 20 5 4 6 -6 -2 -5 -6 19 5 1 7 -2 1 23 -15 17 -10 -16 -20 9 18 -3 10 -1 -1 -13 -7 19 9 15 -13 -4 -16 3 -7 -7 -7 18 4 18 1 -2 -15 12 12 1 -13 0 10 10 22 -17 -20 -20 20 -14 -15 23 -21 8 11 -3 2 12 13 12 -12 15 19 -5 -8 -5 17 -6 -6 9 11 -14 -3 -6 -15 20 -15 6 -18 17 16 7 5 18 -7 -5 -10 8 -32 -7 21 -2 -8 14 -15 10 -11 -10 14 18 18 21 -8 -22 14 -8 -16 8 17 -9 -4 -20 17 18 -12 16 10 7 23 11 -13 19 7 9 13 -18 2 7 1 -15 6 20 -3 9 22 -6 -9 5 -9 0 14 5 19 -11 -7 5 12 9 0 -14 5 19 13 17 
-13 -24 11 -29 6 18 -10 5 -15 -2 -9 0 -28 -14 12 7 -8 6 18 -3 4 4 10 -8 -12 -9 17 -8 -4 -20 -13 -7 17 2 -15 -6 -4 -13 -15 -29 -15 4 -13 -19 13 17 -15 -17 -3 -3 12 -15 11 0 17 7 9 1 -9 -7 -21 4 -22 -4 -10 17 -6 2 14 6 -14 17 -10 -11 9 -12 -7 11 -14 -20 -26 -19 -3 -22 -18 -26 2 3 -16 -6 -17 -20 -9 2 -12 -2 -5 -10 -13 7 -16 -10 -7 2 -12 17 -12 -14 -6 0 -28 -22 -1 -11 -18 -3 19 -15 19 0 -18 -15 -25 11 5 -1 7 -13 16 -8 -10 -4 -1 10 -8 -5 10 -5 -15 -5 -2 1 -1 -28 -5 15 -16 4 -6 -19 1 6 0 -21 11 -16 -9 0 11 -6 11 -17 7 16 -8 -4 -25 2 -10 11 -15 -11 -12 7 -1 -14 -3 3 -4 -8 16 -18 -9 -20 14 -11 -20 -20 11 -12 -6 4 16 6 -4 -18 -17 -9 -16 -13 
-6 -27 14 -24 16 -9 3 13 -23 8 -4 -25 -34 -17 -18 1 -17 20 6 -1 -30 9 13 -15 -17 -3 -4 -39 17 14 -16 -21 17 -37 -7 -12 3 12 23 -27 7 0 16 -15 -8 -11 -20 -6 5 -3 6 -41 17 -2 -11 -6 -13 -11 -6 -32 -4 -4 4 -36 -10 -5 -5 10 -4 13 -29 -14 0 -18 -10 19 15 17 -18 -8 -8 14 -18 -37 1 -23 0 7 -5 -22 -29 -2 10 0 -24 -20 -11 11 -12 8 3 -27 -17 -33 8 2 -12 -8 -31 15 -9 -32 -13 2 -13 4 6 18 -21 5 0 13 -24 -8 -9 -18 17 21 -9 -14 -7 -1 -35 8 -22 2 -11 -13 14 1 9 -16 -9 -18 -41 13 -8 -6 17 -13 14 -5 8 -14 1 13 11 -14 6 5 -20 -12 -18 -11 -34 -12 -10 21 -12 -20 -16 15 -12 -17 -15 17 -4 -7 8 -19 13 2 -8 12 11 15 -31 -17 18 -13 -18 -9 7 5 -27 16 -19 -22 -17 17 
21 -31 -17 -14 -12 13 3 1 11 4 17 -22 -3 -28 -11 -16 13 -14 1 -10 -10 -4 0 1 -6 -3 11 -39 -13 6 3 7 0 -24 -15 -1 14 11 33 -39 -20 8 10 -20 0 -8 -2 -14 10 -14 9 -21 -12 -39 -15 -23 -2 2 9 -47 6 -25 9 -21 -13 2 13 -20 14 -7 -31 -18 14 -29 -2 1 0 25 -14 -18 -2 0 -14 -4 -6 -35 -10 -6 -13 -47 -31 22 -9 -6 -26 5 -27 -20 -57 -1 3 2 13 -23 5 -7 0 -16 -11 -16 -29 -33 4 16 17 2 11 -3 18 -7 -13 6 -8 -18 19 6 5 -4 11 -24 -10 -1 -17 -20 -62 -18 -2 -11 21 18 2 8 -15 -48 -47 -29 -7 6 -58 -11 0 -17 -10 -9 -10 13 -2 9 5 -8 4 -32 -18 -3 -36 11 -24 -7 13 -11 -19 13 3 -38 -19 -9 -26 -2 15 -29 -1 -13 -3 11 3 5 -43 -5 -2 13 4 -17 -3 2 7 -18 -20 -25 -19 21 
33 22 42 29 19 12 -12 -3 25 10 -1 -2 3 -21 14 -107 16 -34 14 6 -13 4 35 29 -1 44 19 18 -22 -40 -4 42 -3 -20 -6 27 111 10 56 -3 5 53 -55 15 22 -11 17 6 10 -11 33 -16 -36 -28 -10 33 27 39 1 -22 54 51 47 -12 -19 -31 -7 57 0 -35 9 27 2 13 18 21 -5 -7 -7 2 -16 -12 -9 -14 33 14 13 45 15 18 1 7 -5 -37 -2 42 29 15 -70 -24 7 -4 2 30 18 -16 -14 14 25 -5 -6 0 0 11 0 11 1 10 17 37 -12 -18 1 0 -20 70 11 11 33 50 20 -15 23 39 -53 -11 9 -39 -20 9 25 -12 2 -20 -13 18 15 25 -36 4 20 -13 15 41 10 6 3 4 12 17 22 12 53 6 11 55 14 -7 40 26 -67 -4 9 -19 -96 -1 -31 -19 22 -1 26 20 -27 11 -27 -8 -8 22 18 52 -1 9 -89 31 41 70 34 -68 27 29 
18 -40 14 -19 -6 -4 -20 12 34 14 8 -20 -36 -59 -2 -100 -6 -72 -8 3 -52 22 36 32 -8 18 -4 -53 -8 -121 1 35 -39 -54 -30 -35 110 -2 71 -57 5 18 -146 -36 22 -31 3 -56 19 -24 7 -59 -24 -60 9 31 11 25 8 -16 12 -2 12 -51 2 -59 -71 55 -58 -14 -48 29 8 -20 -4 65 -14 4 13 -47 -15 -18 -8 -67 27 19 -55 11 -61 25 4 -3 -40 -67 -46 6 14 -25 -10 -3 -55 -11 14 -26 20 16 -48 -61 -44 -23 -53 -51 -46 26 38 -47 -8 -8 19 -6 -7 -46 -3 9 -21 41 -5 5 -22 -11 40 -20 -35 25 -59 -36 -5 -32 -38 -14 -21 -34 -18 -71 -71 60 -26 2 -4 -13 11 -70 3 -9 -74 -6 -16 -28 8 -33 13 -68 28 6 -48 57 -49 -26 17 16 -97 27 -11 -58 -112 21 -55 -42 11 -32 14 17 -12 5 -22 7 -40 5 25 42 -27 -3 -80 21 -12 52 -19 -40 -46 34 
44 -58 15 -1 2 12 -2 -6 51 -25 -7 -13 -18 -71 -30 -132 15 -192 18 -1 -78 2 38 8 -9 20 10 -43 -5 -130 5 32 -51 -41 -67 -23 184 -19 125 -37 -19 19 -109 -18 21 -23 24 -35 29 0 13 -42 -42 -56 -17 137 25 41 -10 82 56 15 11 -76 -15 -203 -132 151 -46 -1 -69 39 -13 -36 -15 64 -1 1 -16 -20 -10 -31 18 -62 28 3 -53 31 -55 35 -5 -16 -40 -59 -34 7 8 -29 -29 -15 -41 -8 -21 -39 33 1 -27 -35 -54 0 -50 -51 -56 -18 20 -23 -49 13 36 -12 11 -31 -8 -34 -21 109 -23 12 -7 20 27 -45 -25 61 -143 -79 -33 -52 -42 -12 -29 -49 -9 -72 -82 50 -14 2 -2 -34 21 -56 -20 47 -48 5 -39 -18 19 -34 5 -81 77 -3 -16 39 -56 -17 21 8 -37 12 14 -84 -97 -19 -81 -39 24 8 53 -16 -49 13 -41 16 -24 -3 26 153 1 -1 -130 27 10 56 20 -49 -37 42 
37 17 126 90 -16 -4 -58 -10 92 -83 3 -52 28 50 -94 -106 30 -221 3 32 -63 3 -14 8 -16 123 22 56 3 -186 -14 65 -25 -24 -36 -4 285 -38 34 108 -26 59 -100 -34 -37 -14 33 52 18 6 12 -20 -24 -20 -9 158 28 75 -35 85 110 126 25 27 -7 -216 -138 264 -107 -1 -18 66 2 17 -4 13 -30 -23 0 -4 -84 -21 35 -16 61 59 -36 135 17 112 51 5 -26 -84 -9 37 92 21 -24 -46 -17 52 -4 62 20 -10 -38 -1 -6 10 1 -11 -17 -19 30 -16 -42 -18 -9 -10 -29 -31 20 -57 -35 165 -37 4 42 64 2 -19 60 72 -218 -129 12 -28 -77 11 29 19 -20 -8 15 49 -7 27 -11 -22 27 -54 -4 187 -30 -8 -31 -28 33 6 -23 -39 118 0 55 79 50 -27 70 66 -7 30 4 -11 -97 5 -79 18 31 89 14 -31 -32 -11 -46 53 68 47 11 245 -13 9 -187 66 61 123 70 -36 29 94 
27 51 135 116 -22 8 -61 13 95 -75 9 -29 82 74 -120 -113 21 -217 8 14 -102 16 -39 3 -21 130 -10 113 26 -259 14 107 -23 -18 -15 -4 312 -36 45 148 -47 114 -91 -92 -63 6 96 109 35 2 8 11 -33 -55 4 161 25 68 -50 142 132 123 77 28 5 -214 -215 248 -142 18 -8 116 3 62 -5 -111 -14 -37 11 21 -12 -66 29 33 104 108 -2 114 30 122 28 14 -37 -78 14 94 114 -38 -5 -12 -67 50 5 76 22 -80 -17 14 1 -15 20 -62 -45 -3 -18 -53 -101 -16 -52 -10 -68 -32 74 -67 -5 159 -57 7 66 139 -47 -40 88 57 -178 -133 41 -31 -98 -17 19 -14 1 18 19 84 -37 50 32 -47 48 -59 -29 186 -10 2 36 -22 -6 2 -71 -7 99 -77 64 97 93 -30 76 130 -4 6 -7 -7 -74 -30 -87 11 39 119 -43 -36 -92 8 -59 -54 100 48 0 242 -20 0 -228 104 109 177 65 -57 42 41 
-28 56 73 58 -21 -7 -31 3 112 -57 3 -43 69 16 -96 -151 18 -221 -4 -30 -96 -5 -47 -32 7 101 1 36 50 -161 -10 94 -28 -12 0 33 178 -44 5 54 -72 97 -24 -94 -117 1 72 10 50 10 10 26 -21 -62 -26 137 -4 78 -42 108 82 19 79 33 -10 -219 -201 158 -77 36 -29 71 12 99 -6 -78 -22 -8 -6 60 -46 -105 32 42 103 110 3 58 27 39 27 8 -28 -89 6 89 81 -39 -196 10 -66 27 7 27 37 -79 -18 64 24 -1 21 -56 -4 -8 -82 -20 -130 -29 -1 4 -25 -21 101 18 29 131 -100 -22 66 103 -55 -54 66 63 -161 -67 58 -9 -81 -61 56 -5 -20 0 -13 -129 -53 36 -121 -69 38 -70 -32 77 -17 -24 18 -3 10 4 -63 5 118 -85 45 97 14 15 56 89 45 -18 5 -37 -91 -66 -62 -11 30 59 -37 -33 -103 -29 -38 -73 59 26 -25 146 -31 10 -227 82 99 98 73 -13 55 81 
-60 148 164 215 23 -27 -3 12 171 -65 -2 -12 170 159 -140 -255 32 -246 23 -100 -33 -5 -52 -12 19 123 7 180 138 -71 6 188 -43 66 70 95 379 -64 111 194 17 116 65 5 -27 -7 162 162 -61 27 46 131 -21 33 -22 247 -1 136 -45 221 197 160 125 123 -37 -193 -193 218 -47 13 52 128 4 163 13 -113 -32 -7 3 124 -73 -16 16 154 170 210 105 163 119 211 100 28 -13 -92 66 156 176 47 -309 18 2 84 37 120 30 -68 -10 143 112 -33 104 25 65 11 -210 49 -39 -61 -6 22 14 51 159 -98 21 243 -23 -21 139 150 -5 -64 197 143 -147 22 116 -65 -110 -2 136 50 11 100 150 -225 53 114 -111 -56 -34 -104 -24 219 80 -32 71 -23 45 86 -62 102 149 -37 184 120 187 -22 143 180 -5 -41 4 125 -164 -19 -54 74 20 187 -37 -13 -109 -11 -45 -148 190 107 -24 275 -64 11 -186 103 160 141 141 10 141 78 
-66 155 178 199 4 -24 -17 33 126 -30 11 -8 168 78 -143 -192 30 -228 26 -104 -15 -8 -45 -25 34 132 44 131 137 -110 6 228 -65 43 66 98 286 -74 129 153 -27 167 30 -7 -41 -11 186 124 -90 -3 37 98 -28 68 -50 160 17 128 -67 216 130 158 134 139 -82 -173 -77 147 -80 1 94 129 -4 158 3 -132 -31 4 33 99 -65 -14 -67 136 178 159 106 148 116 191 103 34 -13 -85 105 130 113 20 -519 7 -8 102 29 126 13 -5 -8 112 133 -31 103 26 81 -3 -223 2 -21 -96 -28 -22 24 72 142 -72 29 163 -22 -21 151 137 -28 -30 145 113 -159 46 113 -61 -146 40 75 55 -9 64 152 -355 61 110 -170 -59 -68 -73 -29 193 73 -42 71 4 49 91 -85 95 107 -19 155 115 140 -42 133 159 8 -47 -22 84 -84 -23 -44 54 -49 153 3 -51 -119 26 -14 -161 129 136 -48 205 -37 8 -75 123 171 121 105 14 135 91 
-80 132 115 152 19 -17 -4 -14 109 4 15 27 124 28 -47 -65 19 -290 20 -11 41 2 -12 -7 22 97 8 62 117 -171 -23 187 -17 49 84 118 140 -51 89 32 64 198 12 67 38 -20 141 63 -83 13 103 71 16 93 -24 153 21 112 -42 154 91 131 140 118 -110 -281 -63 123 -80 -40 111 133 -17 136 45 -24 1 -9 31 98 -33 42 -91 114 183 141 131 105 106 124 89 40 -29 -35 117 168 104 82 -607 12 27 73 24 108 29 47 -18 95 135 -49 87 42 85 11 -332 70 30 -79 85 -2 2 81 94 -20 14 94 -2 -9 164 135 72 -8 111 111 -37 -19 162 -39 -183 53 77 90 31 66 131 -478 77 130 -172 4 -61 -31 -74 136 115 5 92 14 91 117 40 148 92 17 130 142 127 -70 123 125 9 -38 -22 52 14 -32 -16 80 -73 63 58 -58 -91 37 11 -308 95 148 -64 75 -23 5 -51 147 168 138 149 66 138 139 
-44 112 33 52 9 -26 -10 19 82 -6 19 17 90 22 23 -48 69 -281 26 2 48 9 -19 15 5 6 -13 -1 49 -152 -43 62 9 31 56 76 52 -3 92 -5 77 88 -34 74 76 4 42 -14 -92 0 78 27 31 66 13 56 17 87 -6 25 42 26 90 35 -77 -309 25 50 -90 -66 74 69 -12 65 70 85 -22 -32 13 42 -40 34 -69 80 59 60 97 45 73 62 61 46 -25 -35 102 116 38 57 -617 36 27 83 -20 52 3 10 1 47 93 -7 39 10 63 6 -429 60 47 -65 126 26 20 92 54 -20 7 42 38 -20 115 34 97 6 60 72 74 6 114 -19 -115 24 62 72 34 -16 31 -509 64 104 -198 -5 -56 -7 -46 1 79 1 66 -10 118 82 86 73 108 43 54 80 55 -32 60 84 33 -14 3 -6 -12 -6 -27 49 -87 7 119 -24 -43 32 13 -371 10 116 -54 -13 -25 -9 9 47 92 41 103 64 76 124 
-44 27 8 13 2 -3 -15 31 83 -5 6 29 15 -19 5 -13 26 -188 23 -17 6 -15 -45 -1 -16 3 -13 -10 34 -87 -40 37 20 -21 64 61 69 22 31 -27 77 27 -98 90 29 -21 11 -10 -71 -33 59 -6 -17 33 3 -5 4 58 -19 -1 25 16 43 14 -66 -220 47 30 -50 -122 38 44 -19 23 41 149 -21 19 27 21 -26 32 -74 11 1 28 79 21 56 16 66 33 -17 -10 83 95 -22 64 -663 12 45 59 -13 4 6 22 6 24 47 4 41 -1 48 7 -481 56 74 -3 143 23 -12 49 19 -18 -23 12 23 -15 55 42 90 -14 8 56 24 18 45 -23 -67 7 7 92 2 14 6 -563 51 43 -193 15 -44 -29 -37 46 48 -4 7 -2 91 52 104 37 73 76 7 33 7 1 41 44 48 -37 5 -23 6 0 -15 48 -84 -17 144 4 20 1 -4 -404 2 78 -49 -45 8 7 -14 -32 18 -38 84 -69 6 87 
9 -43 -85 -56 -6 13 3 17 18 -30 -6 6 -42 -72 4 -13 6 -55 5 -14 -3 -17 -32 -22 -25 -86 -3 -66 16 0 -55 -35 -5 -61 -5 -10 -57 17 -52 -53 9 -17 16 20 -35 -20 -40 -71 -34 -10 -7 -80 -8 -11 -1 -82 13 -18 1 -80 -46 -61 -42 -71 -45 -48 23 -39 6 -63 -43 -21 -4 -45 48 88 3 25 3 -25 -9 -3 32 -31 -59 -47 -9 -72 -41 -43 14 -1 12 14 21 -1 -92 11 -248 -3 26 -9 -17 -81 -11 29 -10 -49 -9 -7 -19 0 -18 5 -307 30 33 -14 60 -18 1 -34 -65 -23 -2 -48 2 0 -24 -44 3 14 -61 -8 -97 4 -32 1 -82 -2 -27 17 15 -53 -80 -270 3 -29 -85 -25 -39 -19 0 -48 -40 5 -15 -26 28 -28 69 -35 19 -5 -73 -30 -67 -24 0 -49 -24 -38 5 -58 -4 20 -12 -45 -23 -71 50 1 0 14 -4 -233 -72 1 -1 -83 9 -1 -68 -64 -31 -115 -4 -149 -22 -24 
-34 -97 -109 -72 -8 -4 -12 -1 -43 13 10 -27 -93 -101 16 2 -12 -36 -14 -40 -37 -16 -53 7 -22 -92 2 -93 -19 24 -3 -88 -15 -87 -69 -50 -149 27 -62 -81 -42 -56 17 -72 -49 13 -116 -70 -12 -12 -29 -106 16 -41 -12 -110 -11 -61 7 -69 -89 -60 -54 -69 5 9 12 -92 -15 -55 -81 -57 7 -114 33 63 4 0 -12 -75 -8 -55 25 -85 -81 -119 -73 -68 -53 -79 -52 -4 -12 6 -82 -47 -103 -39 -82 18 -41 -73 -18 -78 -9 -2 -10 -92 -58 -10 -112 -52 -41 -4 -220 -36 -65 4 -17 -15 10 -46 -113 1 5 -119 13 11 -57 -94 -30 -8 -108 -47 -12 26 -56 -6 -30 -11 -110 -46 16 -67 -80 -73 -47 -69 -3 13 -12 -14 -29 -60 -80 19 -33 -10 -46 -60 -1 -86 -25 -33 -53 -93 -120 -17 -53 -121 -35 -1 -7 -60 -14 -9 19 -46 -3 -133 -18 15 17 3 -5 -152 -105 -77 -21 -122 -16 -11 -78 -114 -81 -161 -28 -51 -111 -60 
-23 -79 -65 -55 11 -30 15 9 -67 10 -12 3 -79 -102 22 -17 1 24 11 -35 -56 15 -12 4 24 -45 -9 -85 -16 -9 -5 -95 -4 -84 -61 -41 -90 -4 -30 -84 -44 -63 11 -65 -67 -7 -81 -59 -6 13 -45 -94 0 -65 20 -69 -9 -76 4 -63 -79 -67 -82 -85 -12 18 -7 -95 -19 2 -85 -82 -15 -76 -22 18 1 16 21 -96 -16 -27 6 -103 -74 -87 -83 -63 -53 -80 -55 2 1 -9 -99 -58 -70 -42 12 9 -44 -59 -10 -44 17 -20 -19 -78 -66 -9 -60 -43 -61 0 6 -35 -34 2 9 -32 -14 -67 -77 -38 3 -87 -7 17 -63 -66 -45 0 -70 -55 13 43 -39 17 -28 6 -93 -55 17 -77 -56 -9 -59 -47 -9 0 13 -13 -17 -51 -50 -19 -53 -20 -32 -61 2 -95 -96 -32 -37 -51 -108 -4 -63 -81 34 -2 -13 -78 -8 -7 6 -51 -12 -76 4 3 5 -6 10 25 -92 -43 -14 -116 -5 -5 -114 -63 -55 -105 -33 -23 -84 -46 
-32 19 45 29 -14 -6 6 0 35 -2 -10 3 46 35 9 -12 -7 22 11 2 37 -11 5 18 10 35 -18 31 14 -13 -7 11 -13 20 35 19 13 2 7 28 36 10 -3 43 37 -5 2 20 15 -11 40 9 19 18 -17 22 -22 30 15 20 34 35 13 15 20 -9 -4 35 -20 -15 24 32 19 17 2 45 1 -19 11 47 -16 41 -11 47 17 33 8 37 8 45 15 7 14 -8 17 32 7 20 -6 8 19 40 -7 36 -5 -10 10 45 42 -22 36 39 34 -18 -14 27 16 18 52 28 19 44 39 -41 21 31 -14 -11 13 34 24 3 14 35 1 3 31 -7 4 13 16 16 7 17 37 17 21 40 13 -16 10 -6 -16 8 46 -1 11 -2 45 38 26 15 34 35 17 23 19 -12 41 33 4 2 -1 3 -18 -9 15 23 5 18 57 -18 20 3 19 -12 33 8 -8 30 -15 -13 -60 43 42 45 35 -4 9 15 
12 31 -3 17 13 19 10 -3 7 14 11 -13 2 5 9 -4 -5 -4 -11 5 10 4 10 -20 16 32 1 0 0 9 -7 5 2 -4 -1 6 12 -15 4 8 -1 9 4 25 30 17 -5 25 -3 -17 -3 28 11 19 -1 30 3 19 -5 6 20 -6 -2 15 -12 -1 0 -10 19 0 1 26 6 -5 -18 30 10 3 19 22 -6 30 -12 26 29 7 25 4 23 12 -3 -19 14 -2 25 21 12 27 -8 -2 24 24 17 -6 -10 3 7 30 -3 -18 20 -7 20 -15 -7 21 2 -9 -7 14 19 6 29 -25 -17 28 -4 -5 12 -4 16 -1 28 -5 -1 34 -1 -6 19 6 32 13 3 -3 22 -6 3 6 -4 8 -11 -10 -18 18 8 -17 -4 12 12 -1 20 14 21 7 19 20 11 -17 0 25 39 12 -12 15 7 14 2 20 -2 -4 18 19 -13 6 6 16 29 13 -13 -8 14 1 -29 -8 12 10 5 -7 26 23 
-8 2 16 -1 -6 -20 19 18 -14 13 -14 11 -1 -16 6 14 15 -10 0 15 1 -13 16 -18 16 0 8 4 -3 9 -6 -4 -7 2 1 -3 14 14 -17 -1 7 -15 2 13 17 -17 -20 10 -5 11 -20 -18 18 -12 7 11 16 5 3 11 14 -4 5 13 15 14 1 -17 -10 -15 2 -18 11 -7 -14 4 -5 -1 5 17 -10 -9 -7 -19 -12 -7 17 12 2 11 11 -5 0 -11 -2 11 1 -11 -17 -11 12 -5 5 -4 -19 7 -12 8 3 -14 -1 -6 1 3 18 11 0 -13 -17 -6 -10 -6 15 -2 17 11 -12 17 15 -10 -20 -2 0 14 -8 -12 -10 18 14 -6 -13 -1 12 -2 -20 -3 14 -7 -19 0 -15 -11 13 3 -7 -14 -13 16 16 -19 17 3 0 10 8 -8 11 -20 13 -6 -7 2 -6 13 10 -4 16 14 -4 14 -13 2 7 -4 -2 -12 -1 0 -15 -13 18 -11 -8 -5 -5 -14 -18 3 6 -20 
18 7 13 8 -7 -10 -6 -11 12 7 13 3 11 -17 17 8 -6 -1 10 -9 2 -4 10 9 11 -10 4 6 -6 -19 -16 -19 -10 17 -7 18 7 9 3 -16 -16 -2 -15 16 4 -15 14 -16 7 10 2 15 7 -5 -17 -8 -5 12 13 -2 10 -16 19 -17 -1 0 -2 19 -20 -18 -9 -18 5 5 -8 -4 -18 7 -9 13 -17 15 -17 2 -17 0 -5 6 -17 -11 -12 8 -8 19 -19 -7 8 -4 5 17 0 -19 -20 7 10 2 10 0 -6 1 12 -10 17 -12 -15 -11 10 -13 -20 19 7 17 -14 7 11 14 -9 -13 14 -11 -12 12 -12 14 19 18 -1 -1 -10 3 -10 7 5 -12 6 11 -9 11 16 4 -5 7 -5 17 15 -15 12 -15 -7 -17 11 3 -13 -18 -9 2 12 15 5 -5 13 14 -11 1 -6 7 -19 11 -14 -6 -6 11 -16 -15 4 -13 11 -18 -14 -12 -14 18 -18 -9 4 12 2 -1 15 7 
-6 6 -1 8 4 -1 10 6 -10 -12 -14 10 -9 9 -5 -7 17 -8 13 7 13 -9 -5 15 -1 -1 -11 1 19 -2 -12 -6 -15 15 -4 -6 5 9 -1 18 -6 5 -17 4 -8 12 3 16 18 -15 -10 -12 5 18 5 -4 -17 -12 -16 -6 -12 7 2 -16 7 8 -20 11 7 7 -17 -14 -16 16 -7 8 11 -19 17 6 16 -20 -2 -20 11 -3 6 17 -3 15 -13 -6 13 3 18 7 14 -16 7 -20 -13 17 3 -17 16 4 15 13 10 -3 14 -6 10 -13 -11 -8 -10 16 -18 7 9 -10 -9 -17 -11 -8 12 -14 13 7 12 -19 -1 7 2 8 18 2 18 -12 -3 -6 8 -11 -8 12 11 8 15 19 -1 -10 -20 19 -13 -15 11 -8 -16 -1 5 -10 4 5 -3 18 -10 -18 15 -8 10 4 10 -18 -9 -10 19 -15 -8 10 -20 -17 0 13 -19 -3 9 1 18 18 -2 14 -12 -13 -1 13 5 8 5 8 
-2 7 15 -2 3 0 -19 6 18 -7 3 -15 -9 -6 16 -3 -12 -5 -1 -9 -1 -11 5 1 -20 -1 5 -12 -11 -14 16 -9 15 -1 9 9 -1 -17 -16 12 -19 11 13 11 -16 -2 8 -3 18 15 6 18 12 -13 -17 13 -11 2 -3 -13 -9 1 15 19 -5 0 15 -18 7 13 9 17 5 1 6 -7 -11 9 16 14 5 -16 -10 3 1 11 2 -19 6 -19 17 9 19 4 18 11 1 -5 11 5 10 -15 8 13 -7 -6 -2 18 -16 -3 7 -16 0 -18 7 1 4 -11 -2 -18 -9 14 -9 -1 -17 2 -7 0 18 -18 11 -11 8 -13 -3 7 17 14 12 -1 17 0 -9 18 -8 -7 -16 5 7 1 5 -13 -16 7 0 -11 -11 5 3 1 4 -13 -16 -9 18 -13 8 -1 -11 13 10 -9 -10 12 6 4 -9 9 -5 -18 -15 7 -10 -6 2 14 -12 18 -20 12 -15 -1 1 0 2 2 -18 -7 0 7 
6 -1 14 -5 9 16 5 15 -12 6 6 -3 -5 15 16 -13 -12 5 10 7 5 -10 -13 -15 -7 -17 16 15 -1 -19 14 4 -5 -20 -7 -6 1 12 12 11 8 -8 -14 2 -13 -15 -12 7 14 -5 4 3 7 -3 -7 -16 -14 -1 -20 -11 -6 -1 2 9 5 5 3 -3 7 0 -5 7 9 -16 7 12 3 -3 -6 14 -8 -17 8 14 10 -16 3 -4 -2 8 4 5 -15 7 12 -4 -6 -16 3 -4 10 -4 2 -20 -7 12 -4 -12 -13 -5 18 15 19 -5 -17 10 -1 -9 -8 -20 4 9 -15 -18 -5 -2 -4 5 -4 -10 11 -2 -14 0 16 -7 -16 -3 -13 1 10 12 -13 3 -10 -10 1 -19 -12 10 2 -15 -3 12 3 1 -8 18 17 5 11 16 -15 12 15 12 -10 -17 -4 12 10 12 0 -2 -1 9 10 16 -19 7 -4 -15 15 10 16 0 1 14 9 -20 -3 12 -19 -20 -18 13 -14 -16 12 -2 
-9 -17 -6 -12 -3 -6 -20 -6 6 17 -3 9 12 13 -16 -16 13 -3 5 -20 -3 13 6 1 12 -4 2 18 -14 12 18 13 9 16 3 2 -6 17 19 -10 -6 1 7 3 -10 -4 -4 18 -4 -5 -11 4 4 11 -11 -3 -8 14 5 2 -8 9 8 -4 16 -11 4 14 6 1 12 4 14 0 4 -4 17 -1 -19 -7 -2 -14 -6 -19 -9 16 18 15 -9 4 -2 -18 -6 -19 -19 13 -10 0 7 7 1 4 7 -4 -5 -18 12 5 -19 -1 -15 -20 -6 -13 -20 -8 -11 -5 -4 16 3 -3 -17 5 -6 9 -14 5 3 0 18 13 4 -15 11 15 16 -20 -9 5 -13 18 -7 4 9 12 -13 4 -18 -5 -4 15 -5 8 -10 8 0 14 -17 7 5 12 -18 10 -18 -17 17 5 -18 0 5 -11 -14 10 -19 9 -7 -10 -18 2 19 -6 3 -11 16 -9 -12 -17 18 -6 4 1 -18 -10 19 -5 -1 -8 9 13 
-13 3 -3 4 -14 -11 13 -6 -20 -6 -10 -6 11 -17 -1 2 17 -7 9 17 2 -17 9 -13 -3 -11 9 -13 -1 3 11 -8 9 14 8 -13 -12 13 -15 0 -14 -10 12 3 -10 -6 0 13 14 -10 12 -1 16 -20 -3 6 19 17 -1 -16 -1 16 -1 -10 -8 -17 6 -6 7 9 0 18 -7 -4 -3 14 4 11 -8 7 -16 14 -17 -8 -6 -16 10 -14 -17 2 7 18 -10 -17 4 13 6 8 -17 -16 -13 16 19 17 11 -6 -4 18 -18 -14 -11 15 5 -15 8 -11 18 -24 -10 -2 -15 16 -17 10 13 -16 -12 0 -19 15 3 5 -16 -4 -14 4 16 10 -16 8 -13 -1 -15 -10 15 15 -8 -18 -17 -6 -14 18 17 -20 16 8 19 -13 -11 -3 5 -18 9 19 7 12 -11 -4 -18 3 0 -17 -20 -14 18 11 -10 9 7 10 10 7 14 -16 -16 4 18 -13 0 16 8 5 -20 -20 10 -1 -16 8 12 9 
-9 -12 -11 16 -17 -13 1 -1 -15 13 -4 1 10 -20 -7 -3 -3 17 -4 19 3 -16 -3 15 4 9 6 -4 -15 8 -2 18 10 -11 -9 -6 15 -5 4 1 -10 4 1 -14 -19 1 -4 -12 8 -5 -16 -16 0 -9 -13 12 11 5 -11 -6 -12 4 -11 7 -8 3 14 6 17 -8 -2 -14 19 -17 -4 -14 -15 14 0 -5 18 -7 -20 5 19 -20 10 -13 -11 8 -1 19 0 -12 -1 2 0 16 -14 -20 5 19 16 10 11 -4 -18 5 1 -5 3 -8 0 15 17 -9 -5 -19 -10 13 14 8 -5 14 -19 8 -11 1 -6 6 -6 19 16 -3 14 0 -1 -11 7 -13 -10 -16 -19 -7 -17 1 -17 6 -9 -15 -14 17 15 -5 1 -7 4 1 14 -4 -4 -13 0 2 -21 -20 -14 -11 15 -16 -9 -20 17 -19 8 11 -3 -8 5 2 -16 11 -8 -16 -16 3 -19 -5 -12 13 -20 -20 13 -3 2 -18 -20 10 4 -16 
7 13 22 -9 -16 23 22 -22 -7 13 -17 14 -12 13 -7 -11 12 -12 -4 7 9 0 -16 -6 -15 15 6 5 9 14 5 11 -12 -5 12 20 -5 -15 -4 -12 26 -11 9 13 -6 14 26 19 -19 17 10 -7 -3 2 -12 9 4 2 15 -63 4 14 -6 13 -13 16 -7 -11 10 -9 -9 -7 11 15 0 18 2 -10 5 9 -7 16 -10 -13 5 25 -5 7 0 12 -10 -9 -4 -11 12 19 15 22 -13 7 15 5 11 3 9 14 14 0 -10 9 -11 -10 2 -3 -13 8 3 -13 17 22 -17 9 -8 -2 19 21 15 1 2 15 -11 -1 -8 2 15 -18 -4 -14 21 14 0 17 -15 12 -10 15 25 23 -16 -46 3 -19 -10 19 -12 -13 -7 20 -11 -3 28 -2 4 16 8 24 1 4 6 18 -15 -3 0 26 -11 11 -12 18 -19 -4 1 -18 7 21 -20 -1 9 22 19 2 19 17 -4 -9 16 17 -10 -17 0 0 
25 -40 8 -20 14 13 -1 -11 38 -5 -3 -15 -16 3 8 -14 -9 7 9 5 23 -1 9 -17 18 13 1 -7 13 -4 -8 24 -26 -10 16 9 22 15 11 -18 14 17 3 -19 5 13 28 -14 9 -9 13 12 7 19 14 28 21 32 10 -45 33 16 10 -7 -12 -6 -40 22 -12 -7 -23 8 -12 -29 -4 22 -4 9 -5 3 -7 -19 15 4 29 3 -15 31 1 0 -20 -2 -25 6 15 13 -8 21 14 -12 -6 2 0 -21 -6 18 -17 -21 -36 5 12 18 12 -3 6 11 14 -20 4 9 11 -21 5 9 21 37 -5 2 -10 7 33 -6 -17 24 -111 3 -18 -11 -24 -3 -3 -1 -2 2 -22 -16 -4 3 18 -46 -16 -12 21 31 3 21 7 -10 31 22 1 -27 2 11 -22 -19 22 6 13 30 6 -3 21 22 -23 20 -30 38 -12 13 16 -8 -1 -6 -2 -10 -32 16 25 12 5 -14 2 16 -10 29 33 -2 16 13 
-31 -23 -20 -31 -15 -7 -22 12 4 5 2 12 -36 -40 -6 -19 23 -12 -4 2 -1 6 -35 6 0 -14 19 -28 -19 23 21 10 -20 -53 -25 -27 18 12 35 -36 8 -2 10 -21 11 5 20 -16 19 -6 13 -44 -33 -24 -8 -36 16 2 -17 -118 14 21 -11 -70 -41 11 -59 3 17 -14 -31 -17 12 -32 14 32 13 -29 -2 -21 -27 -37 -13 -34 31 5 -35 -6 -24 2 -13 2 -19 -12 -24 -12 -17 -33 17 4 -17 -4 12 -16 18 20 -12 -31 -41 -32 -38 0 -20 -6 16 0 -14 10 4 -2 16 -9 9 -22 9 9 -2 6 -22 0 16 -4 -10 2 -125 -48 -14 -15 -35 7 -32 -4 -2 -32 -60 -7 -13 -15 13 -13 -2 -26 -12 -23 -18 3 2 -3 -11 -25 -13 -34 18 18 -58 -7 -33 -5 8 -10 -31 -6 18 -32 -23 -4 -13 -15 -9 -1 17 3 10 8 -29 14 -32 -4 -4 18 -11 -7 -15 14 -16 1 -6 -54 -33 -1 
7 -1 13 20 28 4 -11 2 65 24 3 -9 9 -6 -7 -128 11 -50 9 -7 16 12 -8 -1 8 33 -7 -24 27 13 -5 33 -51 2 19 23 122 6 77 -5 47 35 -72 34 40 -3 36 -24 4 -46 61 -12 -75 9 16 73 -10 74 19 -89 47 25 38 16 5 -1 -218 96 6 -16 25 78 16 14 34 107 -9 -7 -5 3 1 43 -11 16 60 36 1 9 34 12 33 12 -14 -41 49 47 31 45 -54 -17 32 42 -12 -1 20 -10 -6 1 17 0 24 13 24 -6 16 51 34 -10 68 5 7 41 51 7 4 93 -23 -1 43 32 54 -31 17 87 -93 -30 24 -35 -35 9 29 20 0 19 -9 29 38 51 -37 -32 -3 -61 -3 59 33 17 2 -9 79 19 53 4 89 46 25 49 5 -7 25 38 -102 -6 7 3 -111 3 -56 18 14 -2 87 -6 -7 24 -26 11 11 30 16 134 12 0 -78 63 46 64 51 -71 12 87 
0 -54 -15 -13 13 -54 -14 -9 30 5 2 -20 -54 -87 24 -86 14 -68 27 -119 -89 4 76 -26 4 -13 4 -112 -23 7 -67 15 -56 -101 -78 -65 152 -18 90 -104 -61 4 -52 -88 -75 5 13 -118 31 -12 -20 -106 -57 -112 -29 69 -28 20 -21 -63 21 -60 2 -71 -37 -46 -313 55 -3 -25 -110 33 1 -49 29 24 -1 -37 16 -79 -26 -101 16 -82 -12 9 -106 -17 -49 -7 -49 2 -35 -57 -60 5 -21 -61 -33 5 -107 -26 -30 -67 -3 1 -18 -77 -75 9 -70 -125 -108 6 12 -62 -76 -13 -39 -11 9 -75 -38 -15 1 78 -31 18 -16 -4 -22 -16 -57 -1 -78 164 -26 -46 -68 7 -70 -67 19 -94 -97 29 -69 -17 -8 12 27 -88 -16 -22 -95 -54 -74 3 -46 -99 -33 -115 24 -76 -34 12 -68 -6 -15 18 -157 -46 -12 -113 -83 -10 -79 -103 7 -16 -15 32 -23 -3 8 0 -46 -52 -1 90 19 -2 -133 2 14 28 -38 -69 -39 8 
-29 -109 -24 -28 -6 -44 -36 -17 14 -7 -9 -22 -76 -116 20 -106 22 -132 41 -108 -185 -6 80 -17 5 -36 19 -157 -36 -106 -53 12 -36 -121 -125 -79 112 -39 93 -116 -112 19 -82 -163 -115 22 -4 -136 0 -17 -54 -130 -66 -146 -12 75 -25 -6 -28 -122 27 -39 -6 -138 -15 -120 -484 44 -40 -41 -161 32 -11 -92 33 -23 22 -23 -11 -91 -35 -126 -4 -112 -6 -23 -147 -5 -112 -15 -46 13 -6 -64 -119 -10 -28 -133 -13 -15 -140 -64 -24 -114 26 14 -7 -137 -131 -32 -85 -148 -147 30 50 -109 -159 -40 -52 -44 3 -107 -25 -34 -25 90 -28 1 -56 5 -51 -43 -43 -11 -116 87 -76 -35 -123 -5 -102 -133 -9 -140 -116 35 -88 -45 8 -29 23 -91 -4 -50 -169 -8 -116 -16 -113 -130 -110 -154 -10 -131 -79 48 -111 -6 -33 -2 -118 -7 -8 -126 -88 -38 -96 -111 16 -45 -69 25 -47 20 -16 48 -98 -60 -33 66 14 4 -166 33 -22 53 -55 -42 -95 -9 
-133 -156 -13 -74 -49 -98 -31 -34 -41 -51 19 -48 -145 -153 -74 -170 -8 -154 54 -36 -224 22 -5 -3 -18 -28 11 -181 -12 -140 -18 -35 -42 -184 -167 -142 23 -27 -34 -129 -194 -86 -70 -233 -193 2 -60 -152 24 -21 -137 -173 -62 -205 37 -24 -47 -91 -47 -231 -5 -25 -79 -150 -16 -190 -486 67 -29 28 -172 -64 -37 -112 -75 -90 -16 -21 28 -139 -123 -227 24 -162 -34 -94 -199 -25 -120 -26 -93 30 -28 -59 -178 -60 -47 -175 23 -20 -235 -101 10 -88 68 -31 -10 -144 -175 -5 -150 -193 -168 24 88 -164 -249 -100 -154 -70 -33 -155 -102 -80 -28 68 -8 14 -65 -71 -100 -20 -105 -85 -141 -89 -97 -30 -235 5 -133 -171 19 -168 -164 101 -179 -105 28 -106 27 -91 -46 -45 -182 35 -134 18 -186 -196 -202 -189 -78 -236 -90 10 -101 -87 -67 -46 12 -17 14 -155 -114 -44 -73 -147 65 -54 -142 1 -1 38 18 57 -78 -112 -87 50 -6 -38 -226 -29 -99 21 -116 -10 -121 -68 
-211 7 141 -8 -56 -80 -16 -13 -16 -39 17 -85 24 -3 -90 -161 27 -175 84 25 -151 16 -50 -10 -65 94 7 -4 7 -165 -4 14 -21 -81 -80 -66 117 -16 10 70 -123 8 -83 -183 -195 6 74 7 34 -2 -90 -83 -26 -66 22 8 -71 8 -71 -225 115 88 45 7 -23 -219 -494 83 -75 34 -60 60 -30 22 -53 -153 15 -17 -8 -17 -110 -144 31 -22 60 64 -93 81 -17 149 -69 57 -33 -99 -97 63 84 -120 -11 -47 -143 -7 24 40 75 -35 -22 -48 -49 0 -55 -114 -85 39 -69 -123 -232 -62 -142 -30 -25 -92 34 -131 -15 105 -41 10 51 35 -114 -16 -25 -21 -157 -161 23 -57 -291 6 -7 -97 -3 -3 -27 7 -118 -20 -13 -145 -8 -104 -77 74 -78 32 -74 3 -110 -76 -185 -46 -18 -157 5 56 30 -110 46 92 19 30 10 -12 -70 -42 -93 -39 56 59 -170 12 -73 60 -45 -77 60 -35 -70 128 -9 -47 -266 75 3 161 -39 -13 -9 2 
-242 -27 115 44 -49 -74 -28 -31 2 -24 21 -92 6 -5 -73 -221 9 -128 26 -49 -196 6 -96 -13 -37 61 2 26 7 -224 -3 11 -48 -75 -95 -81 157 -50 38 50 -171 2 -89 -222 -251 -11 29 5 23 33 -119 -69 -14 -135 21 47 -29 -42 -36 -193 122 78 5 52 -32 -190 -275 143 -95 54 -71 37 -38 25 -57 -303 -20 -7 10 -31 -135 -199 21 -67 65 16 -107 79 -39 98 -89 29 -44 -95 -116 27 100 -161 -203 3 -192 -39 16 41 50 -98 14 -51 -96 -45 -45 -154 -121 33 -172 -123 -283 -78 -195 -5 -43 -130 -3 -145 -55 139 -19 16 27 56 -210 -5 3 -30 -97 -213 -45 -64 -354 -19 -11 -88 -7 -2 40 -183 -151 -66 -104 -207 15 -90 -71 112 -125 48 -54 -16 -137 -139 -242 -64 -3 -195 37 20 9 -76 44 55 22 -5 -3 -32 -111 -43 -102 -41 62 51 -242 -16 -38 39 -37 -149 55 -71 -91 115 -20 -37 -283 57 11 127 -49 17 -26 -76 
-268 -59 77 64 -60 -62 0 -73 -27 -29 -1 -89 -26 -60 -83 -249 25 -12 -15 -91 -189 -11 -107 -30 -13 90 26 -23 54 -302 3 55 -30 -132 -157 -78 69 -59 -52 48 -188 -14 -66 -208 -217 -48 40 -7 -18 16 -135 -97 -10 -128 28 11 -53 -27 -53 -232 49 -9 -13 40 -69 -63 -249 91 -124 13 -113 19 -27 -19 -54 -231 -64 -15 24 -79 -98 -182 15 -85 -4 10 -99 55 -67 56 -89 -8 -37 -89 -128 23 31 -146 -541 1 -175 -77 9 25 -6 -116 -8 -94 -60 -61 -85 -161 -113 15 -252 -123 -248 -106 -145 -45 -46 -121 -25 -61 -30 94 -78 -31 -4 41 -201 -25 -69 -2 -143 -176 -18 -60 -280 -36 -46 -98 -13 -6 18 -406 -171 -77 -236 -228 -12 -87 -101 24 -136 10 -47 -11 -130 -120 -230 -116 -33 -203 46 -13 -19 -37 43 40 10 11 7 -19 -102 -111 -98 -67 49 20 -198 -49 -56 -19 -32 -222 19 -61 -99 70 3 -7 -250 14 -8 14 -43 -45 -54 -58 
-189 -26 138 95 -110 -46 0 -67 -25 -22 5 -104 -7 22 -78 -336 -10 -18 -54 -86 -216 -2 -77 -34 -44 65 33 43 53 -322 26 42 -67 -129 -161 -87 125 -77 -31 101 -223 -47 -11 -253 -248 -61 5 31 -94 24 -152 -81 -38 -175 -13 -21 -27 -50 -77 -200 67 59 -37 74 -91 -29 -329 94 -160 0 -82 23 3 -7 -210 -343 -63 -6 30 -55 -69 -240 -30 -70 -9 30 -84 64 -55 112 -86 -11 -18 -75 -104 -16 17 -178 -695 56 -229 -66 17 59 -25 -115 -33 -71 -71 -55 -92 -174 -108 38 -328 -179 -289 -87 -236 -54 -9 -158 -8 -100 4 85 -49 -19 -20 -13 -225 -68 -43 -72 -129 -55 -30 -79 -232 -8 -62 -128 -9 11 49 -463 -146 -28 -257 -204 -94 -113 -87 54 -96 5 -37 -15 -176 -146 -286 -65 -28 -261 105 -32 27 -33 23 13 -10 3 -11 19 -175 -88 -103 -72 26 79 -275 -10 8 -8 -54 -260 28 -94 -71 108 -14 58 -180 -27 2 26 -95 -7 -25 -94 
-147 -19 121 115 -86 -47 9 -67 -82 -24 -21 -75 23 53 -82 -288 -7 -17 -25 -173 -227 -22 -101 -31 -25 80 9 79 55 -208 10 -20 -67 -122 -157 -56 205 -35 87 82 -219 -67 -33 -257 -308 -47 1 65 -198 -55 -165 -91 -18 -151 -21 0 -12 -93 -58 -259 55 111 -76 93 -84 -66 -424 96 -69 -67 -76 -57 1 10 -216 -382 -16 41 19 -61 -71 -229 -54 -46 3 -38 -67 94 -21 117 -120 -3 -28 -94 -72 -50 109 -199 -775 12 -218 -92 -60 90 -5 -120 -26 -43 -41 -92 -64 -181 -92 40 -482 -216 -303 -118 -247 -84 16 -135 -16 -87 22 67 -22 -4 -25 -32 -267 -44 -30 -100 -42 -45 -58 -92 -226 -4 -33 -154 21 1 113 -560 -190 -47 -212 -135 -216 -113 -50 85 -68 -23 -21 -34 -169 -139 -291 -73 -86 -263 69 -67 92 -32 -43 -53 -9 5 -13 33 -190 -53 -67 -89 12 116 -244 -9 -3 -5 -25 -369 108 -87 -58 126 -35 34 -235 -57 10 -3 -98 17 -17 -108 
-105 -126 -108 -72 -68 -5 18 -62 -228 -6 -8 -69 -135 -139 -25 -49 3 -195 32 -130 -335 -21 -110 -44 -55 -90 -28 -122 -4 -240 39 -194 -51 -253 -208 -185 40 -54 18 -66 -277 -152 -54 -291 -364 -27 -204 -69 -216 -44 -272 -198 -31 -236 0 -71 8 -238 -49 -207 -120 -60 -197 -78 -80 -272 -350 -73 -92 -115 -191 -198 24 -128 -147 -384 7 0 2 -182 -46 -312 -69 -182 -106 -157 -179 -94 -162 -84 -239 38 -74 -97 -138 -190 -8 -242 -766 47 -338 -194 -64 -57 26 -58 9 -174 -142 -88 -185 -283 -207 48 -689 -255 -373 -84 -263 -134 13 -243 -172 -70 25 -91 -51 -32 -120 -178 -303 -38 -146 -246 -27 -89 -124 -44 -141 61 -146 -211 6 -150 -95 -546 -258 -177 -233 -88 -202 -59 -24 -55 -174 20 -113 6 -209 -204 -327 -139 -228 -321 -99 -149 -97 -62 -177 -214 -42 2 0 -155 1 -40 -60 -193 -11 -66 -262 9 -3 15 1 -572 -81 -151 -40 -110 -36 33 -213 -124 -131 -152 -196 28 -145 -153 
